{"learner":{"attributes":{"scikit_learn":"{\"_estimator_type\": \"classifier\"}"},"feature_names":["Sex","FamilialvsSporadic","Binary diagnosis","Final diagnosis","TOBACCO","Comorbidities","Radiological Pattern","Biopsy","Pathology Pattern Binary","Diagnosis after Biopsy","Antifibrotic Drug","Extrapulmonary affectation","Associated lung cancer","Other cancer","Hematological abnormality before diagnosis","Blood count abnormality at diagnosis","Anemia","Thrombocytopenia","Thrombocytosis","Lymphocytosis","Lymphopenia","Neutrophilia","Neutropenia","Leukocytosis","Leukopenia","Hematologic Disease","Liver abnormality before diagnosis","Liver abnormality","LDH","ALT","AST","ALP","GGT","Transaminitis","Cholestasis","Liver disease","FVC (L) at diagnosis","FVC (%) at diagnosis","DLCO (%) at diagnosis","FVC (L) 1 year after diagnosis","FVC (%) 1 year after diagnosis","DLCO (%) 1 year after diagnosis","RadioWorsening2y","1st degree relative","2nd degree relative","More than 1 relative","Genetic mutation studied in patient","Mutation Type","Severity of telomere shortening","Age_Group","Antiinflmatory Drug","DLCO (%) Change","Significant DLCO (%) Change","FVC (%) Change","Significant FVC (%) Change","FVC (L) Change"],"feature_types":["c","c","c","int","int","int","c","float","c","float","int","float","float","float","float","float","float","float","float","float","float","float","float","float","float","float","float","float","int","int","int","int","int","int","int","float","float","float","float","float","float","float","float","int","int","int","float","int","float","c","int","float","int","float","int","float"],"gradient_booster":{"model":{"gbtree_model_param":{"num_parallel_tree":"1","num_trees":"100"},"iteration_indptr":[0,1,2,3,4,5,6,7,8,9,10,11,12,13,14,15,16,17,18,19,20,21,22,23,24,25,26,27,28,29,30,31,32,33,34,35,36,37,38,39,40,41,42,43,44,45,46,47,48,49,50,51,52,53,54,55,56,57,58,59,60,61,62,63,64,65,66,67,68,69,70,71,72,73,74,75,76,77,78,79,80,81,82,83,84,85,86,87,88,89,90,91,92,93,94,95,96,97,98,99,100],"tree_info":[0,0,0,0,0,0,0,0,0,0,0,0,0,0,0,0,0,0,0,0,0,0,0,0,0,0,0,0,0,0,0,0,0,0,0,0,0,0,0,0,0,0,0,0,0,0,0,0,0,0,0,0,0,0,0,0,0,0,0,0,0,0,0,0,0,0,0,0,0,0,0,0,0,0,0,0,0,0,0,0,0,0,0,0,0,0,0,0,0,0,0,0,0,0,0,0,0,0,0,0],"trees":[{"base_weights":[-2.8808045E-1,1.3208101E0,-1.0839272E0,2.221969E0,2.8436264E-1,4.057507E-4,-1.1896769E-2,2.8127134E-2,2.4167872E-3,-4.8244107E-1,1.627238E-2,2.4167872E-3,-8.445519E-3],"categories":[],"categories_nodes":[],"categories_segments":[],"categories_sizes":[],"default_left":[1,1,0,0,0,0,0,0,0,0,0,0,0],"id":0,"left_children":[1,3,5,7,9,-1,-1,-1,-1,11,-1,-1,-1],"loss_changes":[3.4469215E1,7.7647343E0,2.1664047E0,4.7740765E0,6.271251E0,0E0,0E0,0E0,0E0,1.2956084E0,0E0,0E0,0E0],"parents":[2147483647,0,0,1,1,2,2,3,3,4,4,9,9],"right_children":[2,4,6,8,10,-1,-1,-1,-1,12,-1,-1,-1],"split_conditions":[4.8E1,-7E0,1.93E0,-1.5E-1,1E0,4.057507E-4,-1.1896769E-2,2.8127134E-2,2.4167872E-3,3.3E1,1.627238E-2,2.4167872E-3,-8.445519E-3],"split_indices":[41,51,39,55,45,0,0,0,0,38,0,0,0],"split_type":[0,0,0,0,0,0,0,0,0,0,0,0,0],"sum_hessian":[2.480192E1,7.98988E0,1.6812038E1,3.6620283E0,4.327852E0,1.4981025E0,1.5313937E1,2.4968376E0,1.1651908E0,3.1626608E0,1.1651908E0,1.1651908E0,1.99747E0],"tree_param":{"num_deleted":"0","num_feature":"56","num_nodes":"13","size_leaf_vector":"1"}},{"base_weights":[-1.325644E-1,1.4025759E0,-1.1204647E0,1.9429531E0,-2.901594E-1,-1.1776138E-2,-2.1624335E-3,2.7557645E0,1.1967685E-2,-7.2695427E-3,3.6557913E-3,3.0766726E-2,9.941159E-3,-7.221416E-3,8.576864E-3],"categories":[],"categories_nodes":[],"categories_segments":[],"categories_sizes":[],"default_left":[1,0,0,0,0,0,0,1,0,0,0,0,0,0,0],"id":1,"left_children":[1,3,5,7,9,-1,-1,11,13,-1,-1,-1,-1,-1,-1],"loss_changes":[3.9373608E1,9.897472E0,5.578003E-1,1.2310867E1,1.2221996E0,0E0,0E0,6.7985535E-2,2.6893885E0,0E0,0E0,0E0,0E0,0E0,0E0],"parents":[2147483647,0,0,1,1,2,2,3,3,4,4,7,7,8,8],"right_children":[2,4,6,8,10,-1,-1,12,14,-1,-1,-1,-1,-1,-1],"split_conditions":[5E1,6E0,1E0,8.1E1,-4.5E0,-1.1776138E-2,-2.1624335E-3,-1.5E-1,1E0,-7.2695427E-3,3.6557913E-3,3.0766726E-2,9.941159E-3,-7.221416E-3,8.576864E-3],"split_indices":[41,3,35,37,53,0,0,55,28,0,0,0,0,0,0],"split_type":[0,0,0,0,0,0,0,0,0,0,0,0,0,0,0],"sum_hessian":[2.3926105E1,9.203946E0,1.4722159E1,6.864691E0,2.3392553E0,1.35626135E1,1.1595453E0,4.5305243E0,2.3341665E0,1.338837E0,1.0004183E0,3.2009542E0,1.3295703E0,1.3277556E0,1.006411E0],"tree_param":{"num_deleted":"0","num_feature":"56","num_nodes":"15","size_leaf_vector":"1"}},{"base_weights":[-3.386121E-1,1.1141542E0,-1.0286905E0,1.6558616E0,-2.882755E-1,-1.1817784E-2,-3.7418112E-2,2.629871E-2,4.68676E-1,-7.2495113E-3,3.6527717E-3,7.1330993E-3,-7.1898745E-3,1.2788519E-2,-7.2335624E-3],"categories":[],"categories_nodes":[],"categories_segments":[],"categories_sizes":[],"default_left":[1,0,1,0,0,0,0,0,0,0,0,0,0,0,0],"id":2,"left_children":[1,3,5,7,9,-1,11,-1,13,-1,-1,-1,-1,-1,-1],"loss_changes":[2.73951E1,7.2478247E0,2.7284317E0,6.3726788E0,1.2165625E0,0E0,2.2919052E0,0E0,4.9629006E0,0E0,0E0,0E0,0E0,0E0,0E0],"parents":[2147483647,0,0,1,1,2,2,3,3,4,4,6,6,8,8],"right_children":[2,4,6,8,10,-1,12,-1,14,-1,-1,-1,-1,-1,-1],"split_conditions":[4.3E1,6E0,1E0,-4.3E0,-3.5E0,-1.1817784E-2,6.2E1,2.629871E-2,3.7E1,-7.2495113E-3,3.6527717E-3,7.1330993E-3,-7.1898745E-3,1.2788519E-2,-7.2335624E-3],"split_indices":[41,3,26,51,51,0,41,0,38,0,0,0,0,0,0],"split_type":[0,0,0,0,0,0,0,0,0,0,0,0,0,0,0],"sum_hessian":[2.5182928E1,7.9119673E0,1.727096E1,5.5770483E0,2.3349187E0,1.4794045E1,2.476915E0,2.3960385E0,3.18101E0,1.3342104E0,1.0007085E0,1.1564977E0,1.3204173E0,1.8504801E0,1.3305298E0],"tree_param":{"num_deleted":"0","num_feature":"56","num_nodes":"15","size_leaf_vector":"1"}},{"base_weights":[-3.576782E-1,1.2187148E0,-9.9158907E-1,1.8657345E0,-5.1083746E-3,2.5490776E-3,-1.1323789E0,2.2831824E0,-1.3544825E-3,-2.07713E-3,-1.1835124E-2,2.836396E-2,2.3085896E-3],"categories":[],"categories_nodes":[],"categories_segments":[],"categories_sizes":[],"default_left":[1,0,0,0,0,0,0,1,0,0,0,0,0],"id":3,"left_children":[1,3,5,7,-1,-1,9,11,-1,-1,-1,-1,-1],"loss_changes":[2.7956264E1,1.0045703E1,3.7356129E0,5.4286194E0,0E0,0E0,5.972862E-1,5.1656E0,0E0,0E0,0E0,0E0,0E0],"parents":[2147483647,0,0,1,1,2,2,3,3,6,6,7,7],"right_children":[2,4,6,8,-1,-1,10,12,-1,-1,-1,-1,-1],"split_conditions":[4.3E1,6E0,4.81E1,8.43E1,-5.1083746E-3,2.5490776E-3,-1.29E1,-1.3E-1,-1.3544825E-3,-2.07713E-3,-1.1835124E-2,2.836396E-2,2.3085896E-3],"split_indices":[41,3,38,37,0,0,53,55,0,0,0,0,0],"split_type":[0,0,0,0,0,0,0,0,0,0,0,0,0],"sum_hessian":[2.576673E1,7.125267E0,1.8641462E1,5.1281176E0,1.9971495E0,1.8095841E0,1.6831879E1,4.1264257E0,1.0016918E0,1.1472842E0,1.5684593E1,2.9493682E0,1.1770576E0],"tree_param":{"num_deleted":"0","num_feature":"56","num_nodes":"13","size_leaf_vector":"1"}},{"base_weights":[-1.5222348E-1,1.5807545E0,-9.805006E-1,2.0913644E0,-1.7494679E-3,4.531955E-3,-1.127519E0,-1.4963128E-3,2.485468E0,-1.1792921E-2,-2.0523528E-3,2.8298417E-2,3.594172E-3],"categories":[],"categories_nodes":[],"categories_segments":[],"categories_sizes":[],"default_left":[1,1,0,0,0,0,0,0,1,0,0,0,0],"id":4,"left_children":[1,3,5,7,-1,-1,9,-1,11,-1,-1,-1,-1],"loss_changes":[4.0626896E1,8.601572E0,4.5236626E0,6.7256203E0,0E0,0E0,5.961361E-1,0E0,3.503933E0,0E0,0E0,0E0,0E0],"parents":[2147483647,0,0,1,1,2,2,3,3,6,6,8,8],"right_children":[2,4,6,8,-1,-1,10,-1,12,-1,-1,-1,-1],"split_conditions":[4.8E1,7.8E1,4.81E1,4.42E1,-1.7494679E-3,4.531955E-3,1E0,-1.4963128E-3,-1.6E0,-1.1792921E-2,-2.0523528E-3,2.8298417E-2,3.594172E-3],"split_indices":[41,40,38,40,0,0,28,0,53,0,0,0,0],"split_type":[0,0,0,0,0,0,0,0,0,0,0,0,0],"sum_hessian":[2.622401E1,8.186717E0,1.8037294E1,6.1941032E0,1.9926132E0,1.4839095E0,1.6553385E1,1.0191607E0,5.174943E0,1.5409682E1,1.143703E0,4.1686754E0,1.0062671E0],"tree_param":{"num_deleted":"0","num_feature":"56","num_nodes":"13","size_leaf_vector":"1"}},{"base_weights":[-2.407665E-1,1.2640358E0,-1.0640852E0,1.8134909E0,-1.0721138E-1,6.7354715E-4,-1.1737189E-2,-1.5464366E-3,2.185358E0,-7.5802403E-3,6.857945E-3,2.5483806E-2,5.5369483E-3],"categories":[],"categories_nodes":[],"categories_segments":[],"categories_sizes":[],"default_left":[1,0,0,0,0,0,0,0,0,0,0,0,0],"id":5,"left_children":[1,3,5,7,9,-1,-1,-1,11,-1,-1,-1,-1],"loss_changes":[3.3168667E1,7.3828325E0,2.2058563E0,5.364008E0,2.4157438E0,0E0,0E0,0E0,2.0493927E0,0E0,0E0,0E0,0E0],"parents":[2147483647,0,0,1,1,2,2,3,3,4,4,8,8],"right_children":[2,4,6,8,10,-1,-1,-1,12,-1,-1,-1,-1],"split_conditions":[5E1,8.2E1,-3E-1,5.5E1,1E0,6.7354715E-4,-1.1737189E-2,-1.5464366E-3,6E0,-7.5802403E-3,6.857945E-3,2.5483806E-2,5.5369483E-3],"split_indices":[41,37,55,37,28,0,0,0,3,0,0,0,0],"split_type":[0,0,0,0,0,0,0,0,0,0,0,0,0],"sum_hessian":[2.4686338E1,8.540796E0,1.6145542E1,5.8672805E0,2.6735156E0,1.4603277E0,1.4685214E1,1.0252441E0,4.8420367E0,1.4926361E0,1.1808796E0,3.5012312E0,1.3408054E0],"tree_param":{"num_deleted":"0","num_feature":"56","num_nodes":"13","size_leaf_vector":"1"}},{"base_weights":[-1.0951296E-1,1.4028327E0,-1.0024843E0,1.9496738E0,-2.924063E-1,-1.16687175E-2,1.0486039E-3,2.6615422E0,7.446646E-2,-7.2864513E-3,3.6425916E-3,3.0453265E-2,6.721727E-3,3.6585673E-3,-2.2763028E-3],"categories":[],"categories_nodes":[],"categories_segments":[],"categories_sizes":[],"default_left":[1,0,1,0,0,0,0,1,0,0,0,0,0,0,0],"id":6,"left_children":[1,3,5,7,9,-1,-1,11,13,-1,-1,-1,-1,-1,-1],"loss_changes":[3.6799316E1,9.976034E0,3.228096E0,1.0216818E1,1.2234248E0,0E0,0E0,2.248745E0,3.6282483E-1,0E0,0E0,0E0,0E0,0E0,0E0],"parents":[2147483647,0,0,1,1,2,2,3,3,4,4,7,7,8,8],"right_children":[2,4,6,8,10,-1,-1,12,14,-1,-1,-1,-1,-1,-1],"split_conditions":[4.8E1,6E0,1E0,8.1E1,7E1,-1.16687175E-2,1.0486039E-3,-1.5E-1,1E0,-7.2864513E-3,3.6425916E-3,3.0453265E-2,6.721727E-3,3.6585673E-3,-2.2763028E-3],"split_indices":[41,3,26,37,37,0,0,55,46,0,0,0,0,0,0],"split_type":[0,0,0,0,0,0,0,0,0,0,0,0,0,0,0],"sum_hessian":[2.5207691E1,9.146356E0,1.6061337E1,6.8020873E0,2.344268E0,1.3938397E1,2.122939E0,4.626455E0,2.1756327E0,1.3426795E0,1.0015886E0,3.4333093E0,1.1931455E0,1.0000076E0,1.1756251E0],"tree_param":{"num_deleted":"0","num_feature":"56","num_nodes":"15","size_leaf_vector":"1"}},{"base_weights":[-1.9937876E-1,1.1223406E0,-9.8407143E-1,1.5090923E0,-7.295895E-3,-1.1579783E-2,1.0408144E-3,1.9016714E0,-3.0250489E-3,-1.53667E-3,2.281301E0,2.7361138E-2,2.3337312E-3],"categories":[],"categories_nodes":[],"categories_segments":[],"categories_sizes":[],"default_left":[1,0,1,1,0,0,0,0,0,0,0,0,0],"id":7,"left_children":[1,3,5,7,-1,-1,-1,9,-1,-1,11,-1,-1],"loss_changes":[2.6694046E1,8.018839E0,3.1510782E0,6.48946E0,0E0,0E0,0E0,5.790579E0,0E0,0E0,4.90168E0,0E0,0E0],"parents":[2147483647,0,0,1,1,2,2,3,3,7,7,10,10],"right_children":[2,4,6,8,-1,-1,-1,10,-1,-1,12,-1,-1],"split_conditions":[4.8E1,3.18E0,1E0,-6E-2,-7.295895E-3,-1.1579783E-2,1.0408144E-3,4.5E1,-3.0250489E-3,-1.53667E-3,8.1E1,2.7361138E-2,2.3337312E-3],"split_indices":[41,36,26,55,0,0,0,40,0,0,37,0,0],"split_type":[0,0,0,0,0,0,0,0,0,0,0,0,0],"sum_hessian":[2.3673138E1,8.658558E0,1.5014581E1,7.3158593E0,1.3426987E0,1.2890304E1,2.124277E0,5.971989E0,1.34387E0,1.0238768E0,4.948112E0,3.7739394E0,1.1741729E0],"tree_param":{"num_deleted":"0","num_feature":"56","num_nodes":"13","size_leaf_vector":"1"}},{"base_weights":[-3.4185207E-1,1.2398652E0,-1.065922E0,1.8159504E0,-4.90826E-3,-1.1702727E-2,-1.0027511E-4,2.1973934E0,-1.3764144E-3,2.6561972E-2,4.9603893E-3],"categories":[],"categories_nodes":[],"categories_segments":[],"categories_sizes":[],"default_left":[1,0,0,0,0,0,0,1,0,0,0],"id":8,"left_children":[1,3,5,7,-1,-1,-1,9,-1,-1,-1],"loss_changes":[3.0241383E1,9.258159E0,1.9560947E0,5.1527348E0,0E0,0E0,0E0,2.9791908E0,0E0,0E0,0E0],"parents":[2147483647,0,0,1,1,2,2,3,3,7,7],"right_children":[2,4,6,8,-1,-1,-1,10,-1,-1,-1],"split_conditions":[4.3E1,1E0,1E0,6E0,-4.90826E-3,-1.1702727E-2,-1.0027511E-4,2.32E0,-1.3764144E-3,2.6561972E-2,4.9603893E-3],"split_indices":[41,27,44,3,0,0,0,39,0,0,0],"split_type":[0,0,0,0,0,0,0,0,0,0,0],"sum_hessian":[2.425141E1,7.391802E0,1.685961E1,5.508842E0,1.8829595E0,1.52447E1,1.6149082E0,4.504527E0,1.0043149E0,3.1057696E0,1.3987576E0],"tree_param":{"num_deleted":"0","num_feature":"56","num_nodes":"11","size_leaf_vector":"1"}},{"base_weights":[-6.0103685E-2,1.4367946E0,-9.815038E-1,1.9966546E0,-2.8408283E-1,2.6328226E-3,-1.0937487E0,-2.4086216E-3,2.4474812E0,3.6580123E-3,-7.210124E-3,-1.1536326E-2,-1.7950548E-3,3.1241907E-2,5.380249E-3],"categories":[],"categories_nodes":[],"categories_segments":[],"categories_sizes":[],"default_left":[1,0,0,0,0,0,1,0,1,0,0,0,0,0,0],"id":9,"left_children":[1,3,5,7,9,-1,11,-1,13,-1,-1,-1,-1,-1,-1],"loss_changes":[3.6061108E1,1.0180595E1,2.543768E0,8.309614E0,1.2078341E0,0E0,6.1434555E-1,0E0,6.6656647E0,0E0,0E0,0E0,0E0,0E0,0E0],"parents":[2147483647,0,0,1,1,2,2,3,3,4,4,6,6,8,8],"right_children":[2,4,6,8,10,-1,12,-1,14,-1,-1,-1,-1,-1,-1],"split_conditions":[4.8E1,8.1E1,4.83E1,4.5E1,1E0,2.6328226E-3,1E0,-2.4086216E-3,-1.5E-1,3.6580123E-3,-7.210124E-3,-1.1536326E-2,-1.7950548E-3,3.1241907E-2,5.380249E-3],"split_indices":[41,37,38,40,46,0,13,0,55,0,0,0,0,0,0],"split_type":[0,0,0,0,0,0,0,0,0,0,0,0,0,0,0],"sum_hessian":[2.4123133E1,8.978074E0,1.5145059E1,6.6532817E0,2.3247929E0,1.141402E0,1.4003656E1,1.1938355E0,5.459446E0,1.0000786E0,1.3247143E0,1.2897041E1,1.106616E0,3.561194E0,1.898252E0],"tree_param":{"num_deleted":"0","num_feature":"56","num_nodes":"15","size_leaf_vector":"1"}},{"base_weights":[-9.47101E-2,1.6079046E0,-9.568059E-1,2.0544016E0,8.1939384E-2,5.9189326E-3,-1.1094065E0,2.4127169E0,1.7732105E-3,3.629302E-3,-2.1655187E-3,-1.1623423E-2,-1.8421988E-3,2.8069267E-2,7.850429E-3],"categories":[],"categories_nodes":[],"categories_segments":[],"categories_sizes":[],"default_left":[1,0,0,0,0,0,0,1,0,0,0,0,0,0,0],"id":10,"left_children":[1,3,5,7,9,-1,11,13,-1,-1,-1,-1,-1,-1,-1],"loss_changes":[4.082424E1,6.215616E0,5.0039997E0,4.4196377E0,3.438442E-1,0E0,6.2301064E-1,1.6287498E0,0E0,0E0,0E0,0E0,0E0,0E0,0E0],"parents":[2147483647,0,0,1,1,2,2,3,3,4,4,6,6,7,7],"right_children":[2,4,6,8,10,-1,12,14,-1,-1,-1,-1,-1,-1,-1],"split_conditions":[4.8E1,8.1E1,4.81E1,1E0,-4.2E0,5.9189326E-3,1E0,-1E-1,1.7732105E-3,3.629302E-3,-2.1655187E-3,-1.1623423E-2,-1.8421988E-3,2.8069267E-2,7.850429E-3],"split_indices":[41,37,38,27,51,0,44,55,0,0,0,0,0,0,0],"split_type":[0,0,0,0,0,0,0,0,0,0,0,0,0,0,0],"sum_hessian":[2.5764778E1,8.369717E0,1.7395063E1,6.207196E0,2.1625202E0,1.3020656E0,1.6092997E1,4.9726186E0,1.2345775E0,1.0027133E0,1.1598068E0,1.4979587E1,1.1134102E0,3.4198542E0,1.5527642E0],"tree_param":{"num_deleted":"0","num_feature":"56","num_nodes":"15","size_leaf_vector":"1"}},{"base_weights":[-1.6200647E-1,1.2567164E0,-9.352095E-1,1.6592407E0,-1.7367832E-3,5.825132E-3,-1.0970656E0,1.9748379E0,-1.620725E-3,-1.8214403E-3,-1.1534512E-2,2.346493E-2,1.9839616E-3],"categories":[],"categories_nodes":[],"categories_segments":[],"categories_sizes":[],"default_left":[1,0,0,0,0,0,0,0,0,0,0,0,0],"id":11,"left_children":[1,3,5,7,-1,-1,9,11,-1,-1,-1,-1,-1],"loss_changes":[2.9368929E1,5.753894E0,4.866411E0,4.6327686E0,0E0,0E0,6.1001587E-1,3.8065681E0,0E0,0E0,0E0,0E0,0E0],"parents":[2147483647,0,0,1,1,2,2,3,3,6,6,7,7],"right_children":[2,4,6,8,-1,-1,10,12,-1,-1,-1,-1,-1],"split_conditions":[4.8E1,8.43E1,4.81E1,2E0,-1.7367832E-3,5.825132E-3,-1.29E1,1E0,-1.620725E-3,-1.8214403E-3,-1.1534512E-2,2.346493E-2,1.9839616E-3],"split_indices":[41,37,38,7,0,0,53,27,0,0,0,0,0],"split_type":[0,0,0,0,0,0,0,0,0,0,0,0,0],"sum_hessian":[2.470159E1,8.492911E0,1.620868E1,6.502944E0,1.9899672E0,1.3115284E0,1.4897151E1,5.4706893E0,1.0322545E0,1.1103743E0,1.3786777E1,4.2587976E0,1.2118917E0],"tree_param":{"num_deleted":"0","num_feature":"56","num_nodes":"13","size_leaf_vector":"1"}},{"base_weights":[-1.5289693E-1,1.1632057E0,-9.40152E-1,1.7220654E0,-1.9852701E-1,5.7692104E-3,-1.0983638E0,2.256025E0,3.2159156E-1,-8.139091E-3,6.863191E-3,-1.8333968E-3,-1.1533776E-2,6.840678E-3,2.5183382E-2,-7.1117887E-3,1.28320325E-2],"categories":[],"categories_nodes":[],"categories_segments":[],"categories_sizes":[],"default_left":[1,0,0,0,0,0,0,0,0,0,0,0,0,0,0,0,0],"id":12,"left_children":[1,3,5,7,9,-1,11,13,15,-1,-1,-1,-1,-1,-1,-1,-1],"loss_changes":[2.9311716E1,8.439501E0,4.8566065E0,4.993391E0,2.7327778E0,0E0,6.0790634E-1,4.9176025E-1,4.16728E0,0E0,0E0,0E0,0E0,0E0,0E0,0E0,0E0],"parents":[2147483647,0,0,1,1,2,2,3,3,4,4,6,6,7,7,8,8],"right_children":[2,4,6,8,10,-1,12,14,16,-1,-1,-1,-1,-1,-1,-1,-1],"split_conditions":[4.8E1,8.1E1,4.81E1,-1.5E-1,1E0,5.7692104E-3,-1.3E1,2E0,-2.1E0,-8.139091E-3,6.863191E-3,-1.8333968E-3,-1.1533776E-2,6.840678E-3,2.5183382E-2,-7.1117887E-3,1.28320325E-2],"split_indices":[41,37,38,55,28,0,53,48,51,0,0,0,0,0,0,0,0],"split_type":[0,0,0,0,0,0,0,0,0,0,0,0,0,0,0,0,0],"sum_hessian":[2.623472E1,9.640522E0,1.6594198E1,6.647679E0,2.9928434E0,1.3172013E0,1.5276998E1,4.370452E0,2.2772267E0,1.8124862E0,1.1803571E0,1.1121224E0,1.4164875E1,1.1409482E0,3.2295039E0,1.2235572E0,1.0536695E0],"tree_param":{"num_deleted":"0","num_feature":"56","num_nodes":"17","size_leaf_vector":"1"}},{"base_weights":[-2.4245036E-1,1.184568E0,-9.8373044E-1,1.7869251E0,-1.3318495E-1,2.5376433E-3,-1.0906644E0,2.4678811E-2,1.7654337E-3,-8.036594E-3,8.212687E-3,-1.6669173E-3,-1.148055E-2],"categories":[],"categories_nodes":[],"categories_segments":[],"categories_sizes":[],"default_left":[1,0,0,1,0,0,0,0,0,0,0,0,0],"id":13,"left_children":[1,3,5,7,9,-1,11,-1,-1,-1,-1,-1,-1],"loss_changes":[2.7376713E1,7.3221445E0,2.5070496E0,6.357069E0,3.0472672E0,0E0,6.412716E-1,0E0,0E0,0E0,0E0,0E0,0E0],"parents":[2147483647,0,0,1,1,2,2,3,3,4,4,6,6],"right_children":[2,4,6,8,10,-1,12,-1,-1,-1,-1,-1,-1],"split_conditions":[4.8E1,-1.5E-1,4.7E1,-6E0,-2.1E0,2.5376433E-3,-3E-1,2.4678811E-2,1.7654337E-3,-8.036594E-3,8.212687E-3,-1.6669173E-3,-1.148055E-2],"split_indices":[41,55,38,51,51,0,55,0,0,0,0,0,0],"split_type":[0,0,0,0,0,0,0,0,0,0,0,0,0],"sum_hessian":[2.3778706E1,7.924828E0,1.5853877E1,5.1943865E0,2.7304413E0,1.1517817E0,1.4702096E1,3.2764463E0,1.9179401E0,1.6966128E0,1.0338284E0,1.0881242E0,1.3613972E1],"tree_param":{"num_deleted":"0","num_feature":"56","num_nodes":"13","size_leaf_vector":"1"}},{"base_weights":[-1.2293303E-1,1.1783078E0,-1.0320691E0,1.5783075E0,-2.754775E-1,2.5538262E-3,-1.1479285E-2,1.8826231E0,-2.3834577E-3,-7.116457E-3,3.6385085E-3,-2.675307E-3,2.3205768E-2],"categories":[0,1],"categories_nodes":[3,4],"categories_segments":[0,1],"categories_sizes":[1,1],"default_left":[1,0,0,1,1,0,0,0,0,0,0,0,0],"id":14,"left_children":[1,3,5,7,9,-1,-1,11,-1,-1,-1,-1,-1],"loss_changes":[3.2565132E1,7.044424E0,2.6996498E0,5.4586887E0,1.1802545E0,0E0,0E0,8.035931E0,0E0,0E0,0E0,0E0,0E0],"parents":[2147483647,0,0,1,1,2,2,3,3,4,4,7,7],"right_children":[2,4,6,8,10,-1,-1,12,-1,-1,-1,-1,-1],"split_conditions":[5.02E1,8.43E1,4.81E1,NaN,NaN,2.5538262E-3,-1.1479285E-2,4.66E1,-2.3834577E-3,-7.116457E-3,3.6385085E-3,-2.675307E-3,2.3205768E-2],"split_indices":[41,37,38,0,6,0,0,40,0,0,0,0,0],"split_type":[0,0,0,1,1,0,0,0,0,0,0,0,0],"sum_hessian":[2.5499502E1,1.0366262E1,1.5133241E1,8.062314E0,2.303948E0,1.149998E0,1.3983243E1,6.8744335E0,1.1878806E0,1.3023397E0,1.0016084E0,1.2291248E0,5.6453085E0],"tree_param":{"num_deleted":"0","num_feature":"56","num_nodes":"13","size_leaf_vector":"1"}},{"base_weights":[-2.2423916E-1,1.2299684E0,-9.927544E-1,1.6013442E0,2.3720168E-2,4.487887E-3,-1.1523439E-2,1.8706149E0,3.7945178E-3,-7.062882E-3,7.985024E-3,2.3990056E-2,6.857043E-1,-1.8854297E-3,1.22089265E-2],"categories":[],"categories_nodes":[],"categories_segments":[],"categories_sizes":[],"default_left":[1,1,0,0,0,0,0,0,0,0,0,0,1,0,0],"id":15,"left_children":[1,3,5,7,9,-1,-1,11,-1,-1,-1,-1,13,-1,-1],"loss_changes":[3.0594604E1,4.233039E0,4.6004086E0,1.6837273E0,2.4074764E0,0E0,0E0,1.927887E0,0E0,0E0,0E0,0E0,1.708796E0,0E0,0E0],"parents":[2147483647,0,0,1,1,2,2,3,3,4,4,7,7,12,12],"right_children":[2,4,6,8,10,-1,-1,12,-1,-1,-1,-1,14,-1,-1],"split_conditions":[4.8E1,2.5E0,4.81E1,6E0,1E0,4.487887E-3,-1.1523439E-2,-3.5E0,3.7945178E-3,-7.062882E-3,7.985024E-3,2.3990056E-2,-2E0,-1.8854297E-3,1.22089265E-2],"split_indices":[41,39,38,3,28,0,0,51,0,0,0,0,51,0,0],"split_type":[0,0,0,0,0,0,0,0,0,0,0,0,0,0,0],"sum_hessian":[2.5283154E1,8.534143E0,1.674901E1,6.274752E0,2.259391E0,1.4887998E0,1.5260211E1,4.706628E0,1.5681244E0,1.2088261E0,1.0505651E0,2.5464513E0,2.1601765E0,1.0662045E0,1.093972E0],"tree_param":{"num_deleted":"0","num_feature":"56","num_nodes":"15","size_leaf_vector":"1"}},{"base_weights":[-2.223298E-1,9.7550774E-1,-9.653103E-1,1.2876649E0,-4.0383884E-3,-1.1365867E-2,7.4924275E-2,1.8399478E0,2.4419528E-1,-6.5366607E-3,7.6641184E-3,2.3139496E-3,2.2066673E-2,-8.324486E-3,1.51307E-2],"categories":[],"categories_nodes":[],"categories_segments":[],"categories_sizes":[],"default_left":[1,0,1,1,0,0,0,0,0,0,0,0,0,0,0],"id":16,"left_children":[1,3,5,7,-1,-1,9,11,13,-1,-1,-1,-1,-1,-1],"loss_changes":[2.342489E1,4.898278E0,2.9526672E0,4.4668436E0,0E0,0E0,2.119972E0,2.6896648E0,6.868131E0,0E0,0E0,0E0,0E0,0E0,0E0],"parents":[2147483647,0,0,1,1,2,2,3,3,6,6,7,7,8,8],"right_children":[2,4,6,8,-1,-1,10,12,14,-1,-1,-1,-1,-1,-1],"split_conditions":[5E1,8.43E1,1E0,-1.5E-1,-4.0383884E-3,-1.1365867E-2,3E0,-1.24E1,-8E-1,-6.5366607E-3,7.6641184E-3,2.3139496E-3,2.2066673E-2,-8.324486E-3,1.51307E-2],"split_indices":[41,37,26,55,0,0,3,53,51,0,0,0,0,0,0],"split_type":[0,0,0,0,0,0,0,0,0,0,0,0,0,0,0],"sum_hessian":[2.4262901E1,9.168472E0,1.5094429E1,7.530685E0,1.637787E0,1.2880935E1,2.213495E0,4.4252243E0,3.1054606E0,1.1044645E0,1.1090304E0,1.1243671E0,3.3008573E0,1.8660549E0,1.2394056E0],"tree_param":{"num_deleted":"0","num_feature":"56","num_nodes":"15","size_leaf_vector":"1"}},{"base_weights":[-2.9213837E-1,9.404294E-1,-9.8116726E-1,1.4120296E0,-3.288071E-1,2.4701227E-3,-1.0851198E0,-2.6531564E-3,1.78968E0,-7.5408495E-3,3.623846E-3,-1.1413848E-2,-1.5119871E-3,2.2153914E-2,3.5387087E-3],"categories":[],"categories_nodes":[],"categories_segments":[],"categories_sizes":[],"default_left":[1,0,0,0,0,0,0,0,1,0,0,0,0,0,0],"id":17,"left_children":[1,3,5,7,9,-1,11,-1,13,-1,-1,-1,-1,-1,-1],"loss_changes":[2.3087107E1,6.3713512E0,2.46776E0,5.1522427E0,1.2975518E0,0E0,6.718731E-1,0E0,2.9789295E0,0E0,0E0,0E0,0E0,0E0,0E0],"parents":[2147483647,0,0,1,1,2,2,3,3,4,4,6,6,8,8],"right_children":[2,4,6,8,10,-1,12,-1,14,-1,-1,-1,-1,-1,-1],"split_conditions":[4.8E1,8.2E1,4.7E1,4.5E1,4.8E1,2.4701227E-3,1E0,-2.6531564E-3,-1.5E-1,-7.5408495E-3,3.623846E-3,-1.1413848E-2,-1.5119871E-3,2.2153914E-2,3.5387087E-3],"split_indices":[41,37,38,40,38,0,28,0,55,0,0,0,0,0,0],"split_type":[0,0,0,0,0,0,0,0,0,0,0,0,0,0,0],"sum_hessian":[2.5098017E1,8.868593E0,1.6229424E1,6.384027E0,2.484566E0,1.1590672E0,1.5070356E1,1.2278688E0,5.156158E0,1.4818301E0,1.0027359E0,1.4004499E1,1.0658572E0,3.5582075E0,1.5979505E0],"tree_param":{"num_deleted":"0","num_feature":"56","num_nodes":"15","size_leaf_vector":"1"}},{"base_weights":[-1.5641908E-1,1.2504517E0,-7.834342E-1,1.6030153E0,-6.3968794E-3,7.050746E-3,-9.751898E-1,2.0200334E0,-2.543456E-3,6.4947265E-3,-1.1456426E-2,2.504809E-2,9.919067E-1,1.5742948E-2,-1.9369407E-3],"categories":[0,0,1],"categories_nodes":[1,12],"categories_segments":[0,1],"categories_sizes":[1,2],"default_left":[1,1,0,0,0,0,0,0,0,0,0,0,1,0,0],"id":18,"left_children":[1,3,5,7,-1,-1,9,11,-1,-1,-1,-1,13,-1,-1],"loss_changes":[2.3456253E1,6.516692E0,5.893736E0,6.113867E0,0E0,0E0,5.334915E0,5.1402473E-1,0E0,0E0,0E0,0E0,2.7791998E0,0E0,0E0],"parents":[2147483647,0,0,1,1,2,2,3,3,6,6,7,7,12,12],"right_children":[2,4,6,8,-1,-1,10,12,-1,-1,-1,-1,14,-1,-1],"split_conditions":[3.9E1,NaN,-4.5E-1,1E0,-6.3968794E-3,7.050746E-3,4.34E1,3.2E1,-2.543456E-3,6.4947265E-3,-1.1456426E-2,2.504809E-2,NaN,1.5742948E-2,-1.9369407E-3],"split_indices":[41,8,55,32,0,0,38,41,0,0,0,0,49,0,0],"split_type":[0,1,0,0,0,0,0,0,0,0,0,0,1,0,0],"sum_hessian":[2.4479948E1,7.2402587E0,1.7239689E1,6.230082E0,1.0101767E0,1.6619337E0,1.5577755E1,5.0162435E0,1.2138386E0,1.2123191E0,1.4365436E1,2.4328406E0,2.5834029E0,1.5125605E0,1.0708424E0],"tree_param":{"num_deleted":"0","num_feature":"56","num_nodes":"15","size_leaf_vector":"1"}},{"base_weights":[-2.3783857E-1,1.143768E0,-9.5996314E-1,1.4483172E0,-2.9567082E-3,7.0188064E-3,-1.136532E-2,-2.6503294E-3,1.8404355E0,2.2286937E-2,5.9177815E-3],"categories":[],"categories_nodes":[],"categories_segments":[],"categories_sizes":[],"default_left":[1,0,0,0,0,0,0,0,1,0,0],"id":19,"left_children":[1,3,5,7,-1,-1,-1,-1,9,-1,-1],"loss_changes":[2.4759632E1,4.1970577E0,5.527569E0,5.3689384E0,0E0,0E0,0E0,0E0,1.608429E0,0E0,0E0],"parents":[2147483647,0,0,1,1,2,2,3,3,8,8],"right_children":[2,4,6,8,-1,-1,-1,-1,10,-1,-1],"split_conditions":[4.8E1,8.2E1,4.81E1,4.5E1,-2.9567082E-3,7.0188064E-3,-1.136532E-2,-2.6503294E-3,-1.5E-1,2.2286937E-2,5.9177815E-3],"split_indices":[41,37,38,40,0,0,0,0,55,0,0],"split_type":[0,0,0,0,0,0,0,0,0,0,0],"sum_hessian":[2.2716396E1,7.5971804E0,1.5119215E1,6.2654085E0,1.3317719E0,1.1663706E0,1.3952845E1,1.2272172E0,5.0381913E0,3.2444794E0,1.7937119E0],"tree_param":{"num_deleted":"0","num_feature":"56","num_nodes":"11","size_leaf_vector":"1"}},{"base_weights":[-1.8182178E-1,1.1167749E0,-1.0748963E0,1.538655E0,-5.0191567E-3,-1.7367725E-3,-1.1317807E-2,-2.6378324E-3,1.8667516E0,2.138629E0,2.219131E-3,6.135738E-3,2.5706248E-2],"categories":[],"categories_nodes":[],"categories_segments":[],"categories_sizes":[],"default_left":[1,0,0,0,0,0,0,0,1,0,0,0,0],"id":20,"left_children":[1,3,5,7,-1,-1,-1,-1,9,11,-1,-1,-1],"loss_changes":[3.0357498E1,8.103156E0,5.932255E-1,5.6737843E0,0E0,0E0,0E0,0E0,2.8955193E0,2.6071377E0,0E0,0E0,0E0],"parents":[2147483647,0,0,1,1,2,2,3,3,8,8,9,9],"right_children":[2,4,6,8,-1,-1,-1,-1,10,12,-1,-1,-1],"split_conditions":[5E1,8.2E1,1.76E0,4.5E1,-5.0191567E-3,-1.7367725E-3,-1.1317807E-2,-2.6378324E-3,0E0,2E0,2.219131E-3,6.135738E-3,2.5706248E-2],"split_indices":[41,37,36,40,0,0,0,0,53,48,0,0,0],"split_type":[0,0,0,0,0,0,0,0,0,0,0,0,0],"sum_hessian":[2.4140972E1,9.735031E0,1.4405941E1,7.7615724E0,1.9734584E0,1.095952E0,1.3309989E1,1.2254472E0,6.536125E0,5.3513827E0,1.1847426E0,1.7155126E0,3.6358702E0],"tree_param":{"num_deleted":"0","num_feature":"56","num_nodes":"13","size_leaf_vector":"1"}},{"base_weights":[-8.106103E-2,1.0912685E0,-9.3328965E-1,1.3681862E0,-3.6868535E-3,-1.1164121E-2,3.0151863E-2,1.74167E0,-1.081638E-3,7.490495E-3,-6.7388066E-3,-1.7736098E-3,2.0830152E0,4.880513E-3,2.4127062E-2],"categories":[],"categories_nodes":[],"categories_segments":[],"categories_sizes":[],"default_left":[1,1,1,0,0,0,0,0,0,0,0,0,0,0,0],"id":21,"left_children":[1,3,5,7,-1,-1,9,11,-1,-1,-1,-1,13,-1,-1],"loss_changes":[2.5607101E1,4.8791647E0,2.6430473E0,5.320694E0,0E0,0E0,2.1931558E0,5.2738876E0,0E0,0E0,0E0,0E0,2.2062492E0,0E0,0E0],"parents":[2147483647,0,0,1,1,2,2,3,3,6,6,7,7,12,12],"right_children":[2,4,6,8,-1,-1,10,12,-1,-1,-1,-1,14,-1,-1],"split_conditions":[4.8E1,-7E-2,1E0,8.2E1,-3.6868535E-3,-1.1164121E-2,6.2E1,4.5E1,-1.081638E-3,7.490495E-3,-6.7388066E-3,-1.7736098E-3,2E0,4.880513E-3,2.4127062E-2],"split_indices":[41,55,26,37,0,0,41,40,0,0,0,0,48,0,0],"split_type":[0,0,0,0,0,0,0,0,0,0,0,0,0,0,0],"sum_hessian":[2.3610958E1,9.820856E0,1.3790102E1,8.307905E0,1.5129502E0,1.1454211E1,2.3358908E0,6.4871E0,1.8208055E0,1.1241072E0,1.2117834E0,1.0521812E0,5.434919E0,1.3558728E0,4.0790462E0],"tree_param":{"num_deleted":"0","num_feature":"56","num_nodes":"15","size_leaf_vector":"1"}},{"base_weights":[-1.7416856E-1,1.309339E0,-1.0065931E0,1.6926224E0,-3.4743955E-3,2.485095E-3,-1.126088E-2,1.3006588E-3,2.0046394E-2],"categories":[],"categories_nodes":[],"categories_segments":[],"categories_sizes":[],"default_left":[1,0,0,0,0,0,0,0,0],"id":22,"left_children":[1,3,5,7,-1,-1,-1,-1,-1],"loss_changes":[2.9902517E1,6.1473246E0,2.5884047E0,3.2885952E0,0E0,0E0,0E0,0E0,0E0],"parents":[2147483647,0,0,1,1,2,2,3,3],"right_children":[2,4,6,8,-1,-1,-1,-1,-1],"split_conditions":[4.8E1,8.43E1,4.81E1,4.66E1,-3.4743955E-3,2.485095E-3,-1.126088E-2,1.3006588E-3,2.0046394E-2],"split_indices":[41,37,38,40,0,0,0,0,0],"split_type":[0,0,0,0,0,0,0,0,0],"sum_hessian":[2.2147104E1,7.754492E0,1.43926115E1,6.280021E0,1.4744706E0,1.1573063E0,1.3235306E1,1.2811211E0,4.9989004E0],"tree_param":{"num_deleted":"0","num_feature":"56","num_nodes":"9","size_leaf_vector":"1"}},{"base_weights":[-2.3671526E-1,1.7172596E0,-7.1629065E-1,-1.7714193E-3,2.2738528E-2,2.6121193E-1,-1.1248218E-2,-1.3023874E-1,1.0999442E-2,3.2414556E-1,-7.6197097E-3,-6.626119E-3,9.304449E-3],"categories":[],"categories_nodes":[],"categories_segments":[],"categories_sizes":[],"default_left":[0,0,0,0,0,0,0,0,0,0,0,0,0],"id":23,"left_children":[1,3,5,-1,-1,7,-1,9,-1,11,-1,-1,-1],"loss_changes":[2.3370165E1,5.622572E0,8.151365E0,0E0,0E0,2.3138282E0,0E0,1.7974992E0,0E0,2.9158733E0,0E0,0E0,0E0],"parents":[2147483647,0,0,1,1,2,2,5,5,7,7,9,9],"right_children":[2,4,6,-1,-1,8,-1,10,-1,12,-1,-1,-1],"split_conditions":[5.7E1,4.5E1,5.3E1,-1.7714193E-3,2.2738528E-2,1E0,-1.1248218E-2,3.18E0,1.0999442E-2,2.5E0,-7.6197097E-3,-6.626119E-3,9.304449E-3],"split_indices":[40,40,38,0,0,26,0,36,0,36,0,0,0],"split_type":[0,0,0,0,0,0,0,0,0,0,0,0,0],"sum_hessian":[2.2626743E1,3.95042E0,1.8676325E1,1.0519108E0,2.898509E0,5.6111045E0,1.306522E1,4.401547E0,1.2095577E0,2.8433282E0,1.5582186E0,1.0467896E0,1.7965386E0],"tree_param":{"num_deleted":"0","num_feature":"56","num_nodes":"13","size_leaf_vector":"1"}},{"base_weights":[-2.4576552E-1,8.767209E-1,-9.537876E-1,1.2574389E0,-1.4660634E-1,-1.120948E-2,4.5353062E-2,1.630885E0,-6.362434E-3,-7.974033E-3,7.609191E-3,7.4527636E-3,-6.59107E-3,1.9112653E0,4.0723747E-3,2.1244084E-2,6.340734E-3],"categories":[0,1],"categories_nodes":[13],"categories_segments":[0],"categories_sizes":[2],"default_left":[1,0,1,0,0,0,0,0,0,0,0,0,0,1,0,0,0],"id":24,"left_children":[1,3,5,7,9,-1,11,13,-1,-1,-1,-1,-1,15,-1,-1,-1],"loss_changes":[2.1408709E1,4.2881374E0,2.781948E0,6.540676E0,2.8226206E0,0E0,2.120714E0,1.5479298E0,0E0,0E0,0E0,0E0,0E0,8.096504E-2,0E0,0E0,0E0],"parents":[2147483647,0,0,1,1,2,2,3,3,4,4,6,6,7,7,13,13],"right_children":[2,4,6,8,10,-1,12,14,-1,-1,-1,-1,-1,16,-1,-1,-1],"split_conditions":[5E1,6E0,1E0,1E0,-2.8E0,-1.120948E-2,2.88E0,8.1E1,-6.362434E-3,-7.974033E-3,7.609191E-3,7.4527636E-3,-6.59107E-3,NaN,4.0723747E-3,2.1244084E-2,6.340734E-3],"split_indices":[41,3,26,16,51,0,39,37,0,0,0,0,0,49,0,0,0],"split_type":[0,0,0,0,0,0,0,0,0,0,0,0,0,1,0,0,0],"sum_hessian":[2.4885658E1,9.5333605E0,1.5352298E1,6.7815733E0,2.751787E0,1.3047486E1,2.3048117E0,5.7804146E0,1.0011585E0,1.6732345E0,1.0785525E0,1.1270652E0,1.1777465E0,4.2456484E0,1.5347666E0,3.0699744E0,1.1756738E0],"tree_param":{"num_deleted":"0","num_feature":"56","num_nodes":"17","size_leaf_vector":"1"}},{"base_weights":[-1.5593895E-1,9.951336E-1,-9.840374E-1,1.3826631E0,-4.7643348E-3,1.3685732E-3,-1.1129261E-2,-2.6192132E-3,1.6956925E0,2.100555E0,-2.2442304E-3,2.3530595E-2,5.9033716E-3],"categories":[],"categories_nodes":[],"categories_segments":[],"categories_sizes":[],"default_left":[1,0,0,0,0,0,0,0,1,1,0,0,0],"id":25,"left_children":[1,3,5,7,-1,-1,-1,-1,9,11,-1,-1,-1],"loss_changes":[2.3518875E1,6.584447E0,2.2117844E0,4.810299E0,0E0,0E0,0E0,0E0,6.1143055E0,9.3375206E-1,0E0,0E0,0E0],"parents":[2147483647,0,0,1,1,2,2,3,3,8,8,9,9],"right_children":[2,4,6,8,-1,-1,-1,-1,10,12,-1,-1,-1],"split_conditions":[5.02E1,8.43E1,1.93E0,4.5E1,-4.7643348E-3,1.3685732E-3,-1.1129261E-2,-2.6192132E-3,2E-2,4E0,-2.2442304E-3,2.3530595E-2,5.9033716E-3],"split_indices":[41,37,39,40,0,0,0,0,55,48,0,0,0],"split_type":[0,0,0,0,0,0,0,0,0,0,0,0,0],"sum_hessian":[2.2646236E1,9.390942E0,1.3255295E1,7.4812164E0,1.909725E0,1.3606274E0,1.1894668E1,1.2223806E0,6.258836E0,5.0913377E0,1.1674979E0,3.8838713E0,1.2074664E0],"tree_param":{"num_deleted":"0","num_feature":"56","num_nodes":"13","size_leaf_vector":"1"}},{"base_weights":[-2.2618945E-1,9.659223E-1,-9.4920623E-1,1.6503628E0,1.5321988E-1,-1.1173074E-2,1.05070174E-1,1.980365E-2,2.1941653E-3,-7.125557E-1,1.3913829E-2,-6.3765375E-3,7.906598E-3,-1.4553252E-3,-8.532415E-3],"categories":[],"categories_nodes":[],"categories_segments":[],"categories_sizes":[],"default_left":[1,1,1,0,0,0,0,0,0,0,0,0,0,0,0],"id":26,"left_children":[1,3,5,7,9,-1,11,-1,-1,13,-1,-1,-1,-1,-1],"loss_changes":[2.2779314E1,5.3494425E0,3.0049744E0,2.0988626E0,7.1088943E0,0E0,2.1105502E0,0E0,0E0,1.9648743E-1,0E0,0E0,0E0,0E0,0E0],"parents":[2147483647,0,0,1,1,2,2,3,3,4,4,6,6,9,9],"right_children":[2,4,6,8,10,-1,12,-1,-1,14,-1,-1,-1,-1,-1],"split_conditions":[5E1,-7E0,1E0,1E0,-2E-1,-1.1173074E-2,1E0,1.980365E-2,2.1941653E-3,1.93E0,1.3913829E-2,-6.3765375E-3,7.906598E-3,-1.4553252E-3,-8.532415E-3],"split_indices":[41,51,26,9,51,0,50,0,0,36,0,0,0,0,0],"split_type":[0,0,0,0,0,0,0,0,0,0,0,0,0,0,0],"sum_hessian":[2.4364925E1,9.071634E0,1.5293292E1,4.3648996E0,4.706734E0,1.3138597E1,2.1546955E0,3.2349145E0,1.129985E0,3.019723E0,1.6870112E0,1.0678136E0,1.0868819E0,1.0047218E0,2.0150013E0],"tree_param":{"num_deleted":"0","num_feature":"56","num_nodes":"15","size_leaf_vector":"1"}},{"base_weights":[-1.9781412E-1,9.837356E-1,-9.4655395E-1,1.4241225E0,-1.614755E-1,-1.1153666E-2,9.25068E-2,1.8550578E0,-3.1662798E-3,-8.036419E-3,7.418695E-3,3.3252363E-3,-1.8583054E-3,2.200322E-2,2.1476834E-3],"categories":[],"categories_nodes":[],"categories_segments":[],"categories_sizes":[],"default_left":[1,0,1,0,0,0,0,0,0,0,0,0,0,0,0],"id":27,"left_children":[1,3,5,7,9,-1,11,13,-1,-1,-1,-1,-1,-1,-1],"loss_changes":[2.3512785E1,5.4707212E0,2.9331884E0,6.293847E0,2.7914557E0,0E0,2.741217E-1,3.0632935E0,0E0,0E0,0E0,0E0,0E0,0E0,0E0],"parents":[2147483647,0,0,1,1,2,2,3,3,4,4,6,6,7,7],"right_children":[2,4,6,8,10,-1,12,14,-1,-1,-1,-1,-1,-1,-1],"split_conditions":[4.8E1,6E0,1E0,4.13E1,-2.8E0,-1.1153666E-2,4.1E0,8.1E1,-3.1662798E-3,-8.036419E-3,7.418695E-3,3.3252363E-3,-1.8583054E-3,2.200322E-2,2.1476834E-3],"split_indices":[41,3,26,41,51,0,51,37,0,0,0,0,0,0,0],"split_type":[0,0,0,0,0,0,0,0,0,0,0,0,0,0,0],"sum_hessian":[2.4525385E1,9.391408E0,1.5133978E1,6.607118E0,2.7842896E0,1.2955674E1,2.1783035E0,5.243409E0,1.3637094E0,1.6919172E0,1.0923725E0,1.0651344E0,1.1131691E0,4.049588E0,1.1938205E0],"tree_param":{"num_deleted":"0","num_feature":"56","num_nodes":"15","size_leaf_vector":"1"}},{"base_weights":[-1.2762424E-1,1.0112427E0,-8.80729E-1,1.3909285E0,-1.11775935E-1,4.5334403E-3,-1.0486581E0,1.982713E-2,3.9853287E-1,-7.722136E-3,7.3653026E-3,-1.1100594E-2,-1.224416E-3,-6.4831274E-3,9.2993164E-1,2.4474051E-3,1.1742705E-2],"categories":[],"categories_nodes":[],"categories_segments":[],"categories_sizes":[],"default_left":[1,0,0,0,0,0,0,0,0,0,0,0,0,0,0,0,0],"id":28,"left_children":[1,3,5,7,9,-1,11,-1,13,-1,-1,-1,-1,-1,15,-1,-1],"loss_changes":[2.286616E1,4.702696E0,4.050358E0,3.93406E0,2.5969682E0,0E0,6.8730164E-1,0E0,2.9707758E0,0E0,0E0,0E0,0E0,0E0,2.5406432E-1,0E0,0E0],"parents":[2147483647,0,0,1,1,2,2,3,3,4,4,6,6,8,8,14,14],"right_children":[2,4,6,8,10,-1,12,-1,14,-1,-1,-1,-1,-1,16,-1,-1],"split_conditions":[4.8E1,6E0,4.81E1,-3.5E0,-2.8E0,4.5334403E-3,1E0,1.982713E-2,-1.7E-1,-7.722136E-3,7.3653026E-3,-1.1100594E-2,-1.224416E-3,-6.4831274E-3,6.7E1,2.4474051E-3,1.1742705E-2],"split_indices":[41,3,38,51,51,0,28,0,55,0,0,0,0,0,40,0,0],"split_type":[0,0,0,0,0,0,0,0,0,0,0,0,0,0,0,0,0],"sum_hessian":[2.4621876E1,9.664369E0,1.4957506E1,7.0442047E0,2.6201644E0,1.4822785E0,1.3475228E1,3.7876503E0,3.2565544E0,1.5236478E0,1.0965165E0,1.245131E1,1.023918E0,1.0224113E0,2.2341428E0,1.1134306E0,1.1207123E0],"tree_param":{"num_deleted":"0","num_feature":"56","num_nodes":"17","size_leaf_vector":"1"}},{"base_weights":[-9.266528E-2,1.1804082E0,-9.3254304E-1,1.5597397E0,-2.0577732E-1,3.4448546E-3,-1.0492008E0,1.8244537E0,-1.5337946E-3,-6.46607E-3,3.5492058E-3,-1.6407975E-3,-1.1083595E-2,2.854804E-3,2.0290833E-2],"categories":[],"categories_nodes":[],"categories_segments":[],"categories_sizes":[],"default_left":[1,0,0,0,0,0,0,0,0,0,0,0,0,0,0],"id":29,"left_children":[1,3,5,7,9,-1,11,13,-1,-1,-1,-1,-1,-1,-1],"loss_changes":[2.764114E1,5.7410765E0,2.672659E0,4.0028305E0,9.9527085E-1,0E0,5.754471E-1,1.6845264E0,0E0,0E0,0E0,0E0,0E0,0E0,0E0],"parents":[2147483647,0,0,1,1,2,2,3,3,4,4,6,6,7,7],"right_children":[2,4,6,8,10,-1,12,14,-1,-1,-1,-1,-1,-1,-1],"split_conditions":[5E1,8.43E1,-3.1E-1,1E-2,1E0,3.4448546E-3,1.8E0,-1.47E1,-1.5337946E-3,-6.46607E-3,3.5492058E-3,-1.6407975E-3,-1.1083595E-2,2.854804E-3,2.0290833E-2],"split_indices":[41,37,55,55,27,0,36,53,0,0,0,0,0,0,0],"split_type":[0,0,0,0,0,0,0,0,0,0,0,0,0,0,0],"sum_hessian":[2.3822023E1,9.307861E0,1.4514162E1,7.2097116E0,2.0981495E0,1.0514286E0,1.3462733E1,6.18847E0,1.021242E0,1.0888556E0,1.0092939E0,1.0798469E0,1.2382887E1,1.0073702E0,5.1810994E0],"tree_param":{"num_deleted":"0","num_feature":"56","num_nodes":"15","size_leaf_vector":"1"}},{"base_weights":[-1.7052943E-1,1.1127665E0,-9.312265E-1,1.657559E0,-5.4335165E-1,-1.1078911E-2,2.3628748E-3,2.1503186E-2,4.8657024E-1,-6.499931E-3,-1.7080862E-3,-2.944955E-3,1.0714165E-2],"categories":[],"categories_nodes":[],"categories_segments":[],"categories_sizes":[],"default_left":[1,0,1,0,0,0,0,0,1,0,0,0,0],"id":30,"left_children":[1,3,5,7,9,-1,-1,-1,11,-1,-1,-1,-1],"loss_changes":[2.4365452E1,9.33616E0,3.4687834E0,3.155611E0,1.08395815E-2,0E0,0E0,0E0,1.8911462E0,0E0,0E0,0E0,0E0],"parents":[2147483647,0,0,1,1,2,2,3,3,4,4,8,8],"right_children":[2,4,6,8,10,-1,-1,-1,12,-1,-1,-1,-1],"split_conditions":[4.6E1,6E0,1E0,2.3E0,3.9E1,-1.1078911E-2,2.3628748E-3,2.1503186E-2,2.85E0,-6.499931E-3,-1.7080862E-3,-2.944955E-3,1.0714165E-2],"split_indices":[41,3,26,39,38,0,0,0,36,0,0,0,0],"split_type":[0,0,0,0,0,0,0,0,0,0,0,0,0],"sum_hessian":[2.2898E1,8.349525E0,1.4548475E1,6.282109E0,2.067417E0,1.2680734E1,1.867741E0,3.832881E0,2.4492278E0,1.0283132E0,1.0391037E0,1.2612617E0,1.187966E0],"tree_param":{"num_deleted":"0","num_feature":"56","num_nodes":"13","size_leaf_vector":"1"}},{"base_weights":[-2.3119715E-1,8.722235E-1,-9.272265E-1,1.4078861E0,1.8508518E-1,-1.1034102E-2,1.1832289E-1,1.7990481E-2,9.7619457E-4,-5.931849E-1,9.050581E-1,7.465352E-3,-6.0666827E-3,-7.1850806E-3,-1.6078455E-3,1.2897085E-2,1.5946996E-3],"categories":[1],"categories_nodes":[9],"categories_segments":[0],"categories_sizes":[1],"default_left":[1,1,1,0,0,0,0,0,0,1,0,0,0,0,0,0,0],"id":31,"left_children":[1,3,5,7,9,-1,11,-1,-1,13,15,-1,-1,-1,-1,-1,-1],"loss_changes":[1.954448E1,3.4022474E0,2.9754324E0,2.6128645E0,3.624672E0,0E0,1.8785725E0,0E0,0E0,6.0710907E-2,7.28827E-1,0E0,0E0,0E0,0E0,0E0,0E0],"parents":[2147483647,0,0,1,1,2,2,3,3,4,4,6,6,9,9,10,10],"right_children":[2,4,6,8,10,-1,12,-1,-1,14,16,-1,-1,-1,-1,-1,-1],"split_conditions":[4.8E1,-7E0,1E0,1E0,-2.1E0,-1.1034102E-2,2.88E0,1.7990481E-2,9.7619457E-4,NaN,2.34E0,7.465352E-3,-6.0666827E-3,-7.1850806E-3,-1.6078455E-3,1.2897085E-2,1.5946996E-3],"split_indices":[41,51,26,9,51,0,39,0,0,6,36,0,0,0,0,0,0],"split_type":[0,0,0,0,0,0,0,0,0,1,0,0,0,0,0,0,0],"sum_hessian":[2.3395065E1,8.951323E0,1.4443743E1,4.4406652E0,4.510658E0,1.2313479E1,2.130263E0,3.13247E0,1.3081952E0,2.2521977E0,2.25846E0,1.1253873E0,1.0048758E0,1.2331257E0,1.019072E0,1.0084245E0,1.2500354E0],"tree_param":{"num_deleted":"0","num_feature":"56","num_nodes":"17","size_leaf_vector":"1"}},{"base_weights":[-1.5100922E-1,7.6504636E-1,-1.027921E0,1.5014306E0,2.3410799E-1,-1.0939868E-2,-1.1201099E-3,1.7481032E-3,1.8419359E-2,7.4411774E-1,-6.385852E-1,-1.9617563E-3,1.2558768E0,-7.840604E-3,-1.31414E-3,1.6130036E-2,2.2343018E-3],"categories":[],"categories_nodes":[],"categories_segments":[],"categories_sizes":[],"default_left":[0,1,0,0,0,0,0,0,0,0,0,0,0,0,0,0,0],"id":32,"left_children":[1,3,5,7,9,-1,-1,-1,-1,11,13,-1,15,-1,-1,-1,-1],"loss_changes":[2.1001316E1,4.684658E0,6.812706E-1,2.0322514E0,4.333738E0,0E0,0E0,0E0,0E0,3.101583E0,1.7259645E-1,0E0,1.1061282E0,0E0,0E0,0E0,0E0],"parents":[2147483647,0,0,1,1,2,2,3,3,4,4,9,9,10,10,12,12],"right_children":[2,4,6,8,10,-1,-1,-1,-1,12,14,-1,16,-1,-1,-1,-1],"split_conditions":[5.3E1,-6E0,1E0,3.75E1,4.34E1,-1.0939868E-2,-1.1201099E-3,1.7481032E-3,1.8419359E-2,-2.1E0,2.83E0,-1.9617563E-3,2.4E0,-7.840604E-3,-1.31414E-3,1.6130036E-2,2.2343018E-3],"split_indices":[38,51,28,38,38,0,0,0,0,51,36,0,39,0,0,0,0],"split_type":[0,0,0,0,0,0,0,0,0,0,0,0,0,0,0,0,0],"sum_hessian":[2.4164835E1,1.1881026E1,1.2283808E1,4.211714E0,7.6693125E0,1.1276025E1,1.0077829E0,1.1693337E0,3.0423803E0,4.9334764E0,2.735836E0,1.9560827E0,2.9773934E0,1.701761E0,1.034075E0,1.7943945E0,1.182999E0],"tree_param":{"num_deleted":"0","num_feature":"56","num_nodes":"17","size_leaf_vector":"1"}},{"base_weights":[-8.495719E-2,1.269105E0,-8.1455606E-1,-2.5892188E-3,1.5439652E0,8.965254E-3,-1.0480553E0,1.1190338E-3,1.8365536E0,-1.1078202E-2,-2.64545E-3,2.2149175E-2,8.637167E-1,1.2546656E-2,1.3605659E-3],"categories":[],"categories_nodes":[],"categories_segments":[],"categories_sizes":[],"default_left":[1,0,0,0,1,0,0,0,1,0,0,0,1,0,0],"id":33,"left_children":[1,3,5,-1,7,-1,9,-1,11,-1,-1,-1,13,-1,-1],"loss_changes":[2.3502884E1,3.908701E0,7.088107E0,0E0,2.8216305E0,0E0,3.62607E-1,0E0,2.7119064E-1,0E0,0E0,0E0,7.683232E-1,0E0,0E0],"parents":[2147483647,0,0,1,1,2,2,4,4,6,6,8,8,12,12],"right_children":[2,4,6,-1,8,-1,10,-1,12,-1,-1,-1,14,-1,-1],"split_conditions":[3.9E1,-1.6E1,-5.2E-1,-2.5892188E-3,1.84E0,8.965254E-3,1E0,1.1190338E-3,-4.2E0,-1.1078202E-2,-2.64545E-3,2.2149175E-2,3E0,1.2546656E-2,1.3605659E-3],"split_indices":[41,53,55,0,36,0,44,0,51,0,0,0,48,0,0],"split_type":[0,0,0,0,0,0,0,0,0,0,0,0,0,0,0],"sum_hessian":[2.174382E1,7.3547277E0,1.43890915E1,1.1301099E0,6.224618E0,1.3868364E0,1.3002255E1,1.2905469E0,4.934071E0,1.169617E1,1.3060853E0,2.633187E0,2.300884E0,1.0256095E0,1.2752744E0],"tree_param":{"num_deleted":"0","num_feature":"56","num_nodes":"15","size_leaf_vector":"1"}},{"base_weights":[-2.9334974E-1,1.122561E0,-9.4652325E-1,1.4957854E0,-3.3119067E-3,8.303866E-3,-1.1197388E-2,1.957156E-2,2.2063493E-3],"categories":[],"categories_nodes":[],"categories_segments":[],"categories_sizes":[],"default_left":[1,0,0,0,0,0,0,0,0],"id":34,"left_children":[1,3,5,7,-1,-1,-1,-1,-1],"loss_changes":[2.2199488E1,4.658208E0,5.9106035E0,3.2664986E0,0E0,0E0,0E0,0E0,0E0],"parents":[2147483647,0,0,1,1,2,2,3,3],"right_children":[2,4,6,8,-1,-1,-1,-1,-1],"split_conditions":[3.9E1,5E0,-4.9E-1,2.53E0,-3.3119067E-3,8.303866E-3,-1.1197388E-2,1.957156E-2,2.2063493E-3],"split_indices":[41,3,55,36,0,0,0,0,0],"split_type":[0,0,0,0,0,0,0,0,0],"sum_hessian":[2.1854832E1,6.6723285E0,1.5182504E1,5.2862625E0,1.386066E0,1.0115633E0,1.417094E1,3.4890304E0,1.7972322E0],"tree_param":{"num_deleted":"0","num_feature":"56","num_nodes":"9","size_leaf_vector":"1"}},{"base_weights":[-6.7665316E-2,1.0673541E0,-9.621572E-1,1.524504E0,-3.5149795E-1,-1.09222E-2,1.6599714E-3,1.9323442E0,2.886946E-1,-7.447335E-3,2.8549586E-3,2.2319801E-2,2.6140523E-3,-7.3033436E-3,1.2672861E-2],"categories":[],"categories_nodes":[],"categories_segments":[],"categories_sizes":[],"default_left":[1,0,0,1,0,0,0,0,0,0,0,0,0,0,0],"id":35,"left_children":[1,3,5,7,9,-1,-1,11,13,-1,-1,-1,-1,-1,-1],"loss_changes":[2.5550787E1,7.7487698E0,2.2406511E0,3.7755432E0,1.0949526E0,0E0,0E0,2.565174E0,4.225344E0,0E0,0E0,0E0,0E0,0E0,0E0],"parents":[2147483647,0,0,1,1,2,2,3,3,4,4,7,7,8,8],"right_children":[2,4,6,8,10,-1,-1,12,14,-1,-1,-1,-1,-1,-1],"split_conditions":[5E1,6E0,1E0,-1.5E-1,1E0,-1.09222E-2,1.6599714E-3,-1.9E0,-2.1E0,-7.447335E-3,2.8549586E-3,2.2319801E-2,2.6140523E-3,-7.3033436E-3,1.2672861E-2],"split_indices":[41,3,32,55,45,0,0,51,51,0,0,0,0,0,0],"split_type":[0,0,0,0,0,0,0,0,0,0,0,0,0,0,0],"sum_hessian":[2.3155085E1,1.0120255E1,1.3034829E1,7.597803E0,2.522452E0,1.1715968E1,1.3188609E0,5.2887797E0,2.3090234E0,1.4550612E0,1.0673909E0,4.199885E0,1.088895E0,1.2554176E0,1.0536058E0],"tree_param":{"num_deleted":"0","num_feature":"56","num_nodes":"15","size_leaf_vector":"1"}},{"base_weights":[-2.3749866E-1,8.1600875E-1,-9.174587E-1,1.142381E0,-4.489588E-3,3.4286003E-3,-1.0347098E0,1.6407895E0,-5.909817E-2,-1.737284E-3,-1.0957778E-2,2.097281E-3,1.9371655E-2,-7.293387E-3,6.7213518E-3],"categories":[],"categories_nodes":[],"categories_segments":[],"categories_sizes":[],"default_left":[1,0,0,1,0,0,0,0,0,0,0,0,0,0,0],"id":36,"left_children":[1,3,5,7,-1,-1,9,11,13,-1,-1,-1,-1,-1,-1],"loss_changes":[1.8218115E1,4.6806755E0,2.6144924E0,5.0713387E0,0E0,0E0,5.583048E-1,2.0986652E0,2.156959E0,0E0,0E0,0E0,0E0,0E0,0E0],"parents":[2147483647,0,0,1,1,2,2,3,3,6,6,7,7,8,8],"right_children":[2,4,6,8,-1,-1,10,12,14,-1,-1,-1,-1,-1,-1],"split_conditions":[4.8E1,8.43E1,-3.6E-1,-1.5E-1,-4.489588E-3,3.4286003E-3,5.1E1,4.66E1,-2.6E0,-1.737284E-3,-1.0957778E-2,2.097281E-3,1.9371655E-2,-7.293387E-3,6.7213518E-3],"split_indices":[41,37,55,55,0,0,41,40,51,0,0,0,0,0,0],"split_type":[0,0,0,0,0,0,0,0,0,0,0,0,0,0,0],"sum_hessian":[2.3387009E1,9.095171E0,1.4291837E1,7.306851E0,1.7883196E0,1.0526683E0,1.3239169E1,4.906041E0,2.40081E0,1.131487E0,1.2107682E1,1.1347083E0,3.7713327E0,1.2539991E0,1.146811E0],"tree_param":{"num_deleted":"0","num_feature":"56","num_nodes":"15","size_leaf_vector":"1"}},{"base_weights":[-1.1806389E-1,8.7909013E-1,-8.9419514E-1,1.2832934E0,-3.4351677E-1,-1.0826519E-2,1.2423805E-1,1.591388E0,-2.8858357E-3,3.5940213E-3,-7.585417E-3,-6.2314635E-3,7.952618E-3,1.8797601E0,1.2782481E-3,2.1155711E-2,5.522973E-3],"categories":[],"categories_nodes":[],"categories_segments":[],"categories_sizes":[],"default_left":[1,0,1,0,1,0,0,0,0,0,0,0,0,1,0,0,0],"id":37,"left_children":[1,3,5,7,9,-1,11,13,-1,-1,-1,-1,-1,15,-1,-1,-1],"loss_changes":[1.9673443E1,5.968608E0,2.8635693E0,4.632655E0,1.313535E0,0E0,2.0589638E0,2.865532E0,0E0,0E0,0E0,0E0,0E0,7.3311424E-1,0E0,0E0,0E0],"parents":[2147483647,0,0,1,1,2,2,3,3,4,4,6,6,7,7,13,13],"right_children":[2,4,6,8,10,-1,12,14,-1,-1,-1,-1,-1,16,-1,-1,-1],"split_conditions":[5E1,8.43E1,1E0,1E0,-1.06E1,-1.0826519E-2,3E0,6E0,-2.8858357E-3,3.5940213E-3,-7.585417E-3,-6.2314635E-3,7.952618E-3,3.9E1,1.2782481E-3,2.1155711E-2,5.522973E-3],"split_indices":[41,37,26,29,51,0,3,3,0,0,0,0,0,41,0,0,0],"split_type":[0,0,0,0,0,0,0,0,0,0,0,0,0,0,0,0,0],"sum_hessian":[2.3404726E1,1.0185717E1,1.321901E1,7.617632E0,2.5680845E0,1.1101643E1,2.1173675E0,6.358856E0,1.258776E0,1.0031291E0,1.5649554E0,1.0354434E0,1.0819242E0,5.074611E0,1.2842447E0,3.8049946E0,1.2696168E0],"tree_param":{"num_deleted":"0","num_feature":"56","num_nodes":"17","size_leaf_vector":"1"}},{"base_weights":[-1.3648652E-1,9.9672604E-1,-7.919762E-1,1.4058558E0,-7.303866E-3,5.245962E-3,-9.6021676E-1,1.7163968E0,-2.1081613E-3,-1.0940052E-2,2.33126E-3,1.3953092E-3,2.0515205E-2],"categories":[],"categories_nodes":[],"categories_segments":[],"categories_sizes":[],"default_left":[1,0,0,0,0,0,0,1,0,0,0,0,0],"id":38,"left_children":[1,3,5,7,-1,-1,9,11,-1,-1,-1,-1,-1],"loss_changes":[1.7747246E1,7.25126E0,3.8307858E0,4.1089363E0,0E0,0E0,2.4378347E0,3.0801659E0,0E0,0E0,0E0,0E0,0E0],"parents":[2147483647,0,0,1,1,2,2,3,3,6,6,7,7],"right_children":[2,4,6,8,-1,-1,10,12,-1,-1,-1,-1,-1],"split_conditions":[3.95E1,6E0,-4.5E-1,1E0,-7.303866E-3,5.245962E-3,1.23E1,-1.51E1,-2.1081613E-3,-1.0940052E-2,2.33126E-3,1.3953092E-3,2.0515205E-2],"split_indices":[41,3,55,34,0,0,51,53,0,0,0,0,0],"split_type":[0,0,0,0,0,0,0,0,0,0,0,0,0],"sum_hessian":[2.1829367E1,7.808839E0,1.4020528E1,6.463687E0,1.3451521E0,1.3486315E0,1.2671896E1,5.370416E0,1.0932704E0,1.146929E1,1.2026064E0,1.1895511E0,4.1808653E0],"tree_param":{"num_deleted":"0","num_feature":"56","num_nodes":"13","size_leaf_vector":"1"}},{"base_weights":[-2.3626626E-1,6.8428504E-1,-1.0871297E-2,1.1311346E0,-3.1157383E-1,1.6197585E0,2.2386123E-1,3.9026088E-3,-8.196709E-3,1.8456414E-2,5.298321E-3,1.0834272E-2,-4.9407906E-3],"categories":[],"categories_nodes":[],"categories_segments":[],"categories_sizes":[],"default_left":[0,0,0,1,0,1,0,0,0,0,0,0,0],"id":39,"left_children":[1,3,-1,5,7,9,11,-1,-1,-1,-1,-1,-1],"loss_changes":[1.9001291E1,5.6078286E0,0E0,3.3470564E0,1.9038719E0,3.2165432E-1,3.0590148E0,0E0,0E0,0E0,0E0,0E0,0E0],"parents":[2147483647,0,0,1,1,3,3,4,4,5,5,6,6],"right_children":[2,4,-1,6,8,10,12,-1,-1,-1,-1,-1,-1],"split_conditions":[5.3E1,6E0,-1.0871297E-2,2.32E0,4E0,-1.6E0,3.9E1,3.9026088E-3,-8.196709E-3,1.8456414E-2,5.298321E-3,1.0834272E-2,-4.9407906E-3],"split_indices":[38,3,0,39,48,53,38,0,0,0,0,0,0],"split_type":[0,0,0,0,0,0,0,0,0,0,0,0,0],"sum_hessian":[2.2309378E1,1.0809898E1,1.149948E1,7.3679867E0,3.4419112E0,4.278462E0,3.089525E0,1.5427822E0,1.8991289E0,2.9696503E0,1.3088118E0,1.17439E0,1.9151349E0],"tree_param":{"num_deleted":"0","num_feature":"56","num_nodes":"13","size_leaf_vector":"1"}},{"base_weights":[-1.7638403E-1,9.4350535E-1,-8.1577283E-1,1.303345E0,-4.3580816E-3,8.304326E-3,-9.794396E-1,-2.5140487E-3,1.6069994E0,-1.100123E-2,2.3144947E-3,1.9435998E-2,3.2589599E-3],"categories":[],"categories_nodes":[],"categories_segments":[],"categories_sizes":[],"default_left":[1,0,0,1,0,0,0,0,0,0,0,0,0],"id":40,"left_children":[1,3,5,7,-1,-1,9,-1,11,-1,-1,-1,-1],"loss_changes":[1.8399456E1,5.239444E0,5.1805687E0,4.046376E0,0E0,0E0,2.47618E0,0E0,2.2082405E0,0E0,0E0,0E0,0E0],"parents":[2147483647,0,0,1,1,2,2,3,3,6,6,8,8],"right_children":[2,4,6,8,-1,-1,10,-1,12,-1,-1,-1,-1],"split_conditions":[4.13E1,6E0,-5.2E-1,-1.51E1,-4.3580816E-3,8.304326E-3,1.23E1,-2.5140487E-3,-1.5E-1,-1.100123E-2,2.3144947E-3,1.9435998E-2,3.2589599E-3],"split_indices":[41,3,55,53,0,0,51,0,55,0,0,0,0],"split_type":[0,0,0,0,0,0,0,0,0,0,0,0,0],"sum_hessian":[2.3621046E1,8.411925E0,1.5209122E1,6.7151365E0,1.6967885E0,1.0069566E0,1.4202166E1,1.1253369E0,5.5897994E0,1.2998176E1,1.2039896E0,4.0171847E0,1.5726147E0],"tree_param":{"num_deleted":"0","num_feature":"56","num_nodes":"13","size_leaf_vector":"1"}},{"base_weights":[-1.7491703E-1,9.3703103E-1,-9.6012276E-1,1.2158688E0,-4.013413E-3,-1.08716665E-2,2.4413802E-3,1.6458399E0,4.4878057E-1,4.1662725E-3,1.9881265E-2,1.1472831E-2,-2.602997E-1,2.8517887E-3,-6.6729765E-3],"categories":[0],"categories_nodes":[1],"categories_segments":[0],"categories_sizes":[1],"default_left":[1,1,0,1,0,0,0,0,0,0,0,0,0,0,0],"id":41,"left_children":[1,3,5,7,-1,-1,-1,9,11,-1,-1,-1,13,-1,-1],"loss_changes":[2.1573305E1,4.3341265E0,2.4642544E0,2.1563797E0,0E0,0E0,0E0,1.380476E0,2.541151E0,0E0,0E0,0E0,8.7006307E-1,0E0,0E0],"parents":[2147483647,0,0,1,1,2,2,3,3,7,7,8,8,12,12],"right_children":[2,4,6,8,-1,-1,-1,10,12,-1,-1,-1,14,-1,-1],"split_conditions":[4.6E1,NaN,1.23E1,2.05E0,-4.013413E-3,-1.08716665E-2,2.4413802E-3,4.66E1,2E0,4.1662725E-3,1.9881265E-2,1.1472831E-2,3.67E1,2.8517887E-3,-6.6729765E-3],"split_indices":[41,8,51,39,0,0,0,40,4,0,0,0,41,0,0],"split_type":[0,1,0,0,0,0,0,0,0,0,0,0,0,0,0],"sum_hessian":[2.2678217E1,9.306172E0,1.3372044E1,7.7773614E0,1.5288112E0,1.2183929E1,1.1881148E0,4.249723E0,3.5276382E0,1.4085512E0,2.8411717E0,1.4657581E0,2.06188E0,1.0089488E0,1.0529313E0],"tree_param":{"num_deleted":"0","num_feature":"56","num_nodes":"15","size_leaf_vector":"1"}},{"base_weights":[-1.2547757E-1,1.0903126E0,-8.9429235E-1,1.6350044E0,-3.2763574E-1,2.9076897E-3,-1.0139308E0,2.1141881E-2,6.393752E-1,-7.1971426E-3,2.6394096E-3,-1.07302E-3,-1.078487E-2,1.4224218E-2,-3.5499563E-3],"categories":[],"categories_nodes":[],"categories_segments":[],"categories_sizes":[],"default_left":[1,0,0,0,1,0,0,0,1,0,0,0,0,0,0],"id":42,"left_children":[1,3,5,7,9,-1,11,-1,13,-1,-1,-1,-1,-1,-1],"loss_changes":[2.2291945E1,7.707139E0,2.3535051E0,1.9283657E0,9.8089623E-1,0E0,6.692486E-1,0E0,3.360525E0,0E0,0E0,0E0,0E0,0E0,0E0],"parents":[2147483647,0,0,1,1,2,2,3,3,4,4,6,6,8,8],"right_children":[2,4,6,8,10,-1,12,-1,14,-1,-1,-1,-1,-1,-1],"split_conditions":[4.8E1,6E0,4.7E1,-4.3E0,1E0,2.9076897E-3,-1.4E1,2.1141881E-2,3.74E1,-7.1971426E-3,2.6394096E-3,-1.07302E-3,-1.078487E-2,1.4224218E-2,-3.5499563E-3],"split_indices":[41,3,38,51,46,0,53,0,41,0,0,0,0,0,0],"split_type":[0,0,0,0,0,0,0,0,0,0,0,0,0,0,0],"sum_hessian":[2.18057E1,8.2853E0,1.3520401E1,5.8752856E0,2.4100142E0,1.1086296E0,1.2411772E1,3.207896E0,2.6673896E0,1.3191316E0,1.0908827E0,1.0019886E0,1.1409782E1,1.2514355E0,1.415954E0],"tree_param":{"num_deleted":"0","num_feature":"56","num_nodes":"15","size_leaf_vector":"1"}},{"base_weights":[-1.0294237E-1,1.0770324E0,-9.4980836E-1,1.5478913E0,-5.2662176E-1,-1.0801783E-2,1.6525489E-3,1.8892231E0,9.001423E-5,-6.3978815E-3,-1.5318425E-3,2.1660097E-2,4.806126E-3],"categories":[],"categories_nodes":[],"categories_segments":[],"categories_sizes":[],"default_left":[1,0,0,0,0,0,0,1,0,0,0,0,0],"id":43,"left_children":[1,3,5,7,9,-1,-1,11,-1,-1,-1,-1,-1],"loss_changes":[2.3892756E1,8.389563E0,2.1926413E0,4.1894493E0,2.974534E-2,0E0,0E0,1.5125618E0,0E0,0E0,0E0,0E0,0E0],"parents":[2147483647,0,0,1,1,2,2,3,3,4,4,7,7],"right_children":[2,4,6,8,10,-1,-1,12,-1,-1,-1,-1,-1],"split_conditions":[4.6E1,6E0,1.23E1,3.18E0,1E0,-1.0801783E-2,1.6525489E-3,-1.3E-1,9.001423E-5,-6.3978815E-3,-1.5318425E-3,2.1660097E-2,4.806126E-3],"split_indices":[41,3,51,36,27,0,0,55,0,0,0,0,0],"split_type":[0,0,0,0,0,0,0,0,0,0,0,0,0],"sum_hessian":[2.1886246E1,9.031075E0,1.2855171E1,7.0081434E0,2.0229313E0,1.1537523E1,1.3176484E0,5.5495725E0,1.4585708E0,1.0051045E0,1.0178269E0,4.188798E0,1.3607745E0],"tree_param":{"num_deleted":"0","num_feature":"56","num_nodes":"13","size_leaf_vector":"1"}},{"base_weights":[-1.5008448E-1,6.4727134E-1,-9.940527E-1,1.1646605E0,-2.9616332E-2,-1.187701E-3,-1.0666219E-2,-3.4488197E-3,1.5446255E0,7.1699905E-1,-8.712232E-3,1.8651104E-2,1.6653053E-3,-6.925879E-3,1.4783204E-2],"categories":[],"categories_nodes":[],"categories_segments":[],"categories_sizes":[],"default_left":[0,1,0,0,0,0,0,0,0,0,0,0,0,0,0],"id":44,"left_children":[1,3,5,7,9,-1,-1,-1,11,13,-1,-1,-1,-1,-1],"loss_changes":[1.6758144E1,4.5589094E0,6.372957E-1,4.746743E0,4.7542357E0,0E0,0E0,0E0,2.362358E0,5.349833E0,0E0,0E0,0E0,0E0,0E0],"parents":[2147483647,0,0,1,1,2,2,3,3,4,4,8,8,9,9],"right_children":[2,4,6,8,10,-1,-1,-1,12,14,-1,-1,-1,-1,-1],"split_conditions":[5.2E1,-1.5E-1,-3E-1,-1.51E1,4.17E1,-1.187701E-3,-1.0666219E-2,-3.4488197E-3,8E1,-2.1E0,-8.712232E-3,1.8651104E-2,1.6653053E-3,-6.925879E-3,1.4783204E-2],"split_indices":[38,55,55,53,38,0,0,0,37,51,0,0,0,0,0],"split_type":[0,0,0,0,0,0,0,0,0,0,0,0,0,0,0],"sum_hessian":[2.2946636E1,1.1918993E1,1.1027643E1,6.3469763E0,5.5720162E0,1.0461622E0,9.981482E0,1.2948945E0,5.052082E0,3.0310965E0,2.5409195E0,3.8121455E0,1.2399366E0,1.0946441E0,1.9364524E0],"tree_param":{"num_deleted":"0","num_feature":"56","num_nodes":"15","size_leaf_vector":"1"}},{"base_weights":[-1.6041812E-1,6.917261E-1,-9.3176943E-1,1.0325078E0,-5.540119E-1,9.7458955E-4,-1.0680798E-2,1.3301814E0,-3.843899E-3,-1.4229317E-3,-6.769109E-3,1.5840927E0,2.159027E-3,1.8338455E-2,2.014193E-3],"categories":[],"categories_nodes":[],"categories_segments":[],"categories_sizes":[],"default_left":[1,0,0,0,0,0,0,1,0,0,0,0,0,0,0],"id":45,"left_children":[1,3,5,7,9,-1,-1,11,-1,-1,-1,13,-1,-1,-1],"loss_changes":[1.642212E1,5.6571608E0,1.9314461E0,4.625572E0,6.680125E-2,0E0,0E0,2.00214E0,0E0,0E0,0E0,1.9063015E0,0E0,0E0,0E0],"parents":[2147483647,0,0,1,1,2,2,3,3,4,4,7,7,11,11],"right_children":[2,4,6,8,10,-1,-1,12,-1,-1,-1,14,-1,-1,-1],"split_conditions":[5E1,8.43E1,1.93E0,1E0,4E1,9.7458955E-4,-1.0680798E-2,4E0,-3.843899E-3,-1.4229317E-3,-6.769109E-3,2.41E0,2.159027E-3,1.8338455E-2,2.014193E-3],"split_indices":[41,37,39,27,41,0,0,48,0,0,0,39,0,0,0],"split_type":[0,0,0,0,0,0,0,0,0,0,0,0,0,0,0],"sum_hessian":[2.3003542E1,1.0978433E1,1.2025109E1,8.754686E0,2.223747E0,1.4396769E0,1.0585432E1,7.2853265E0,1.4693599E0,1.0072403E0,1.2165067E0,5.589917E0,1.6954088E0,4.4583077E0,1.1316098E0],"tree_param":{"num_deleted":"0","num_feature":"56","num_nodes":"15","size_leaf_vector":"1"}},{"base_weights":[-1.0449382E-1,7.036213E-1,-8.480989E-1,1.0435233E0,-3.6216456E-1,-1.0580827E-2,1.8403053E-3,-6.6503226E-3,1.3438206E0,3.5748987E-3,-7.761603E-3,1.8489901E-2,1.615813E-1,-7.4660564E-3,1.0644535E-2],"categories":[],"categories_nodes":[],"categories_segments":[],"categories_sizes":[],"default_left":[1,0,1,0,0,0,0,0,1,0,0,0,0,0,0],"id":46,"left_children":[1,3,5,7,9,-1,-1,-1,11,-1,-1,-1,13,-1,-1],"loss_changes":[1.4790078E1,4.6762795E0,2.9589243E0,5.6416006E0,1.35344E0,0E0,0E0,0E0,4.599472E0,0E0,0E0,0E0,3.706554E0,0E0,0E0],"parents":[2147483647,0,0,1,1,2,2,3,3,4,4,8,8,12,12],"right_children":[2,4,6,8,10,-1,-1,-1,12,-1,-1,-1,14,-1,-1],"split_conditions":[5E1,8.2E1,1E0,4.5E1,-4.2E0,-1.0580827E-2,1.8403053E-3,-6.6503226E-3,-1.5E-1,3.5748987E-3,-7.761603E-3,1.8489901E-2,-8E-1,-7.4660564E-3,1.0644535E-2],"split_indices":[41,37,26,40,51,0,0,0,55,0,0,0,51,0,0],"split_type":[0,0,0,0,0,0,0,0,0,0,0,0,0,0,0],"sum_hessian":[2.2619408E1,1.086529E1,1.1754118E1,8.253849E0,2.6114407E0,9.746147E0,2.0079715E0,1.052279E0,7.2015696E0,1.0035118E0,1.607929E0,4.6504602E0,2.5511096E0,1.3580961E0,1.1930134E0],"tree_param":{"num_deleted":"0","num_feature":"56","num_nodes":"15","size_leaf_vector":"1"}},{"base_weights":[-1.30788E-1,9.024357E-1,-9.478654E-1,1.1429733E0,-1.5652446E-3,-1.07376585E-2,-1.969371E-4,-2.9776515E-3,1.4090735E0,1.5716963E0,2.2299837E-3,1.7968442E-2,1.8860414E-3],"categories":[],"categories_nodes":[],"categories_segments":[],"categories_sizes":[],"default_left":[1,0,0,0,0,0,0,0,1,1,0,0,0],"id":47,"left_children":[1,3,5,7,-1,-1,-1,-1,9,11,-1,-1,-1],"loss_changes":[2.1251705E1,3.0269394E0,1.6123753E0,3.9589033E0,0E0,0E0,0E0,0E0,1.1862259E0,1.7914219E0,0E0,0E0,0E0],"parents":[2147483647,0,0,1,1,2,2,3,3,8,8,9,9],"right_children":[2,4,6,8,-1,-1,-1,-1,10,12,-1,-1,-1],"split_conditions":[4.8E1,8.43E1,1E0,4.5E1,-1.5652446E-3,-1.07376585E-2,-1.969371E-4,-2.9776515E-3,-1E0,2.5E0,2.2299837E-3,1.7968442E-2,1.8860414E-3],"split_indices":[41,37,32,40,0,0,0,0,53,39,0,0,0],"split_type":[0,0,0,0,0,0,0,0,0,0,0,0,0],"sum_hessian":[2.3159847E1,1.0181062E1,1.29787855E1,8.231893E0,1.9491692E0,1.1290449E1,1.6883366E0,1.2648201E0,6.9670725E0,5.8410788E0,1.1259937E0,4.766078E0,1.075001E0],"tree_param":{"num_deleted":"0","num_feature":"56","num_nodes":"13","size_leaf_vector":"1"}},{"base_weights":[-1.0650172E-1,9.021201E-1,-1.0019383E0,1.2591089E0,-5.1236134E-3,-1.0693768E-2,-1.1779096E-3,-2.2195317E-3,1.477704E0,1.6658341E0,4.9529853E-3,1.9169478E-2,4.1400655E-3],"categories":[],"categories_nodes":[],"categories_segments":[],"categories_sizes":[],"default_left":[1,0,0,0,0,0,0,0,1,1,0,0,0],"id":48,"left_children":[1,3,5,7,-1,-1,-1,-1,9,11,-1,-1,-1],"loss_changes":[2.2215E1,6.514205E0,6.475744E-1,3.4262867E0,0E0,0E0,0E0,0E0,7.402935E-1,1.3079109E0,0E0,0E0,0E0],"parents":[2147483647,0,0,1,1,2,2,3,3,8,8,9,9],"right_children":[2,4,6,8,-1,-1,-1,-1,10,12,-1,-1,-1],"split_conditions":[5E1,8.43E1,1E1,4.5E1,-5.1236134E-3,-1.0693768E-2,-1.1779096E-3,-2.2195317E-3,4E0,2.5E0,4.9529853E-3,1.9169478E-2,4.1400655E-3],"split_indices":[41,37,3,40,0,0,0,0,48,39,0,0,0],"split_type":[0,0,0,0,0,0,0,0,0,0,0,0,0],"sum_hessian":[2.2596264E1,1.0623014E1,1.197325E1,8.569961E0,2.0530539E0,1.09300585E1,1.0431917E0,1.1002183E0,7.469742E0,5.685335E0,1.7844068E0,4.292875E0,1.3924603E0],"tree_param":{"num_deleted":"0","num_feature":"56","num_nodes":"13","size_leaf_vector":"1"}},{"base_weights":[-1.6450308E-1,7.674121E-1,-9.963231E-1,1.0654726E0,-5.0311987E-3,-1.06537E-3,-1.066035E-2,1.386324E0,-1.5745895E-3,1.7098129E-2,5.8374554E-1,-4.251452E-3,1.4426008E-2],"categories":[],"categories_nodes":[],"categories_segments":[],"categories_sizes":[],"default_left":[1,0,0,0,0,0,0,1,0,0,0,0,0],"id":49,"left_children":[1,3,5,7,-1,-1,-1,9,-1,-1,11,-1,-1],"loss_changes":[1.8577908E1,4.854152E0,6.665554E-1,3.9681005E0,0E0,0E0,0E0,9.9385357E-1,0E0,0E0,3.8388014E0,0E0,0E0],"parents":[2147483647,0,0,1,1,2,2,3,3,7,7,10,10],"right_children":[2,4,6,8,-1,-1,-1,10,-1,-1,12,-1,-1],"split_conditions":[5E1,3.18E0,-3E-1,6E0,-5.0311987E-3,-1.06537E-3,-1.066035E-2,-2E-1,-1.5745895E-3,1.7098129E-2,-2.1E0,-4.251452E-3,1.4426008E-2],"split_indices":[41,36,55,3,0,0,0,55,0,0,51,0,0],"split_type":[0,0,0,0,0,0,0,0,0,0,0,0,0],"sum_hessian":[2.197942E1,1.0402542E1,1.1576878E1,8.556602E0,1.8459401E0,1.0248022E0,1.0552075E1,6.6724057E0,1.8841959E0,3.9499369E0,2.7224689E0,1.4840975E0,1.2383714E0],"tree_param":{"num_deleted":"0","num_feature":"56","num_nodes":"13","size_leaf_vector":"1"}},{"base_weights":[-1.2702812E-1,7.180288E-1,-9.153072E-1,1.0335075E0,-1.8944092E-1,1.1227471E-3,-1.0573821E-2,1.3796355E0,-6.8726013E-3,-7.922611E-3,6.657956E-3,2.1417474E-3,1.5272892E0,1.8794773E-2,5.8011394E-3],"categories":[],"categories_nodes":[],"categories_segments":[],"categories_sizes":[],"default_left":[1,0,0,0,1,0,0,0,0,0,0,0,0,0,0],"id":50,"left_children":[1,3,5,7,9,-1,-1,11,-1,-1,-1,-1,13,-1,-1],"loss_changes":[1.6130836E1,3.5656848E0,1.9374638E0,6.242756E0,2.5286665E0,0E0,0E0,1.0036707E0,0E0,0E0,0E0,0E0,1.1449022E0,0E0,0E0],"parents":[2147483647,0,0,1,1,2,2,3,3,4,4,7,7,12,12],"right_children":[2,4,6,8,10,-1,-1,12,-1,-1,-1,-1,14,-1,-1],"split_conditions":[5E1,6E0,1.93E0,1E0,1E0,1.1227471E-3,-1.0573821E-2,-7E-1,-6.8726013E-3,-7.922611E-3,6.657956E-3,2.1417474E-3,-1.6E0,1.8794773E-2,5.8011394E-3],"split_indices":[41,3,39,16,46,0,0,55,0,0,0,0,53,0,0],"split_type":[0,0,0,0,0,0,0,0,0,0,0,0,0,0,0],"sum_hessian":[2.2228752E1,1.0771029E1,1.1457722E1,7.8894134E0,2.8816166E0,1.4172144E0,1.0040507E1,6.7332764E0,1.1561369E0,1.7334299E0,1.1481867E0,1.032676E0,5.7006006E0,3.437965E0,2.2626357E0],"tree_param":{"num_deleted":"0","num_feature":"56","num_nodes":"15","size_leaf_vector":"1"}},{"base_weights":[-6.323243E-2,1.0210875E0,-7.2715366E-1,1.3565229E0,-3.979173E-3,7.5386643E-1,-1.0744364E-2,1.621009E0,4.1102552E-1,-2.9562907E-3,1.4973717E-2,1.8093038E-2,5.1408634E-3,7.964715E-3,-1.6971701E-3],"categories":[],"categories_nodes":[],"categories_segments":[],"categories_sizes":[],"default_left":[0,0,1,1,0,1,0,0,0,0,0,0,0,0,0],"id":51,"left_children":[1,3,5,7,-1,9,-1,11,13,-1,-1,-1,-1,-1,-1],"loss_changes":[1.7665907E1,4.9871063E0,8.609576E0,1.2802362E0,0E0,3.148872E0,0E0,2.6679897E-1,8.159179E-1,0E0,0E0,0E0,0E0,0E0,0E0],"parents":[2147483647,0,0,1,1,2,2,3,3,5,5,7,7,8,8],"right_children":[2,4,6,8,-1,10,-1,12,14,-1,-1,-1,-1,-1,-1],"split_conditions":[4.6E1,1E0,-3.8E-1,3.8E1,-3.979173E-3,0E0,-1.0744364E-2,1E0,3E0,-2.9562907E-3,1.4973717E-2,1.8093038E-2,5.1408634E-3,7.964715E-3,-1.6971701E-3],"split_indices":[38,34,55,41,0,9,0,50,48,0,0,0,0,0,0],"split_type":[0,0,0,0,0,0,0,0,0,0,0,0,0,0,0],"sum_hessian":[2.2507914E1,8.343423E0,1.4164491E1,6.7838387E0,1.5595838E0,2.4681358E0,1.1696355E1,4.742701E0,2.0411377E0,1.2732555E0,1.1948802E0,3.5109332E0,1.2317678E0,1.003579E0,1.0375587E0],"tree_param":{"num_deleted":"0","num_feature":"56","num_nodes":"15","size_leaf_vector":"1"}},{"base_weights":[-1.0802702E-1,7.3523575E-1,-9.786791E-1,1.509411E0,1.7428546E-1,-1.05227E-2,-1.1034437E-3,1.78144E-2,2.2694499E-3,7.040107E-1,-6.303583E-1,-4.4683027E-3,1.3066157E0,-1.3070808E-3,-7.6666325E-3,1.6265282E-2,2.6554721E-3],"categories":[],"categories_nodes":[],"categories_segments":[],"categories_sizes":[],"default_left":[0,1,0,0,0,0,0,0,0,0,0,0,0,0,0,0,0],"id":52,"left_children":[1,3,5,7,9,-1,-1,-1,-1,11,13,-1,15,-1,-1,-1,-1],"loss_changes":[1.7552122E1,5.0427113E0,6.3212395E-1,1.3409777E0,3.9453132E0,0E0,0E0,0E0,0E0,4.346866E0,1.5782702E-1,0E0,8.390565E-1,0E0,0E0,0E0,0E0],"parents":[2147483647,0,0,1,1,2,2,3,3,4,4,9,9,10,10,12,12],"right_children":[2,4,6,8,10,-1,-1,-1,-1,12,14,-1,16,-1,-1,-1,-1],"split_conditions":[5.3E1,-6E0,1.1E1,1E0,4.34E1,-1.05227E-2,-1.1034437E-3,1.78144E-2,2.2694499E-3,-2.1E0,7.52E1,-4.4683027E-3,8.1E1,-1.3070808E-3,-7.6666325E-3,1.6265282E-2,2.6554721E-3],"split_indices":[38,51,3,9,38,0,0,0,0,51,37,0,37,0,0,0,0],"split_type":[0,0,0,0,0,0,0,0,0,0,0,0,0,0,0,0,0],"sum_hessian":[2.192676E1,1.121759E1,1.0709169E1,4.0026574E0,7.214933E0,9.677205E0,1.0319636E0,2.981224E0,1.0214331E0,4.4261246E0,2.7888083E0,1.6099608E0,2.8161638E0,1.0175902E0,1.7712183E0,1.7240206E0,1.0921432E0],"tree_param":{"num_deleted":"0","num_feature":"56","num_nodes":"17","size_leaf_vector":"1"}},{"base_weights":[-1.9726762E-1,5.662183E-1,-1.0586749E-2,1.4101499E-2,-2.8509252E-2,8.7753266E-1,-4.8185226E-1,1.2035044E-2,1.8091111E-3,1.4076065E-1,-9.203418E-3,-3.9986637E-3,7.138913E-3],"categories":[],"categories_nodes":[],"categories_segments":[],"categories_sizes":[],"default_left":[0,1,0,0,0,0,0,0,0,0,0,0,0],"id":53,"left_children":[1,3,-1,-1,5,7,9,-1,-1,11,-1,-1,-1],"loss_changes":[1.6143936E1,6.656133E0,0E0,0E0,4.00152E0,5.225589E-1,1.891156E0,0E0,0E0,1.3804079E0,0E0,0E0,0E0],"parents":[2147483647,0,0,1,1,4,4,5,5,6,6,9,9],"right_children":[2,4,-1,-1,6,8,10,-1,-1,12,-1,-1,-1],"split_conditions":[5.2E1,-6E0,-1.0586749E-2,1.4101499E-2,3E0,3.92E1,2.39E0,1.2035044E-2,1.8091111E-3,7E1,-9.203418E-3,-3.9986637E-3,7.138913E-3],"split_indices":[38,51,0,0,48,38,36,0,0,37,0,0,0],"split_type":[0,0,0,0,0,0,0,0,0,0,0,0,0],"sum_hessian":[2.263562E1,1.2181525E1,1.0454096E1,4.46893E0,7.7125955E0,2.2600381E0,5.4525576E0,1.0439225E0,1.2161156E0,2.5337973E0,2.9187603E0,1.4594388E0,1.0743583E0],"tree_param":{"num_deleted":"0","num_feature":"56","num_nodes":"13","size_leaf_vector":"1"}},{"base_weights":[-7.970918E-2,7.816844E-1,-9.109992E-1,1.0407001E0,-4.6323845E-3,2.4324958E-3,-1.056653E-2,1.2742175E0,-3.0841574E-3,-2.360887E-3,1.5161939E0,1.813318E-2,7.206518E-4],"categories":[],"categories_nodes":[],"categories_segments":[],"categories_sizes":[],"default_left":[1,0,0,1,0,0,0,0,0,0,0,0,0],"id":54,"left_children":[1,3,5,7,-1,-1,-1,9,-1,-1,11,-1,-1],"loss_changes":[1.7664555E1,4.4047046E0,2.360136E0,3.6624231E0,0E0,0E0,0E0,3.662218E0,0E0,0E0,3.2709408E0,0E0,0E0],"parents":[2147483647,0,0,1,1,2,2,3,3,7,7,10,10],"right_children":[2,4,6,8,-1,-1,-1,10,-1,-1,12,-1,-1],"split_conditions":[5E1,3.18E0,-3E-1,2E-2,-4.6323845E-3,2.4324958E-3,-1.056653E-2,4.5E1,-3.0841574E-3,-2.360887E-3,8.1E1,1.813318E-2,7.206518E-4],"split_indices":[41,36,55,55,0,0,0,40,0,0,37,0,0],"split_type":[0,0,0,0,0,0,0,0,0,0,0,0,0],"sum_hessian":[2.2674347E1,1.1164853E1,1.1509494E1,9.377779E0,1.7870737E0,1.2145575E0,1.0294936E1,8.041414E0,1.3363652E0,1.1138158E0,6.927598E0,5.53346E0,1.3941376E0],"tree_param":{"num_deleted":"0","num_feature":"56","num_nodes":"13","size_leaf_vector":"1"}},{"base_weights":[-2.8898174E-2,8.168345E-1,-8.2257E-1,1.094432E0,2.8153803E-2,-1.0371188E-2,1.3353044E-1,1.4299352E0,3.6915928E-2,-7.7227764E-3,8.672488E-3,-1.6358745E-3,3.7955008E-3,1.614867E-2,2.167559E-3,-2.3742514E-3,3.0150902E-3],"categories":[],"categories_nodes":[],"categories_segments":[],"categories_sizes":[],"default_left":[1,0,1,0,0,0,0,1,0,0,0,0,0,0,0,0,0],"id":55,"left_children":[1,3,5,7,9,-1,11,13,15,-1,-1,-1,-1,-1,-1,-1,-1],"loss_changes":[1.59029255E1,2.4841018E0,2.6419106E0,2.952384E0,3.367698E0,0E0,2.90343E-1,1.0866413E0,2.9417747E-1,0E0,0E0,0E0,0E0,0E0,0E0,0E0,0E0],"parents":[2147483647,0,0,1,1,2,2,3,3,4,4,6,6,7,7,8,8],"right_children":[2,4,6,8,10,-1,12,14,16,-1,-1,-1,-1,-1,-1,-1,-1],"split_conditions":[5E1,8.1E1,1E0,5E0,1E0,-1.0371188E-2,8.63E1,4E0,1E0,-7.7227764E-3,8.672488E-3,-1.6358745E-3,3.7955008E-3,1.614867E-2,2.167559E-3,-2.3742514E-3,3.0150902E-3],"split_indices":[41,37,26,3,28,0,37,48,45,0,0,0,0,0,0,0,0],"split_type":[0,0,0,0,0,0,0,0,0,0,0,0,0,0,0,0,0],"sum_hessian":[2.169107E1,1.0486996E1,1.1204074E1,7.470039E0,3.0169568E0,9.081458E0,2.122616E0,5.403563E0,2.0664756E0,1.5848057E0,1.4321512E0,1.113231E0,1.0093851E0,4.4015126E0,1.0020506E0,1.0649598E0,1.001516E0],"tree_param":{"num_deleted":"0","num_feature":"56","num_nodes":"17","size_leaf_vector":"1"}},{"base_weights":[-7.4295476E-2,8.39148E-1,-8.4787554E-1,1.4177295E0,2.5702962E-1,-1.04509E-2,8.033772E-2,2.3876284E-3,1.855337E-2,-2.1675959E-1,1.2068248E-2,-6.2127444E-3,7.1194684E-3,3.5006917E-1,-8.283077E-3,-3.9913133E-3,1.0502987E-2],"categories":[],"categories_nodes":[],"categories_segments":[],"categories_sizes":[],"default_left":[1,1,1,0,0,0,0,0,0,0,0,0,0,0,0,0,0],"id":56,"left_children":[1,3,5,7,9,-1,11,-1,-1,13,-1,-1,-1,15,-1,-1,-1],"loss_changes":[1.7379269E1,3.4478035E0,2.5129776E0,2.3714848E0,3.3502269E0,0E0,1.8842379E0,0E0,0E0,2.1712067E0,0E0,0E0,0E0,2.2655354E0,0E0,0E0,0E0],"parents":[2147483647,0,0,1,1,2,2,3,3,4,4,6,6,9,9,13,13],"right_children":[2,4,6,8,10,-1,12,-1,-1,14,-1,-1,-1,16,-1,-1,-1],"split_conditions":[5E1,5.7E1,1E0,4.66E1,-8E-1,-1.04509E-2,1E0,2.3876284E-3,1.855337E-2,-1.7E-1,1.2068248E-2,-6.2127444E-3,7.1194684E-3,-8.5E0,-8.283077E-3,-3.9913133E-3,1.0502987E-2],"split_indices":[41,40,26,40,51,0,50,0,0,55,0,0,0,53,0,0,0],"split_type":[0,0,0,0,0,0,0,0,0,0,0,0,0,0,0,0,0],"sum_hessian":[2.2587976E1,1.03187895E1,1.2269187E1,4.455196E0,5.8635936E0,1.0015345E1,2.2538433E0,1.6244214E0,2.8307748E0,4.4270287E0,1.4365652E0,1.0755023E0,1.1783409E0,2.5194147E0,1.907614E0,1.424882E0,1.0945326E0],"tree_param":{"num_deleted":"0","num_feature":"56","num_nodes":"17","size_leaf_vector":"1"}},{"base_weights":[-5.1456507E-2,8.606946E-1,-8.3095086E-1,1.5459207E0,1.6937058E-1,-1.0393101E-2,1.2999487E-1,4.718735E-3,1.7605836E-2,8.281125E-1,-6.3261366E-1,-1.6538283E-3,3.7567867E-3,1.26500735E-2,-2.1414158E-3,-7.640938E-3,-1.6000372E-3],"categories":[],"categories_nodes":[],"categories_segments":[],"categories_sizes":[],"default_left":[1,0,1,0,1,0,1,0,0,0,0,0,0,0,0,0,0],"id":57,"left_children":[1,3,5,7,9,-1,11,-1,-1,13,15,-1,-1,-1,-1,-1,-1],"loss_changes":[1.6623156E1,4.8546143E0,2.6524582E0,3.9147186E-1,3.9575553E0,0E0,2.8921434E-1,0E0,0E0,2.092996E0,9.510267E-2,0E0,0E0,0E0,0E0,0E0,0E0],"parents":[2147483647,0,0,1,1,2,2,3,3,4,4,6,6,9,9,10,10],"right_children":[2,4,6,8,10,-1,12,-1,-1,14,16,-1,-1,-1,-1,-1,-1],"split_conditions":[5E1,4E0,1E0,-1.1E1,-6E0,-1.0393101E-2,2E0,4.718735E-3,1.7605836E-2,-4E0,-1.2E-1,-1.6538283E-3,3.7567867E-3,1.26500735E-2,-2.1414158E-3,-7.640938E-3,-1.6000372E-3],"split_indices":[41,48,26,53,51,0,48,0,0,53,55,0,0,0,0,0,0],"split_type":[0,0,0,0,0,0,0,0,0,0,0,0,0,0,0,0,0],"sum_hessian":[2.1373543E1,9.800728E0,1.1572816E1,4.301246E0,5.499481E0,9.44363E0,2.129186E0,1.249198E0,3.0520484E0,3.0014994E0,2.4979815E0,1.1152291E0,1.0139568E0,1.9643537E0,1.0371459E0,1.4717789E0,1.0262027E0],"tree_param":{"num_deleted":"0","num_feature":"56","num_nodes":"17","size_leaf_vector":"1"}},{"base_weights":[-1.2906838E-2,8.371003E-1,-8.8264275E-1,1.1489259E0,-1.2180253E-2,1.8391884E-3,-1.0355309E-2,-2.4788359E-3,1.3668292E0,-8.125145E-3,9.885855E-3,1.6709276E-2,3.3388147E-4],"categories":[],"categories_nodes":[],"categories_segments":[],"categories_sizes":[],"default_left":[1,0,0,0,0,0,0,0,0,0,0,0,0],"id":58,"left_children":[1,3,5,7,9,-1,-1,-1,11,-1,-1,-1,-1],"loss_changes":[1.7166714E1,3.1260834E0,2.0608025E0,2.9581976E0,4.123527E0,0E0,0E0,0E0,3.025217E0,0E0,0E0,0E0,0E0],"parents":[2147483647,0,0,1,1,2,2,3,3,4,4,8,8],"right_children":[2,4,6,8,10,-1,-1,-1,12,-1,-1,-1,-1],"split_conditions":[5E1,8.1E1,4.92E1,-1.6E1,1E0,1.8391884E-3,-1.0355309E-2,-2.4788359E-3,-7E-2,-8.125145E-3,9.885855E-3,1.6709276E-2,3.3388147E-4],"split_indices":[41,37,38,53,28,0,0,0,55,0,0,0,0],"split_type":[0,0,0,0,0,0,0,0,0,0,0,0,0],"sum_hessian":[2.122137E1,1.0751387E1,1.0469983E1,7.605936E0,3.145451E0,1.2872252E0,9.182757E0,1.0078435E0,6.5980926E0,1.8522632E0,1.2931879E0,5.1667037E0,1.4313889E0],"tree_param":{"num_deleted":"0","num_feature":"56","num_nodes":"13","size_leaf_vector":"1"}},{"base_weights":[-1.12980686E-1,7.123083E-1,-8.927653E-1,1.025585E0,-5.0525224E-1,-1.04019735E-2,1.5771472E-3,1.3831198E0,-4.1746847E-2,-1.4428768E-3,-6.141484E-3,1.6160691E-2,4.6307356E-3,-6.819372E-3,6.084088E-3],"categories":[],"categories_nodes":[],"categories_segments":[],"categories_sizes":[],"default_left":[1,0,0,0,1,0,0,1,1,0,0,0,0,0,0],"id":59,"left_children":[1,3,5,7,9,-1,-1,11,13,-1,-1,-1,-1,-1,-1],"loss_changes":[1.5143296E1,4.907741E0,2.0279264E0,3.6765556E0,3.0291915E-2,0E0,0E0,7.803774E-1,1.8093449E0,0E0,0E0,0E0,0E0,0E0,0E0],"parents":[2147483647,0,0,1,1,2,2,3,3,4,4,7,7,8,8],"right_children":[2,4,6,8,10,-1,-1,12,14,-1,-1,-1,-1,-1,-1],"split_conditions":[5E1,8.43E1,1E0,6E0,3.95E1,-1.04019735E-2,1.5771472E-3,2.33E0,1E0,-1.4428768E-3,-6.141484E-3,1.6160691E-2,4.6307356E-3,-6.819372E-3,6.084088E-3],"split_indices":[41,37,32,3,41,0,0,39,46,0,0,0,0,0,0],"split_type":[0,0,0,0,0,0,0,0,0,0,0,0,0,0,0],"sum_hessian":[2.154281E1,1.0508071E1,1.1034739E1,8.483063E0,2.0250084E0,9.685231E0,1.3495078E0,6.132823E0,2.3502398E0,1.0081698E0,1.0168388E0,4.2900925E0,1.8427305E0,1.1595651E0,1.1906748E0],"tree_param":{"num_deleted":"0","num_feature":"56","num_nodes":"15","size_leaf_vector":"1"}},{"base_weights":[-1.9247524E-1,7.1587247E-1,-9.810757E-1,1.0062408E0,-2.9320565E-1,-1.3889234E-3,-1.0473116E-2,1.4501271E0,-7.310188E-2,-7.136978E-3,3.120265E-3,1.6871076E-2,1.6364836E-3,-7.4734986E-3,7.5053135E-3],"categories":[],"categories_nodes":[],"categories_segments":[],"categories_sizes":[],"default_left":[1,0,0,0,0,0,0,0,0,0,0,0,0,0,0],"id":60,"left_children":[1,3,5,7,9,-1,-1,11,13,-1,-1,-1,-1,-1,-1],"loss_changes":[1.6881409E1,3.5398736E0,5.524874E-1,4.3342953E0,1.0495453E0,0E0,0E0,1.6450653E0,2.5178058E0,0E0,0E0,0E0,0E0,0E0,0E0],"parents":[2147483647,0,0,1,1,2,2,3,3,4,4,7,7,8,8],"right_children":[2,4,6,8,10,-1,-1,12,14,-1,-1,-1,-1,-1,-1],"split_conditions":[5E1,6E0,1.8E0,8.1E1,7E1,-1.3889234E-3,-1.0473116E-2,1E0,1E0,-7.136978E-3,3.120265E-3,1.6871076E-2,1.6364836E-3,-7.4734986E-3,7.5053135E-3],"split_indices":[41,3,36,37,37,0,0,27,28,0,0,0,0,0,0],"split_type":[0,0,0,0,0,0,0,0,0,0,0,0,0,0,0],"sum_hessian":[2.1586283E1,1.00743685E1,1.1511915E1,7.82538E0,2.2489882E0,1.0651815E0,1.0446733E1,5.3015547E0,2.5238252E0,1.2212777E0,1.0277106E0,4.2139025E0,1.0876522E0,1.438692E0,1.0851331E0],"tree_param":{"num_deleted":"0","num_feature":"56","num_nodes":"15","size_leaf_vector":"1"}},{"base_weights":[-2.8829843E-1,5.3493637E-1,-9.1681767E-1,7.741846E-1,-4.2613284E-3,-1.0497587E-2,7.716634E-4,1.1689866E0,-1.4269584E-1,-2.5437316E-3,1.4943277E-2,-7.953309E-3,7.1589286E-3],"categories":[],"categories_nodes":[],"categories_segments":[],"categories_sizes":[],"default_left":[1,0,0,1,0,0,0,0,0,0,0,0,0],"id":61,"left_children":[1,3,5,7,-1,-1,-1,9,11,-1,-1,-1,-1],"loss_changes":[1.22413025E1,2.7358851E0,1.8314524E0,3.3280878E0,0E0,0E0,0E0,3.2573805E0,2.5416703E0,0E0,0E0,0E0,0E0],"parents":[2147483647,0,0,1,1,2,2,3,3,7,7,8,8],"right_children":[2,4,6,8,-1,-1,-1,10,12,-1,-1,-1,-1],"split_conditions":[4.8E1,8.43E1,1E0,-1.5E-1,-4.2613284E-3,-1.0497587E-2,7.716634E-4,-1.6E1,-2.1E0,-2.5437316E-3,1.4943277E-2,-7.953309E-3,7.1589286E-3],"split_indices":[41,37,32,55,0,0,0,53,51,0,0,0,0],"split_type":[0,0,0,0,0,0,0,0,0,0,0,0,0],"sum_hessian":[2.1710545E1,9.463778E0,1.2246767E1,7.7331457E0,1.730632E0,1.0752547E1,1.4942191E0,5.2133536E0,2.519792E0,1.0105139E0,4.20284E0,1.4734567E0,1.0463355E0],"tree_param":{"num_deleted":"0","num_feature":"56","num_nodes":"13","size_leaf_vector":"1"}},{"base_weights":[-2.5758797E-1,4.2603642E-1,-9.5911455E-1,7.9024416E-1,-4.5577222E-1,-1.1801131E-3,-1.0335711E-2,1.1677641E0,-3.1208757E-3,-8.206914E-3,3.1829977E-3,1.0037214E-3,1.377139E0,3.0589402E-3,1.7019756E-2],"categories":[],"categories_nodes":[],"categories_segments":[],"categories_sizes":[],"default_left":[1,0,0,1,0,0,0,0,0,0,0,0,0,0,0],"id":62,"left_children":[1,3,5,7,9,-1,-1,11,-1,-1,-1,-1,13,-1,-1],"loss_changes":[1.1040861E1,4.1886187E0,5.825167E-1,4.0274324E0,1.4246192E0,0E0,0E0,1.3742018E0,0E0,0E0,0E0,0E0,1.4207802E0,0E0,0E0],"parents":[2147483647,0,0,1,1,2,2,3,3,4,4,7,7,12,12],"right_children":[2,4,6,8,10,-1,-1,12,-1,-1,-1,-1,14,-1,-1],"split_conditions":[5.25E1,8.2E1,-1.3E1,4E0,1E0,-1.1801131E-3,-1.0335711E-2,3.26E1,-3.1208757E-3,-8.206914E-3,3.1829977E-3,1.0037214E-3,2E0,3.0589402E-3,1.7019756E-2],"split_indices":[41,37,53,48,28,0,0,38,0,0,0,0,48,0,0],"split_type":[0,0,0,0,0,0,0,0,0,0,0,0,0,0,0],"sum_hessian":[2.1169872E1,1.0920628E1,1.0249244E1,7.802039E0,3.118589E0,1.043723E0,9.205522E0,5.767472E0,2.034567E0,2.0784996E0,1.0400894E0,1.1884011E0,4.579071E0,1.5172327E0,3.0618382E0],"tree_param":{"num_deleted":"0","num_feature":"56","num_nodes":"15","size_leaf_vector":"1"}},{"base_weights":[-2.2559234E-1,7.907517E-1,-6.873074E-1,1.3229641E0,-3.1393299E-1,6.508199E-3,-8.839068E-1,4.34107E-3,1.5001173E-2,1.9560405E-3,-6.8396716E-3,2.24122E-3,-1.0623239E-2],"categories":[0,1],"categories_nodes":[4],"categories_segments":[0],"categories_sizes":[2],"default_left":[1,0,0,0,1,0,0,0,0,0,0,0,0],"id":63,"left_children":[1,3,5,7,9,-1,11,-1,-1,-1,-1,-1,-1],"loss_changes":[1.0923496E1,4.7511654E0,4.7174006E0,1.6268444E-1,7.382694E-1,0E0,3.0358553E0,0E0,0E0,0E0,0E0,0E0,0E0],"parents":[2147483647,0,0,1,1,2,2,3,3,4,4,6,6],"right_children":[2,4,6,8,10,-1,12,-1,-1,-1,-1,-1,-1],"split_conditions":[3.74E1,1E0,-4.5E-1,1E0,NaN,6.508199E-3,4.34E1,4.34107E-3,1.5001173E-2,1.9560405E-3,-6.8396716E-3,2.24122E-3,-1.0623239E-2],"split_indices":[41,27,55,42,49,0,38,0,0,0,0,0,0],"split_type":[0,0,0,0,1,0,0,0,0,0,0,0,0],"sum_hessian":[2.1119884E1,6.3748007E0,1.4745083E1,4.168781E0,2.2060199E0,1.5928916E0,1.3152191E1,1.2661915E0,2.902589E0,1.1263815E0,1.0796382E0,1.7885488E0,1.1363643E1],"tree_param":{"num_deleted":"0","num_feature":"56","num_nodes":"13","size_leaf_vector":"1"}},{"base_weights":[2.5094787E-2,7.325648E-1,-9.3199915E-1,1.0931343E0,-1.7079231E-1,-1.2702907E-3,-1.0142609E-2,1.4240674E0,-4.068765E-3,6.04643E-3,-8.199227E-3,1.6915929E-2,2.2943707E-3],"categories":[],"categories_nodes":[],"categories_segments":[],"categories_sizes":[],"default_left":[0,0,0,0,0,0,0,1,0,0,0,0,0],"id":64,"left_children":[1,3,5,7,9,-1,-1,11,-1,-1,-1,-1,-1],"loss_changes":[1.608107E1,4.6281276E0,5.403242E-1,5.4842815E0,2.8891294E0,0E0,0E0,2.269989E0,0E0,0E0,0E0,0E0,0E0],"parents":[2147483647,0,0,1,1,2,2,3,3,4,4,7,7],"right_children":[2,4,6,8,10,-1,-1,12,-1,-1,-1,-1,-1],"split_conditions":[5.3E1,6E0,1.93E0,1E0,4E0,-1.2702907E-3,-1.0142609E-2,3.95E1,-4.068765E-3,6.04643E-3,-8.199227E-3,1.6915929E-2,2.2943707E-3],"split_indices":[38,3,39,32,48,0,0,41,0,0,0,0,0],"split_type":[0,0,0,0,0,0,0,0,0,0,0,0,0],"sum_hessian":[2.1741058E1,1.26356E1,9.105458E0,8.880802E0,3.754798E0,1.0801255E0,8.025333E0,7.3171234E0,1.5636787E0,1.7421737E0,2.0126243E0,5.638452E0,1.6786714E0],"tree_param":{"num_deleted":"0","num_feature":"56","num_nodes":"13","size_leaf_vector":"1"}},{"base_weights":[-7.862965E-2,7.769934E-1,-8.731966E-1,1.1811303E0,-3.6984035E-1,1.538562E-3,-1.027267E-2,1.5713919E0,7.0169926E-2,-7.4931085E-3,2.5993309E-3,1.7198311E-2,5.0402205E-3,-6.4520612E-3,7.438948E-3],"categories":[],"categories_nodes":[],"categories_segments":[],"categories_sizes":[],"default_left":[1,0,0,0,0,0,0,1,0,0,0,0,0,0,0],"id":65,"left_children":[1,3,5,7,9,-1,-1,11,13,-1,-1,-1,-1,-1,-1],"loss_changes":[1.496511E1,5.3717513E0,1.9567184E0,3.4066477E0,1.0398028E0,0E0,0E0,7.685566E-2,2.0007906E0,0E0,0E0,0E0,0E0,0E0,0E0],"parents":[2147483647,0,0,1,1,2,2,3,3,4,4,7,7,8,8],"right_children":[2,4,6,8,10,-1,-1,12,14,-1,-1,-1,-1,-1,-1],"split_conditions":[5E1,6E0,1.93E0,8.1E1,4.1E1,1.538562E-3,-1.027267E-2,4E0,1E0,-7.4931085E-3,2.5993309E-3,1.7198311E-2,5.0402205E-3,-6.4520612E-3,7.438948E-3],"split_indices":[41,3,39,37,41,0,0,48,28,0,0,0,0,0,0],"split_type":[0,0,0,0,0,0,0,0,0,0,0,0,0,0,0],"sum_hessian":[2.001441E1,9.6475935E0,1.03668165E1,7.111604E0,2.5359888E0,1.3524699E0,9.014347E0,4.9561477E0,2.1554563E0,1.4640278E0,1.0719612E0,3.8143992E0,1.1417487E0,1.0659437E0,1.0895126E0],"tree_param":{"num_deleted":"0","num_feature":"56","num_nodes":"15","size_leaf_vector":"1"}},{"base_weights":[-9.4618745E-2,6.1582035E-1,-7.99324E-1,9.688415E-1,-1.6805173E-1,-1.0197956E-2,1.3854873E-1,-2.3975994E-3,1.1868174E0,-9.000446E-3,9.895629E-3,3.8114372E-3,-1.553414E-3,1.5538731E0,-3.863382E-4,4.227503E-3,1.7600777E-2],"categories":[],"categories_nodes":[],"categories_segments":[],"categories_sizes":[],"default_left":[1,1,1,0,0,0,0,0,0,0,0,0,0,0,0,0,0],"id":66,"left_children":[1,3,5,7,9,-1,11,-1,13,-1,-1,-1,-1,15,-1,-1,-1],"loss_changes":[1.1880303E1,3.4536185E0,2.5925016E0,2.4835892E0,4.7417784E0,0E0,2.828426E-1,0E0,3.3165798E0,0E0,0E0,0E0,0E0,5.6101227E-1,0E0,0E0,0E0],"parents":[2147483647,0,0,1,1,2,2,3,3,4,4,6,6,8,8,13,13],"right_children":[2,4,6,8,10,-1,12,-1,14,-1,-1,-1,-1,16,-1,-1,-1],"split_conditions":[5E1,-1.5E-1,1E0,4.5E1,-8E-1,-1.0197956E-2,5.7E1,-2.3975994E-3,8.2E1,-9.000446E-3,9.895629E-3,3.8114372E-3,-1.553414E-3,2E0,-3.863382E-4,4.227503E-3,1.7600777E-2],"split_indices":[41,55,26,40,51,0,41,0,37,0,0,0,0,48,0,0,0],"split_type":[0,0,0,0,0,0,0,0,0,0,0,0,0,0,0,0,0],"sum_hessian":[2.174655E1,1.0892028E1,1.0854522E1,7.347205E0,3.5448232E0,8.717819E0,2.1367028E0,1.1073562E0,6.2398486E0,2.3079445E0,1.2368786E0,1.0078607E0,1.128842E0,4.5954013E0,1.6444473E0,1.17888E0,3.4165213E0],"tree_param":{"num_deleted":"0","num_feature":"56","num_nodes":"17","size_leaf_vector":"1"}},{"base_weights":[-7.6757357E-3,7.8094554E-1,-8.0444837E-1,1.0704023E0,-1.6224122E-1,-1.0193174E-2,1.2130997E-1,1.3082901E0,-6.9637946E-4,-7.5138514E-3,5.897954E-3,-6.05436E-3,7.578171E-3,1.6015245E-2,3.3762887E-1,-6.54187E-3,1.1313212E-2],"categories":[],"categories_nodes":[],"categories_segments":[],"categories_sizes":[],"default_left":[1,0,1,0,1,0,0,1,0,0,0,0,0,0,0,0,0],"id":67,"left_children":[1,3,5,7,9,-1,11,13,-1,-1,-1,-1,-1,-1,15,-1,-1],"loss_changes":[1.5254282E1,3.5059562E0,2.5248113E0,2.6596823E0,2.0978024E0,0E0,1.9240695E0,1.7040291E0,0E0,0E0,0E0,0E0,0E0,0E0,3.177943E0,0E0,0E0],"parents":[2147483647,0,0,1,1,2,2,3,3,4,4,6,6,7,7,14,14],"right_children":[2,4,6,8,10,-1,12,14,-1,-1,-1,-1,-1,-1,16,-1,-1],"split_conditions":[5E1,6E0,1E0,3.18E0,1E0,-1.0193174E-2,1E0,-1.5E-1,-6.9637946E-4,-7.5138514E-3,5.897954E-3,-6.05436E-3,7.578171E-3,1.6015245E-2,-2.1E0,-6.54187E-3,1.1313212E-2],"split_indices":[41,3,26,36,46,0,50,55,0,0,0,0,0,0,51,0,0],"split_type":[0,0,0,0,0,0,0,0,0,0,0,0,0,0,0,0,0],"sum_hessian":[2.2276848E1,1.1205676E1,1.1071173E1,8.4710865E0,2.734589E0,8.9035845E0,2.1675882E0,6.8865204E0,1.5845665E0,1.5338446E0,1.2007445E0,1.0348456E0,1.1327428E0,4.789648E0,2.0968723E0,1.0102315E0,1.0866407E0],"tree_param":{"num_deleted":"0","num_feature":"56","num_nodes":"17","size_leaf_vector":"1"}},{"base_weights":[-1.2321432E-1,5.176315E-1,-8.563398E-1,9.895772E-1,-2.125516E-1,3.6084764E-3,-1.0206513E-2,1.358496E0,-3.5589489E-3,4.1025507E-1,-8.28151E-3,2.601498E-3,1.6130414E-2,-7.3135304E-3,1.2734749E-2],"categories":[],"categories_nodes":[],"categories_segments":[],"categories_sizes":[],"default_left":[0,1,1,0,0,0,0,0,0,0,0,0,0,0,0],"id":68,"left_children":[1,3,5,7,9,-1,-1,11,-1,13,-1,-1,-1,-1,-1],"loss_changes":[1.0948616E1,4.536642E0,2.5294814E0,4.3563666E0,2.5450325E0,0E0,0E0,1.3503857E0,0E0,4.4080005E0,0E0,0E0,0E0,0E0,0E0],"parents":[2147483647,0,0,1,1,2,2,3,3,4,4,7,7,9,9],"right_children":[2,4,6,8,10,-1,-1,12,-1,14,-1,-1,-1,-1,-1],"split_conditions":[5.3E1,-1.5E-1,-1.68E1,8.08E1,4.17E1,3.6084764E-3,-1.0206513E-2,2E0,-3.5589489E-3,3.67E1,-8.28151E-3,2.601498E-3,1.6130414E-2,-7.3135304E-3,1.2734749E-2],"split_indices":[38,55,53,37,38,0,0,48,0,41,0,0,0,0,0],"split_type":[0,0,0,0,0,0,0,0,0,0,0,0,0,0,0],"sum_hessian":[2.136035E1,1.1554326E1,9.806025E0,6.802415E0,4.7519107E0,1.0240372E0,8.781987E0,5.3310103E0,1.4714046E0,2.5279412E0,2.2239695E0,1.3834661E0,3.9475443E0,1.1542317E0,1.3737097E0],"tree_param":{"num_deleted":"0","num_feature":"56","num_nodes":"15","size_leaf_vector":"1"}},{"base_weights":[-1.06227905E-1,7.323803E-1,-8.246418E-1,1.1783984E0,8.309643E-2,-1.0299313E-2,1.5867747E-1,1.4254194E0,9.687849E-4,8.497984E-1,-6.4932954E-1,-1.33821E-3,3.8110618E-3,1.6416134E-2,4.275135E-3,2.2429244E-3,1.0493293E-2,-1.8439465E-3,-7.674381E-3],"categories":[0,1,0,1,3],"categories_nodes":[7,9],"categories_segments":[0,2],"categories_sizes":[2,3],"default_left":[1,1,1,0,0,0,0,1,0,1,0,0,0,0,0,0,0,0,0],"id":69,"left_children":[1,3,5,7,9,-1,11,13,-1,15,17,-1,-1,-1,-1,-1,-1,-1,-1],"loss_changes":[1.4357766E1,3.1058521E0,2.7404547E0,1.5936785E0,3.6857393E0,0E0,2.5082448E-1,4.2090893E-1,0E0,1.590066E-1,4.635012E-2,0E0,0E0,0E0,0E0,0E0,0E0,0E0,0E0],"parents":[2147483647,0,0,1,1,2,2,3,3,4,4,6,6,7,7,9,9,10,10],"right_children":[2,4,6,8,10,-1,12,14,-1,16,18,-1,-1,-1,-1,-1,-1,-1,-1],"split_conditions":[4.8E1,-7E0,1E0,-1.5E-1,4E0,-1.0299313E-2,2E-1,NaN,9.687849E-4,NaN,-3.5E0,-1.33821E-3,3.8110618E-3,1.6416134E-2,4.275135E-3,2.2429244E-3,1.0493293E-2,-1.8439465E-3,-7.674381E-3],"split_indices":[41,51,26,55,48,0,53,49,0,49,51,0,0,0,0,0,0,0,0],"split_type":[0,0,0,0,0,0,0,1,0,1,0,0,0,0,0,0,0,0,0],"sum_hessian":[2.1829128E1,1.0063045E1,1.1766084E1,5.4821944E0,4.5808506E0,9.694699E0,2.0713844E0,4.2040124E0,1.2781823E0,2.1597633E0,2.4210873E0,1.0668365E0,1.004548E0,2.9252129E0,1.2787993E0,1.0360303E0,1.1237329E0,1.0092806E0,1.4118067E0],"tree_param":{"num_deleted":"0","num_feature":"56","num_nodes":"19","size_leaf_vector":"1"}},{"base_weights":[-1.623695E-1,5.973088E-1,-9.5782506E-1,1.2842698E0,-2.4654846E-1,-1.545301E-3,-1.0290954E-2,1.594217E-2,7.7186414E-4,7.573416E-3,-7.6678807E-1,-8.647916E-3,-2.3439347E-3],"categories":[0],"categories_nodes":[10],"categories_segments":[0],"categories_sizes":[1],"default_left":[1,1,0,0,0,0,0,0,0,0,1,0,0],"id":70,"left_children":[1,3,5,7,9,-1,-1,-1,-1,-1,11,-1,-1],"loss_changes":[1.2917994E1,6.7316246E0,4.3433952E-1,2.2194643E0,3.6124096E0,0E0,0E0,0E0,0E0,0E0,2.2721052E-2,0E0,0E0],"parents":[2147483647,0,0,1,1,2,2,3,3,4,4,10,10],"right_children":[2,4,6,8,10,-1,-1,-1,-1,-1,12,-1,-1],"split_conditions":[7.86E1,-2E-1,8.1E1,2.99E0,4E0,-1.545301E-3,-1.0290954E-2,1.594217E-2,7.7186414E-4,7.573416E-3,NaN,-8.647916E-3,-2.3439347E-3],"split_indices":[40,55,40,36,48,0,0,0,0,0,0,0,0],"split_type":[0,0,0,0,0,0,0,0,0,0,1,0,0],"sum_hessian":[1.943037E1,1.0066107E1,9.364264E0,5.2612023E0,4.804904E0,1.0213013E0,8.342962E0,3.931085E0,1.3301173E0,1.484519E0,3.3203852E0,2.2769074E0,1.0434777E0],"tree_param":{"num_deleted":"0","num_feature":"56","num_nodes":"13","size_leaf_vector":"1"}},{"base_weights":[-1.5965372E-1,6.3313717E-1,-9.5786583E-1,-6.7853876E-3,8.2381713E-1,-1.5939639E-3,-1.02966195E-2,1.172236E0,-1.4499833E-1,1.425522E0,2.9531989E-1,-7.51764E-3,6.0431235E-3,1.6831089E-2,4.419754E-3,-2.4339291E-3,6.839791E-3],"categories":[],"categories_nodes":[],"categories_segments":[],"categories_sizes":[],"default_left":[1,0,0,0,0,0,0,1,0,1,0,0,0,0,0,0,0],"id":71,"left_children":[1,3,5,-1,7,-1,-1,9,11,13,15,-1,-1,-1,-1,-1,-1],"loss_changes":[1.4983412E1,3.5603843E0,5.076771E-1,0E0,3.8590412E0,0E0,0E0,1.3888063E0,2.1732118E0,7.9160404E-1,8.1289285E-1,0E0,0E0,0E0,0E0,0E0,0E0],"parents":[2147483647,0,0,1,1,2,2,4,4,7,7,8,8,9,9,10,10],"right_children":[2,4,6,-1,8,-1,-1,10,12,14,16,-1,-1,-1,-1,-1,-1],"split_conditions":[4.9E1,4.5E1,-2.6E-1,-6.7853876E-3,8.2E1,-1.5939639E-3,-1.02966195E-2,-1.5E-1,1E0,3.4E1,3.7E1,-7.51764E-3,6.0431235E-3,1.6831089E-2,4.419754E-3,-2.4339291E-3,6.839791E-3],"split_indices":[41,40,55,0,37,0,0,55,28,41,41,0,0,0,0,0,0],"split_type":[0,0,0,0,0,0,0,0,0,0,0,0,0,0,0,0,0],"sum_hessian":[2.171903E1,1.1000274E1,1.0718757E1,1.0714327E0,9.928841E0,1.1499453E0,9.568811E0,7.1481547E0,2.7806864E0,5.0607996E0,2.0873554E0,1.5346811E0,1.2460053E0,3.4468243E0,1.613975E0,1.0314481E0,1.0559071E0],"tree_param":{"num_deleted":"0","num_feature":"56","num_nodes":"17","size_leaf_vector":"1"}},{"base_weights":[-1.15007855E-1,6.0928476E-1,-8.612842E-1,9.032608E-1,-7.5635486E-3,-1.0231589E-2,3.1397843E-3,1.1337892E0,-3.4865518E-3,1.3762995E0,-2.227551E-4,1.571465E-2,4.672051E-3],"categories":[],"categories_nodes":[],"categories_segments":[],"categories_sizes":[],"default_left":[1,0,0,0,0,0,0,0,0,1,0,0,0],"id":72,"left_children":[1,3,5,7,-1,-1,-1,9,-1,11,-1,-1,-1],"loss_changes":[1.2356588E1,5.3779616E0,2.4511433E0,3.3039494E0,0E0,0E0,0E0,2.4827642E0,0E0,5.5135727E-1,0E0,0E0,0E0],"parents":[2147483647,0,0,1,1,2,2,3,3,7,7,9,9],"right_children":[2,4,6,8,-1,-1,-1,10,-1,12,-1,-1,-1],"split_conditions":[5E1,8.43E1,9E0,1E0,-7.5635486E-3,-1.0231589E-2,3.1397843E-3,6E0,-3.4865518E-3,4E0,-2.227551E-4,1.571465E-2,4.672051E-3],"split_indices":[41,37,3,34,0,0,0,3,0,48,0,0,0],"split_type":[0,0,0,0,0,0,0,0,0,0,0,0,0],"sum_hessian":[2.0889603E1,1.06940975E1,1.0195505E1,9.078404E0,1.6156937E0,9.074984E0,1.1205218E0,7.746346E0,1.3320582E0,6.2456727E0,1.5006732E0,4.541989E0,1.7036842E0],"tree_param":{"num_deleted":"0","num_feature":"56","num_nodes":"13","size_leaf_vector":"1"}},{"base_weights":[-3.7905805E-2,8.6773795E-1,-8.792154E-1,1.1174775E0,-4.3048407E-3,2.303152E-3,-1.0268426E-2,1.3572979E0,-1.2107227E-3,1.6108153E-2,4.8200542E-1,9.914389E-3,-2.4826953E-3],"categories":[0,0],"categories_nodes":[1,3],"categories_segments":[0,1],"categories_sizes":[1,1],"default_left":[1,1,0,1,0,0,0,1,0,0,0,0,0],"id":73,"left_children":[1,3,5,7,-1,-1,-1,9,-1,-1,11,-1,-1],"loss_changes":[1.7404463E1,4.0545187E0,2.1725092E0,2.9925594E0,0E0,0E0,0E0,1.0118847E0,0E0,0E0,1.4503787E0,0E0,0E0],"parents":[2147483647,0,0,1,1,2,2,3,3,7,7,10,10],"right_children":[2,4,6,8,-1,-1,-1,10,-1,-1,12,-1,-1],"split_conditions":[4.6E1,NaN,4.81E1,NaN,-4.3048407E-3,2.303152E-3,-1.0268426E-2,4E0,-1.2107227E-3,1.6108153E-2,2E0,9.914389E-3,-2.4826953E-3],"split_indices":[41,8,38,49,0,0,0,48,0,0,4,0,0],"split_type":[0,1,0,1,0,0,0,0,0,0,0,0,0],"sum_hessian":[2.0841385E1,1.0021807E1,1.0819578E1,8.521707E0,1.5000999E0,1.2047621E0,9.614816E0,7.058996E0,1.46271E0,4.822037E0,2.236959E0,1.1070596E0,1.1298993E0],"tree_param":{"num_deleted":"0","num_feature":"56","num_nodes":"13","size_leaf_vector":"1"}},{"base_weights":[-8.5755385E-2,5.1543534E-1,-9.034594E-1,8.6327535E-1,-3.1176713E-1,-9.7245455E-4,-9.929343E-3,1.2698585E0,1.3700105E-2,-8.465086E-3,4.688396E-3,1.45429205E-2,3.8901977E-3,-4.675249E-3,6.3801263E-3],"categories":[],"categories_nodes":[],"categories_segments":[],"categories_sizes":[],"default_left":[0,0,0,0,0,0,0,0,0,0,0,0,0,0,0],"id":74,"left_children":[1,3,5,7,9,-1,-1,11,13,-1,-1,-1,-1,-1,-1],"loss_changes":[1.0526153E1,3.8458478E0,5.5514145E-1,3.0969963E0,2.2395577E0,0E0,0E0,4.231205E-1,1.4787519E0,0E0,0E0,0E0,0E0,0E0,0E0],"parents":[2147483647,0,0,1,1,2,2,3,3,4,4,7,7,8,8],"right_children":[2,4,6,8,10,-1,-1,12,14,-1,-1,-1,-1,-1,-1],"split_conditions":[5.3E1,6E0,7.62E1,2.29E0,4.7E1,-9.7245455E-4,-9.929343E-3,7E-1,1E0,-8.465086E-3,4.688396E-3,1.45429205E-2,3.8901977E-3,-4.675249E-3,6.3801263E-3],"split_indices":[38,3,40,39,41,0,0,51,28,0,0,0,0,0,0],"split_type":[0,0,0,0,0,0,0,0,0,0,0,0,0,0,0],"sum_hessian":[1.9464926E1,1.1430598E1,8.034327E0,8.016175E0,3.4144232E0,1.0110557E0,7.023271E0,5.0869865E0,2.9291885E0,1.9762218E0,1.4382013E0,3.6679463E0,1.4190404E0,1.795974E0,1.1332145E0],"tree_param":{"num_deleted":"0","num_feature":"56","num_nodes":"15","size_leaf_vector":"1"}},{"base_weights":[6.93905E-2,8.369541E-1,-7.7111155E-1,1.0820458E0,-2.1141647E-1,-1.0031937E-2,1.8303964E-1,1.2350849E0,-1.4394943E-3,-6.406644E-3,3.2472918E-3,3.890956E-3,-1.109832E-3,8.170534E-4,1.3872361E0,1.5623536E-2,3.08374E-3],"categories":[],"categories_nodes":[],"categories_segments":[],"categories_sizes":[],"default_left":[1,0,1,1,1,0,0,0,0,0,0,0,0,0,1,0,0],"id":75,"left_children":[1,3,5,7,9,-1,11,13,-1,-1,-1,-1,-1,-1,15,-1,-1],"loss_changes":[1.4995101E1,3.3392048E0,2.6499176E0,2.0493603E0,9.284568E-1,0E0,2.2643489E-1,1.4612131E0,0E0,0E0,0E0,0E0,0E0,0E0,1.003972E0,0E0,0E0],"parents":[2147483647,0,0,1,1,2,2,3,3,4,4,6,6,7,7,14,14],"right_children":[2,4,6,8,10,-1,12,14,-1,-1,-1,-1,-1,-1,16,-1,-1],"split_conditions":[5E1,8.43E1,1E0,2E-2,4.6E1,-1.0031937E-2,8.79E1,-1.47E1,-1.4394943E-3,-6.406644E-3,3.2472918E-3,3.890956E-3,-1.109832E-3,8.170534E-4,4E0,1.5623536E-2,3.08374E-3],"split_indices":[41,37,26,55,38,0,40,53,0,0,0,0,0,0,48,0,0],"split_type":[0,0,0,0,0,0,0,0,0,0,0,0,0,0,0,0,0],"sum_hessian":[2.1242836E1,1.1105389E1,1.0137446E1,8.975049E0,2.1303394E0,8.112749E0,2.0246975E0,7.972447E0,1.0026022E0,1.0748501E0,1.0554893E0,1.0003115E0,1.024386E0,1.1082652E0,6.864182E0,5.520037E0,1.3441447E0],"tree_param":{"num_deleted":"0","num_feature":"56","num_nodes":"17","size_leaf_vector":"1"}},{"base_weights":[-2.1225235E-1,5.607378E-1,-8.830284E-1,8.3308536E-1,-8.6334355E-2,-1.0282662E-2,2.1461865E-3,1.1478444E0,-1.4517119E-3,-8.428908E-3,8.94167E-3,1.3771698E-2,2.742011E-3],"categories":[],"categories_nodes":[],"categories_segments":[],"categories_sizes":[],"default_left":[1,1,0,0,0,0,0,0,0,0,0,0,0],"id":76,"left_children":[1,3,5,7,9,-1,-1,11,-1,-1,-1,-1,-1],"loss_changes":[1.2020182E1,1.9996083E0,2.1797895E0,2.56599E0,3.8294153E0,0E0,0E0,8.2600737E-1,0E0,0E0,0E0,0E0,0E0],"parents":[2147483647,0,0,1,1,2,2,3,3,4,4,7,7],"right_children":[2,4,6,8,10,-1,-1,12,-1,-1,-1,-1,-1],"split_conditions":[4.8E1,-1.5E-1,1E0,2.99E0,-2.6E0,-1.0282662E-2,2.1461865E-3,-3.5E0,-1.4517119E-3,-8.428908E-3,8.94167E-3,1.3771698E-2,2.742011E-3],"split_indices":[41,55,44,36,51,0,0,51,0,0,0,0,0],"split_type":[0,0,0,0,0,0,0,0,0,0,0,0,0],"sum_hessian":[2.1227505E1,9.938548E0,1.1288957E1,6.7922673E0,3.1462808E0,1.0025603E1,1.2633531E0,5.0076675E0,1.7845997E0,1.8551733E0,1.2911075E0,3.5099711E0,1.4976965E0],"tree_param":{"num_deleted":"0","num_feature":"56","num_nodes":"13","size_leaf_vector":"1"}},{"base_weights":[-1.0170017E-1,6.042345E-1,-7.88697E-1,9.784537E-1,-1.9694892E-1,-1.0090093E-2,1.9570896E-3,1.2849793E0,-3.1928935E-3,-8.845103E-3,8.522225E-3,1.0570398E-3,1.5187906E-2],"categories":[],"categories_nodes":[],"categories_segments":[],"categories_sizes":[],"default_left":[1,1,1,1,0,0,0,0,0,0,0,0,0],"id":77,"left_children":[1,3,5,7,9,-1,-1,11,-1,-1,-1,-1,-1],"loss_changes":[1.1381366E1,3.6873899E0,2.762971E0,3.6373978E0,4.031291E0,0E0,0E0,1.703804E0,0E0,0E0,0E0,0E0,0E0],"parents":[2147483647,0,0,1,1,2,2,3,3,4,4,7,7],"right_children":[2,4,6,8,10,-1,-1,12,-1,-1,-1,-1,-1],"split_conditions":[5E1,-1.5E-1,1E0,7.8E1,-1.9E0,-1.0090093E-2,1.9570896E-3,4.6E1,-3.1928935E-3,-8.845103E-3,8.522225E-3,1.0570398E-3,1.5187906E-2],"split_indices":[41,55,26,40,51,0,0,40,0,0,0,0,0],"split_type":[0,0,0,0,0,0,0,0,0,0,0,0,0],"sum_hessian":[2.1485302E1,1.06560135E1,1.08292885E1,7.112585E0,3.5434282E0,8.8284645E0,2.0008237E0,5.7615485E0,1.3510367E0,2.2354186E0,1.3080096E0,1.1935788E0,4.56797E0],"tree_param":{"num_deleted":"0","num_feature":"56","num_nodes":"13","size_leaf_vector":"1"}},{"base_weights":[-8.146122E-2,5.065962E-1,-8.1855804E-1,1.1283841E0,-9.270542E-3,-1.000584E-2,3.795191E-3,7.4351137E-4,1.3702229E-2,1.0474423E-2,-5.4025203E-1,-7.989825E-1,3.2509465E-3,-1.9972208E-3,-9.069732E-3],"categories":[],"categories_nodes":[],"categories_segments":[],"categories_sizes":[],"default_left":[0,1,0,0,0,0,0,0,0,0,0,0,0,0,0],"id":78,"left_children":[1,3,5,7,9,-1,-1,-1,-1,-1,11,13,-1,-1,-1],"loss_changes":[9.610813E0,3.9938843E0,2.5163178E0,1.3356361E0,4.930826E0,0E0,0E0,0E0,0E0,0E0,1.5666833E0,1.2838626E-1,0E0,0E0,0E0],"parents":[2147483647,0,0,1,1,2,2,3,3,4,4,10,10,11,11],"right_children":[2,4,6,8,10,-1,-1,-1,-1,-1,12,14,-1,-1,-1],"split_conditions":[5.3E1,-7E0,1E0,-1.47E1,3E0,-1.000584E-2,3.795191E-3,7.4351137E-4,1.3702229E-2,1.0474423E-2,5E0,2.08E0,3.2509465E-3,-1.9972208E-3,-9.069732E-3],"split_indices":[38,51,32,53,48,0,0,0,0,0,53,36,0,0,0],"split_type":[0,0,0,0,0,0,0,0,0,0,0,0,0,0,0],"sum_hessian":[2.021588E1,1.1418716E1,8.797163E0,4.639386E0,6.7793303E0,7.7799788E0,1.0171844E0,1.1098118E0,3.5295746E0,1.9419596E0,4.837371E0,3.782985E0,1.0543859E0,1.0127099E0,2.770275E0],"tree_param":{"num_deleted":"0","num_feature":"56","num_nodes":"15","size_leaf_vector":"1"}},{"base_weights":[-1.4083982E-1,5.566865E-1,-9.2724997E-1,7.496222E-1,-6.7969444E-3,-1.0075408E-2,-1.0079358E-3,1.0208251E0,-2.5565916E-1,1.4474917E-2,3.3352906E-1,-6.493926E-3,2.822309E-3,1.0308561E-2,-3.2711194E-3],"categories":[2],"categories_nodes":[10],"categories_segments":[0],"categories_sizes":[1],"default_left":[1,0,0,0,0,0,0,1,1,0,1,0,0,0,0],"id":79,"left_children":[1,3,5,7,-1,-1,-1,9,11,-1,13,-1,-1,-1,-1],"loss_changes":[1.2175716E1,3.3455842E0,5.863209E-1,3.194501E0,0E0,0E0,0E0,2.0608664E0,8.367984E-1,0E0,2.4663591E0,0E0,0E0,0E0,0E0],"parents":[2147483647,0,0,1,1,2,2,3,3,7,7,8,8,10,10],"right_children":[2,4,6,8,-1,-1,-1,10,12,-1,14,-1,-1,-1,-1],"split_conditions":[5E1,1E0,1.1E1,6E0,-6.7969444E-3,-1.0075408E-2,-1.0079358E-3,3.4E1,1E0,1.4474917E-2,NaN,-6.493926E-3,2.822309E-3,1.0308561E-2,-3.2711194E-3],"split_indices":[41,16,3,3,0,0,0,41,46,0,6,0,0,0,0],"split_type":[0,0,0,0,0,0,0,0,0,0,1,0,0,0,0],"sum_hessian":[2.0255497E1,1.088918E1,9.366316E0,9.759862E0,1.1293182E0,8.337238E0,1.0290782E0,7.674097E0,2.0857654E0,4.052363E0,3.6217341E0,1.084569E0,1.0011963E0,1.4893216E0,2.1324127E0],"tree_param":{"num_deleted":"0","num_feature":"56","num_nodes":"15","size_leaf_vector":"1"}},{"base_weights":[-1.0213141E-1,6.1975807E-1,-7.8043777E-1,1.1145442E0,-2.0653938E-3,-1.0035754E-2,1.3744348E-1,1.4192496E-2,1.7211625E-3,-4.2564845E-1,8.552436E-3,3.821142E-3,-1.5846769E-3,1.1824614E-3,-8.3277E-3],"categories":[0,1,0,1,3],"categories_nodes":[3,9],"categories_segments":[0,2],"categories_sizes":[2,3],"default_left":[1,1,1,1,0,0,0,0,0,1,0,0,0,0,0],"id":80,"left_children":[1,3,5,7,9,-1,11,-1,-1,13,-1,-1,-1,-1,-1],"loss_changes":[1.1004172E1,3.376083E0,2.4973092E0,1.509839E0,2.4910142E0,0E0,2.8733504E-1,0E0,0E0,1.1143837E0,0E0,0E0,0E0,0E0,0E0],"parents":[2147483647,0,0,1,1,2,2,3,3,4,4,6,6,9,9],"right_children":[2,4,6,8,10,-1,12,-1,-1,14,-1,-1,-1,-1,-1],"split_conditions":[4.8E1,-7E0,1E0,NaN,1E0,-1.0035754E-2,8.4E1,1.4192496E-2,1.7211625E-3,NaN,8.552436E-3,3.821142E-3,-1.5846769E-3,1.1824614E-3,-8.3277E-3],"split_indices":[41,51,26,49,45,0,40,0,0,49,0,0,0,0,0],"split_type":[0,0,0,1,0,0,0,0,0,1,0,0,0,0,0],"sum_hessian":[2.0485199E1,9.965598E0,1.0519602E1,5.1084304E0,4.8571677E0,8.387284E0,2.1323173E0,3.4779806E0,1.6304498E0,3.5879326E0,1.2692354E0,1.0077538E0,1.1245635E0,1.8397166E0,1.748216E0],"tree_param":{"num_deleted":"0","num_feature":"56","num_nodes":"15","size_leaf_vector":"1"}},{"base_weights":[7.310265E-3,6.417141E-1,-8.006418E-1,9.2500323E-1,-4.940022E-3,3.5459544E-3,-9.860031E-3,1.3225533E0,1.0085542E-1,2.0641135E-3,1.4940145E-2,8.6502535E-3,-7.669096E-3],"categories":[],"categories_nodes":[],"categories_segments":[],"categories_sizes":[],"default_left":[0,0,1,1,0,0,0,0,0,0,0,0,0],"id":81,"left_children":[1,3,5,7,-1,-1,-1,9,11,-1,-1,-1,-1],"loss_changes":[1.0869192E1,4.276615E0,2.3477302E0,3.0938826E0,0E0,0E0,0E0,9.474611E-1,3.5067453E0,0E0,0E0,0E0,0E0],"parents":[2147483647,0,0,1,1,2,2,3,3,7,7,8,8],"right_children":[2,4,6,8,-1,-1,-1,10,12,-1,-1,-1,-1],"split_conditions":[5.3E1,8.2E1,-3.1E-1,-1.5E-1,-4.940022E-3,3.5459544E-3,-9.860031E-3,4.6E1,4E0,2.0641135E-3,1.4940145E-2,8.6502535E-3,-7.669096E-3],"split_indices":[38,37,55,55,0,0,0,40,48,0,0,0,0],"split_type":[0,0,0,0,0,0,0,0,0,0,0,0,0],"sum_hessian":[1.9203001E1,1.0872034E1,8.330967E0,8.850043E0,2.021991E0,1.0256652E0,7.305302E0,5.5622087E0,3.287835E0,1.0341511E0,4.5280576E0,1.7499518E0,1.537883E0],"tree_param":{"num_deleted":"0","num_feature":"56","num_nodes":"13","size_leaf_vector":"1"}},{"base_weights":[-1.0622608E-1,5.7174516E-1,-7.0579785E-1,9.389029E-1,-7.2258273E-3,2.9524314E-1,-1.0058272E-2,1.1978694E0,-3.4379624E-3,-2.870455E-3,7.621608E-3,1.5365592E-2,1.5981039E-3],"categories":[0],"categories_nodes":[3],"categories_segments":[0],"categories_sizes":[1],"default_left":[1,0,0,1,0,0,0,1,0,0,0,0,0],"id":82,"left_children":[1,3,5,7,-1,9,-1,11,-1,-1,-1,-1,-1],"loss_changes":[8.275772E0,5.260229E0,3.5180945E0,3.0511951E0,0E0,1.10137E0,0E0,2.1571388E0,0E0,0E0,0E0,0E0,0E0],"parents":[2147483647,0,0,1,1,2,2,3,3,5,5,7,7],"right_children":[2,4,6,8,-1,10,-1,12,-1,-1,-1,-1,-1],"split_conditions":[-1.5E-1,6.59E1,4.17E1,NaN,-7.2258273E-3,6.4E1,-1.0058272E-2,-3E0,-3.4379624E-3,-2.870455E-3,7.621608E-3,1.5365592E-2,1.5981039E-3],"split_indices":[55,38,38,49,0,37,0,51,0,0,0,0,0],"split_type":[0,0,0,1,0,0,0,0,0,0,0,0,0],"sum_hessian":[1.8366255E1,8.641364E0,9.72489E0,6.945702E0,1.6956625E0,2.2462568E0,7.4786334E0,5.833999E0,1.1117029E0,1.1710653E0,1.0751914E0,4.0367093E0,1.7972895E0],"tree_param":{"num_deleted":"0","num_feature":"56","num_nodes":"13","size_leaf_vector":"1"}},{"base_weights":[-7.453731E-2,4.9078265E-1,-7.970378E-1,1.2696818E0,-1.2573943E-1,-9.885697E-3,3.851797E-3,1.4779449E-2,1.9194122E-3,3.87425E-1,-5.475439E-1,8.062158E-3,-2.945323E-3,-8.976734E-3,2.6972264E-3],"categories":[],"categories_nodes":[],"categories_segments":[],"categories_sizes":[],"default_left":[0,1,0,1,0,0,0,0,0,0,0,0,0,0,0],"id":83,"left_children":[1,3,5,7,9,-1,-1,-1,-1,11,13,-1,-1,-1,-1],"loss_changes":[8.615809E0,5.8818197E0,2.4685988E0,9.1822815E-1,1.8487908E0,0E0,0E0,0E0,0E0,1.3789341E0,1.548219E0,0E0,0E0,0E0,0E0],"parents":[2147483647,0,0,1,1,2,2,3,3,4,4,9,9,10,10],"right_children":[2,4,6,8,10,-1,-1,-1,-1,12,14,-1,