{"learner":{"attributes":{"scikit_learn":"{\"_estimator_type\": \"classifier\"}"},"feature_names":["Sex","FamilialvsSporadic","Binary diagnosis","Final diagnosis","TOBACCO","Comorbidities","Radiological Pattern","Biopsy","Pathology Pattern Binary","Diagnosis after Biopsy","Antifibrotic Drug","Extrapulmonary affectation","Associated lung cancer","Other cancer","Hematological abnormality before diagnosis","Blood count abnormality at diagnosis","Anemia","Thrombocytopenia","Thrombocytosis","Lymphocytosis","Lymphopenia","Neutrophilia","Neutropenia","Leukocytosis","Leukopenia","Hematologic Disease","Liver abnormality before diagnosis","Liver abnormality","LDH","ALT","AST","ALP","GGT","Transaminitis","Cholestasis","Liver disease","FVC (L) at diagnosis","FVC (%) at diagnosis","DLCO (%) at diagnosis","FVC (L) 1 year after diagnosis","FVC (%) 1 year after diagnosis","DLCO (%) 1 year after diagnosis","RadioWorsening2y","1st degree relative","2nd degree relative","More than 1 relative","Genetic mutation studied in patient","Mutation Type","Severity of telomere shortening","Age_Group","Antiinflmatory Drug","DLCO (%) Change","Significant DLCO (%) Change","FVC (%) Change","Significant FVC (%) Change","FVC (L) Change"],"feature_types":["c","c","c","int","int","int","c","float","c","float","int","float","float","float","float","float","float","float","float","float","float","float","float","float","float","float","float","float","int","int","int","int","int","int","int","float","float","float","float","float","float","float","float","int","int","int","float","int","float","c","int","float","int","float","int","float"],"gradient_booster":{"model":{"gbtree_model_param":{"num_parallel_tree":"1","num_trees":"200"},"iteration_indptr":[0,1,2,3,4,5,6,7,8,9,10,11,12,13,14,15,16,17,18,19,20,21,22,23,24,25,26,27,28,29,30,31,32,33,34,35,36,37,38,39,40,41,42,43,44,45,46,47,48,49,50,51,52,53,54,55,56,57,58,59,60,61,62,63,64,65,66,67,68,69,70,71,72,73,74,75,76,77,78,79,80,81,82,83,84,85,86,87,88,89,90,91,92,93,94,95,96,97,98,99,100,101,102,103,104,105,106,107,108,109,110,111,112,113,114,115,116,117,118,119,120,121,122,123,124,125,126,127,128,129,130,131,132,133,134,135,136,137,138,139,140,141,142,143,144,145,146,147,148,149,150,151,152,153,154,155,156,157,158,159,160,161,162,163,164,165,166,167,168,169,170,171,172,173,174,175,176,177,178,179,180,181,182,183,184,185,186,187,188,189,190,191,192,193,194,195,196,197,198,199,200],"tree_info":[0,0,0,0,0,0,0,0,0,0,0,0,0,0,0,0,0,0,0,0,0,0,0,0,0,0,0,0,0,0,0,0,0,0,0,0,0,0,0,0,0,0,0,0,0,0,0,0,0,0,0,0,0,0,0,0,0,0,0,0,0,0,0,0,0,0,0,0,0,0,0,0,0,0,0,0,0,0,0,0,0,0,0,0,0,0,0,0,0,0,0,0,0,0,0,0,0,0,0,0,0,0,0,0,0,0,0,0,0,0,0,0,0,0,0,0,0,0,0,0,0,0,0,0,0,0,0,0,0,0,0,0,0,0,0,0,0,0,0,0,0,0,0,0,0,0,0,0,0,0,0,0,0,0,0,0,0,0,0,0,0,0,0,0,0,0,0,0,0,0,0,0,0,0,0,0,0,0,0,0,0,0,0,0,0,0,0,0,0,0,0,0,0,0,0,0,0,0,0,0],"trees":[{"base_weights":[-4.6813884E-3,-9.0700257E-1,1.8544399E0,1.6243335E-2,-1.124397E0,2.2776697E-2,-3.090688E-1,4.184374E-1,-1.3204657E0,4.4119763E-3,-9.1918465E-3,-5.8555505E-3,1.17666805E-2,-1.4156748E0,6.033385E-4,-6.6079813E-1,-1.595849E-2,-1.274968E-2,2.7735123E-1,-1.2263122E-4,4.4119763E-3],"categories":[0],"categories_nodes":[6],"categories_segments":[0],"categories_sizes":[1],"default_left":[1,0,0,0,1,0,1,1,1,0,0,0,0,0,0,1,0,0,0,0,0],"id":0,"left_children":[1,3,5,-1,7,-1,9,11,13,-1,-1,-1,-1,15,-1,17,-1,-1,19,-1,-1],"loss_changes":[7.938133E1,1.9356E1,1.4862968E1,0E0,9.605278E0,0E0,1.966708E0,3.8358016E0,3.6077003E0,0E0,0E0,0E0,0E0,2.360012E0,0E0,4.1242757E0,0E0,0E0,1.6724762E-1,0E0,0E0],"parents":[2147483647,0,0,1,1,2,2,4,4,6,6,7,7,8,8,13,13,15,15,18,18],"right_children":[2,4,6,-1,8,-1,10,12,14,-1,-1,-1,-1,16,-1,18,-1,-1,20,-1,-1],"split_conditions":[1E0,-9.6E0,3E0,1.6243335E-2,3.8E1,2.2776697E-2,NaN,1.91E0,1E0,4.4119763E-3,-9.1918465E-3,-5.8555505E-3,1.17666805E-2,7.52E1,6.033385E-4,2E0,-1.595849E-2,-1.274968E-2,2.59E0,-1.2263122E-4,4.4119763E-3],"split_indices":[42,53,42,0,41,0,0,36,35,0,0,0,0,37,0,48,0,0,36,0,0],"split_type":[0,0,0,0,0,0,1,0,0,0,0,0,0,0,0,0,0,0,0,0,0],"sum_hessian":[4.5317867E1,3.0854717E1,1.4463149E1,1.9284198E0,2.8926298E1,1.2052624E1,2.4105248E0,3.1336823E0,2.5792616E1,1.2052624E0,1.2052624E0,1.4463148E0,1.6873673E0,2.4105247E1,1.6873673E0,5.544207E0,1.856104E1,3.1336823E0,2.4105248E0,1.2052624E0,1.2052624E0],"tree_param":{"num_deleted":"0","num_feature":"56","num_nodes":"21","size_leaf_vector":"1"}},{"base_weights":[-4.3077893E-3,-8.9957565E-1,1.8311695E0,1.6104246E-2,-1.1160629E0,2.2478912E-2,-3.0748385E-1,4.1546643E-1,-1.3112812E0,4.4180746E-3,-9.175003E-3,-5.824792E-3,1.16766235E-2,6.56129E-4,-1.4065205E0,-8.090068E-1,-1.5346602E0,-1.174932E-2,4.4318787E-3,-4.594351E-3,-1.580186E-2],"categories":[],"categories_nodes":[],"categories_segments":[],"categories_sizes":[],"default_left":[1,0,0,0,1,0,0,1,0,0,0,0,0,0,0,0,0,0,0,0,0],"id":1,"left_children":[1,3,5,-1,7,-1,9,11,13,-1,-1,-1,-1,-1,15,17,19,-1,-1,-1,-1],"loss_changes":[7.77485E1,1.9076387E1,1.4516357E1,0E0,9.473843E0,0E0,1.9637306E0,3.7846596E0,3.5973816E0,0E0,0E0,0E0,0E0,0E0,6.759796E-1,3.5161853E0,2.2888184E-1,0E0,0E0,0E0,0E0],"parents":[2147483647,0,0,1,1,2,2,4,4,6,6,7,7,8,8,14,14,15,15,16,16],"right_children":[2,4,6,-1,8,-1,10,12,14,-1,-1,-1,-1,-1,16,18,20,-1,-1,-1,-1],"split_conditions":[1E0,-9.6E0,3E0,1.6104246E-2,3.8E1,2.2478912E-2,9.8E1,1.91E0,-2.8E-1,4.4180746E-3,-9.175003E-3,-5.824792E-3,1.16766235E-2,6.56129E-4,7.52E1,6.34E1,1.67E0,-1.174932E-2,4.4318787E-3,-4.594351E-3,-1.580186E-2],"split_indices":[42,53,42,0,41,0,40,36,55,0,0,0,0,0,37,38,36,0,0,0,0],"split_type":[0,0,0,0,0,0,0,0,0,0,0,0,0,0,0,0,0,0,0,0,0],"sum_hessian":[4.531159E1,3.0799026E1,1.4512562E1,1.9342318E0,2.8864794E1,1.2103154E1,2.4094071E0,3.135773E0,2.5729021E1,1.2050154E0,1.2043916E0,1.4447017E0,1.6910713E0,1.6846569E0,2.4044365E1,5.5373354E0,1.8507029E1,4.3328586E0,1.2044768E0,1.2023243E0,1.7304705E1],"tree_param":{"num_deleted":"0","num_feature":"56","num_nodes":"21","size_leaf_vector":"1"}},{"base_weights":[-4.0170583E-3,-8.923579E-1,1.8086069E0,1.5967812E-2,-1.1079501E0,2.2191128E-2,-3.0590916E-1,4.1252646E-1,-1.3023413E0,4.4080107E-3,-9.145958E-3,-5.7942444E-3,1.158779E-2,-1.3972243E0,6.561415E-4,-6.504897E-1,-1.5760517E-2,-1.2624158E-2,2.799611E-1,-1.08074295E-4,4.4376925E-3],"categories":[],"categories_nodes":[],"categories_segments":[],"categories_sizes":[],"default_left":[1,0,0,0,1,0,0,1,1,0,0,0,0,0,0,1,0,0,0,0,0],"id":2,"left_children":[1,3,5,-1,7,-1,9,11,13,-1,-1,-1,-1,15,-1,17,-1,-1,19,-1,-1],"loss_changes":[7.6168335E1,1.8803154E1,1.4183975E1,0E0,9.345821E0,0E0,1.9522601E0,3.7343535E0,3.55262E0,0E0,0E0,0E0,0E0,2.3105202E0,0E0,4.0709114E0,0E0,0E0,1.671617E-1,0E0,0E0],"parents":[2147483647,0,0,1,1,2,2,4,4,6,6,7,7,8,8,13,13,15,15,18,18],"right_children":[2,4,6,-1,8,-1,10,12,14,-1,-1,-1,-1,16,-1,18,-1,-1,20,-1,-1],"split_conditions":[1E0,-9.6E0,3E0,1.5967812E-2,3.8E1,2.2191128E-2,3E0,1.91E0,1E0,4.4080107E-3,-9.145958E-3,-5.7942444E-3,1.158779E-2,7.52E1,6.561415E-4,2E0,-1.5760517E-2,-1.2624158E-2,1E0,-1.08074295E-4,4.4376925E-3],"split_indices":[42,53,42,0,41,0,53,36,35,0,0,0,0,37,0,48,0,0,46,0,0],"split_type":[0,0,0,0,0,0,0,0,0,0,0,0,0,0,0,0,0,0,0,0,0],"sum_hessian":[4.5300533E1,3.0742014E1,1.4558519E1,1.9397669E0,2.8802248E1,1.2150241E1,2.4082785E0,3.1377177E0,2.566453E1,1.2053833E0,1.2028953E0,1.4430751E0,1.6946428E0,2.3979862E1,1.6846678E0,5.5291514E0,1.845071E1,3.120274E0,2.4088774E0,1.2046251E0,1.2042522E0],"tree_param":{"num_deleted":"0","num_feature":"56","num_nodes":"21","size_leaf_vector":"1"}},{"base_weights":[-3.660364E-3,-8.8517654E-1,1.7867222E0,1.5833963E-2,-1.0998868E0,2.1912858E-2,-3.0434716E-1,4.0961707E-1,-1.2934662E0,4.397967E-3,-9.117201E-3,-5.7639065E-3,1.1500156E-2,7.038637E-4,-1.3883681E0,-7.986504E-1,-1.5150728E0,-1.1632843E-2,4.4305385E-3,-4.465621E-3,-1.5607551E-2],"categories":[],"categories_nodes":[],"categories_segments":[],"categories_sizes":[],"default_left":[1,0,0,0,1,0,0,1,0,0,0,0,0,0,0,0,0,0,0,0,0],"id":3,"left_children":[1,3,5,-1,7,-1,9,11,13,-1,-1,-1,-1,-1,15,17,19,-1,-1,-1,-1],"loss_changes":[7.462799E1,1.8533928E1,1.3864979E1,0E0,9.21925E0,0E0,1.9408969E0,3.6848679E0,3.5402985E0,0E0,0E0,0E0,0E0,0E0,6.5166473E-1,3.4680095E0,2.4969482E-1,0E0,0E0,0E0,0E0],"parents":[2147483647,0,0,1,1,2,2,4,4,6,6,7,7,8,8,14,14,15,15,16,16],"right_children":[2,4,6,-1,8,-1,10,12,14,-1,-1,-1,-1,-1,16,18,20,-1,-1,-1,-1],"split_conditions":[1E0,-9.6E0,3E0,1.5833963E-2,3.8E1,2.1912858E-2,-3E-2,1.91E0,-2.8E-1,4.397967E-3,-9.117201E-3,-5.7639065E-3,1.1500156E-2,7.038637E-4,7.52E1,6.34E1,4.42E1,-1.1632843E-2,4.4305385E-3,-4.465621E-3,-1.5607551E-2],"split_indices":[42,53,42,0,41,0,55,36,55,0,0,0,0,0,37,38,38,0,0,0,0],"split_type":[0,0,0,0,0,0,0,0,0,0,0,0,0,0,0,0,0,0,0,0,0],"sum_hessian":[4.5283142E1,3.0682058E1,1.4601084E1,1.9450293E0,2.8737028E1,1.2193964E1,2.4071193E0,3.1395192E0,2.559751E1,1.205753E0,1.2013663E0,1.4414355E0,1.6980836E0,1.6820983E0,2.3915411E1,5.5212526E0,1.839416E1,4.316764E0,1.2044888E0,1.1959618E0,1.7198196E1],"tree_param":{"num_deleted":"0","num_feature":"56","num_nodes":"21","size_leaf_vector":"1"}},{"base_weights":[-3.3842213E-3,-8.7819207E-1,1.7654849E0,1.5702628E-2,-1.0920305E0,2.1643648E-2,-3.0279812E-1,4.067378E-1,-1.2848186E0,4.4038654E-3,-9.10067E-3,-5.7337754E-3,1.1413695E-2,-1.3794265E0,7.0775545E-4,-6.403875E-1,-1.55705325E-2,-1.2502012E-2,2.825003E-1,4.4628545E-3,-9.403435E-5],"categories":[0],"categories_nodes":[6],"categories_segments":[0],"categories_sizes":[1],"default_left":[1,0,0,0,1,0,1,1,1,0,0,0,0,0,0,1,0,0,0,0,0],"id":4,"left_children":[1,3,5,-1,7,-1,9,11,13,-1,-1,-1,-1,15,-1,17,-1,-1,19,-1,-1],"loss_changes":[7.313625E1,1.8270727E1,1.3558598E1,0E0,9.095863E0,0E0,1.9379212E0,3.6361833E0,3.50008E0,0E0,0E0,0E0,0E0,2.26474E0,0E0,4.0189157E0,0E0,0E0,1.670933E-1,0E0,0E0],"parents":[2147483647,0,0,1,1,2,2,4,4,6,6,7,7,8,8,13,13,15,15,18,18],"right_children":[2,4,6,-1,8,-1,10,12,14,-1,-1,-1,-1,16,-1,18,-1,-1,20,-1,-1],"split_conditions":[1E0,-9.6E0,3E0,1.5702628E-2,3.8E1,2.1643648E-2,NaN,1.91E0,1E0,4.4038654E-3,-9.10067E-3,-5.7337754E-3,1.1413695E-2,7.52E1,7.0775545E-4,2E0,-1.55705325E-2,-1.2502012E-2,2E-1,4.4628545E-3,-9.403435E-5],"split_indices":[42,53,42,0,41,0,0,36,35,0,0,0,0,37,0,48,0,0,53,0,0],"split_type":[0,0,0,0,0,0,1,0,0,0,0,0,0,0,0,0,0,0,0,0,0],"sum_hessian":[4.5261383E1,3.062104E1,1.4640342E1,1.9500227E0,2.8671017E1,1.2234412E1,2.4059293E0,3.141179E0,2.5529839E1,1.2054679E0,1.2004614E0,1.4397831E0,1.701396E0,2.3847897E1,1.6819413E0,5.5135055E0,1.8334393E1,3.1063015E0,2.4072037E0,1.2032113E0,1.2039925E0],"tree_param":{"num_deleted":"0","num_feature":"56","num_nodes":"21","size_leaf_vector":"1"}},{"base_weights":[-3.042927E-3,-8.712429E-1,1.744865E0,1.5573738E-2,-1.0842234E0,2.1383071E-2,-3.0125883E-1,4.038881E-1,-1.2762358E0,4.377856E-3,-9.060142E-3,-5.70385E-3,1.1328384E-2,7.504353E-4,-1.3708488E0,-7.8851235E-1,-1.4962415E0,-1.1519183E-2,4.4288547E-3,-1.5420028E-2,-4.3505384E-3],"categories":[],"categories_nodes":[],"categories_segments":[],"categories_sizes":[],"default_left":[1,0,0,0,1,0,0,1,0,0,0,0,0,0,0,0,0,0,0,0,0],"id":5,"left_children":[1,3,5,-1,7,-1,9,11,13,-1,-1,-1,-1,-1,15,17,19,-1,-1,-1,-1],"loss_changes":[7.168103E1,1.8011377E1,1.3264172E1,0E0,8.9739E0,0E0,1.9183533E0,3.5882864E0,3.4856987E0,0E0,0E0,0E0,0E0,0E0,6.2965775E-1,3.4209552E0,2.6519012E-1,0E0,0E0,0E0,0E0],"parents":[2147483647,0,0,1,1,2,2,4,4,6,6,7,7,8,8,14,14,15,15,16,16],"right_children":[2,4,6,-1,8,-1,10,12,14,-1,-1,-1,-1,-1,16,18,20,-1,-1,-1,-1],"split_conditions":[1E0,-9.6E0,3E0,1.5573738E-2,3.8E1,2.1383071E-2,-3E-2,1.91E0,-2.8E-1,4.377856E-3,-9.060142E-3,-5.70385E-3,1.1328384E-2,7.504353E-4,7.52E1,6.34E1,1.3E1,-1.1519183E-2,4.4288547E-3,-1.5420028E-2,-4.3505384E-3],"split_indices":[42,53,42,0,41,0,55,36,55,0,0,0,0,0,37,38,51,0,0,0,0],"split_type":[0,0,0,0,0,0,0,0,0,0,0,0,0,0,0,0,0,0,0,0,0],"sum_hessian":[4.5233463E1,3.055707E1,1.4676392E1,1.9547516E0,2.8602318E1,1.2271663E1,2.4047291E0,3.1427002E0,2.5459618E1,1.2064613E0,1.1982678E0,1.4381187E0,1.7045814E0,1.6795008E0,2.3780117E1,5.50459E0,1.8275526E1,4.300102E0,1.2044878E0,1.7085653E1,1.1898737E0],"tree_param":{"num_deleted":"0","num_feature":"56","num_nodes":"21","size_leaf_vector":"1"}},{"base_weights":[-2.780394E-3,-8.644795E-1,1.724839E0,1.5447232E-2,-1.0766106E0,2.1130726E-2,-2.9973504E-1,4.0106753E-1,-1.2678651E0,4.383714E-3,-9.043996E-3,-5.6741266E-3,1.1244197E-2,-1.3622459E0,7.5821934E-4,-6.304847E-1,-1.5388097E-2,-1.2383109E-2,2.849702E-1,-6.838363E-5,4.474196E-3],"categories":[0],"categories_nodes":[6],"categories_segments":[0],"categories_sizes":[1],"default_left":[1,0,0,0,1,0,1,1,1,0,0,0,0,0,0,1,0,0,0,0,0],"id":6,"left_children":[1,3,5,-1,7,-1,9,11,13,-1,-1,-1,-1,15,-1,17,-1,-1,19,-1,-1],"loss_changes":[7.027079E1,1.7757727E1,1.2980972E1,0E0,8.854912E0,0E0,1.9154592E0,3.5411582E0,3.449894E0,0E0,0E0,0E0,0E0,2.222374E0,0E0,3.9682248E0,0E0,0E0,1.644946E-1,0E0,0E0],"parents":[2147483647,0,0,1,1,2,2,4,4,6,6,7,7,8,8,13,13,15,15,18,18],"right_children":[2,4,6,-1,8,-1,10,12,14,-1,-1,-1,-1,16,-1,18,-1,-1,20,-1,-1],"split_conditions":[1E0,-9.6E0,3E0,1.5447232E-2,3.8E1,2.1130726E-2,NaN,1.91E0,1E0,4.383714E-3,-9.043996E-3,-5.6741266E-3,1.1244197E-2,7.52E1,7.5821934E-4,2E0,-1.5388097E-2,-1.2383109E-2,7.1E1,-6.838363E-5,4.474196E-3],"split_indices":[42,53,42,0,41,0,0,36,35,0,0,0,0,37,0,48,0,0,37,0,0],"split_type":[0,0,0,0,0,0,1,0,0,0,0,0,0,0,0,0,0,0,0,0,0],"sum_hessian":[4.5201557E1,3.0492281E1,1.4709275E1,1.9592198E0,2.853306E1,1.2305796E1,2.4034793E0,3.1440842E0,2.5388977E1,1.2061566E0,1.1973228E0,1.4364426E0,1.7076416E0,2.3709785E1,1.6791906E0,5.4973025E0,1.8212482E1,3.0917974E0,2.4055052E0,1.2028055E0,1.2026997E0],"tree_param":{"num_deleted":"0","num_feature":"56","num_nodes":"21","size_leaf_vector":"1"}},{"base_weights":[-2.4532557E-3,-8.5774976E-1,1.7053779E0,1.532304E-2,-1.0690457E0,2.0886237E-2,-2.9822102E-1,3.982757E-1,-1.2595584E0,4.3736617E-3,-9.015908E-3,-5.644605E-3,1.1161116E-2,8.0005935E-4,-1.3539617E0,-7.787316E-1,-1.4781234E0,-1.1408248E-2,4.421444E-3,-4.2593116E-3,-1.5238027E-2],"categories":[],"categories_nodes":[],"categories_segments":[],"categories_sizes":[],"default_left":[1,0,0,0,1,0,0,1,0,0,0,0,0,0,0,0,0,0,0,0,0],"id":7,"left_children":[1,3,5,-1,7,-1,9,11,13,-1,-1,-1,-1,-1,15,17,19,-1,-1,-1,-1],"loss_changes":[6.889413E1,1.7507761E1,1.2708477E1,0E0,8.737312E0,0E0,1.9043363E0,3.4947853E0,3.4361954E0,0E0,0E0,0E0,0E0,0E0,6.086998E-1,3.3723774E0,2.7145386E-1,0E0,0E0,0E0,0E0],"parents":[2147483647,0,0,1,1,2,2,4,4,6,6,7,7,8,8,14,14,15,15,16,16],"right_children":[2,4,6,-1,8,-1,10,12,14,-1,-1,-1,-1,-1,16,18,20,-1,-1,-1,-1],"split_conditions":[1E0,-9.6E0,3E0,1.532304E-2,3.8E1,2.0886237E-2,3E0,1.91E0,-2.8E-1,4.3736617E-3,-9.015908E-3,-5.644605E-3,1.1161116E-2,8.0005935E-4,7.52E1,6.34E1,4.42E1,-1.1408248E-2,4.421444E-3,-4.2593116E-3,-1.5238027E-2],"split_indices":[42,53,42,0,41,0,53,36,55,0,0,0,0,0,37,38,38,0,0,0,0],"split_type":[0,0,0,0,0,0,0,0,0,0,0,0,0,0,0,0,0,0,0,0,0],"sum_hessian":[4.516365E1,3.0424538E1,1.4739113E1,1.9634314E0,2.8461105E1,1.2336893E1,2.40222E0,3.1453333E0,2.5315773E1,1.2064843E0,1.1957356E0,1.4347546E0,1.7105787E0,1.6766691E0,2.3639103E1,5.487575E0,1.8151527E1,4.282901E0,1.2046744E0,1.1848015E0,1.6966726E1],"tree_param":{"num_deleted":"0","num_feature":"56","num_nodes":"21","size_leaf_vector":"1"}},{"base_weights":[-2.203422E-3,-8.5119677E-1,1.6864597E0,1.52011085E-2,-1.0616647E0,2.0649247E-2,-2.9671925E-1,3.9551225E-1,-1.2514514E0,4.3636076E-3,-8.988077E-3,-5.61528E-3,1.1079115E-2,-1.3456508E0,8.0757425E-4,-6.207746E-1,-1.5212805E-2,-1.2267313E-2,2.873737E-1,4.500712E-3,-5.7668563E-5],"categories":[0],"categories_nodes":[6],"categories_segments":[0],"categories_sizes":[1],"default_left":[1,0,0,0,1,0,1,1,1,0,0,0,0,0,0,1,0,0,0,0,0],"id":8,"left_children":[1,3,5,-1,7,-1,9,11,13,-1,-1,-1,-1,15,-1,17,-1,-1,19,-1,-1],"loss_changes":[6.755916E1,1.7263222E1,1.2446064E1,0E0,8.622517E0,0E0,1.8933042E0,3.4491513E0,3.4019165E0,0E0,0E0,0E0,0E0,2.1831093E0,0E0,3.9187756E0,0E0,0E0,1.6493252E-1,0E0,0E0],"parents":[2147483647,0,0,1,1,2,2,4,4,6,6,7,7,8,8,13,13,15,15,18,18],"right_children":[2,4,6,-1,8,-1,10,12,14,-1,-1,-1,-1,16,-1,18,-1,-1,20,-1,-1],"split_conditions":[1E0,-9.6E0,3E0,1.52011085E-2,3.8E1,2.0649247E-2,NaN,1.91E0,1E0,4.3636076E-3,-8.988077E-3,-5.61528E-3,1.1079115E-2,7.52E1,8.0757425E-4,2E0,-1.5212805E-2,-1.2267313E-2,7.4E1,4.500712E-3,-5.7668563E-5],"split_indices":[42,53,42,0,41,0,0,36,35,0,0,0,0,37,0,48,0,0,40,0,0],"split_type":[0,0,0,0,0,0,1,0,0,0,0,0,0,0,0,0,0,0,0,0,0],"sum_hessian":[4.5122147E1,3.0356186E1,1.4765961E1,1.9673904E0,2.8388796E1,1.2365029E1,2.4009314E0,3.14645E0,2.5242346E1,1.2068145E0,1.1941168E0,1.4330556E0,1.7133944E0,2.3565926E1,1.6764185E0,5.4805655E0,1.8085361E1,3.0767903E0,2.403775E0,1.2015525E0,1.2022226E0],"tree_param":{"num_deleted":"0","num_feature":"56","num_nodes":"21","size_leaf_vector":"1"}},{"base_weights":[-1.8893819E-3,-8.446746E-1,1.6680614E0,1.5081368E-2,-1.0543288E0,2.041942E-2,-2.952298E-1,3.9277658E-1,-1.2434053E0,4.369378E-3,-8.972306E-3,-5.5861515E-3,1.0998169E-2,8.444108E-4,-1.3376088E0,-7.690086E-1,-1.4606811E0,-1.1299917E-2,4.4191293E-3,-1.5064925E-2,-4.148452E-3],"categories":[],"categories_nodes":[],"categories_segments":[],"categories_sizes":[],"default_left":[1,0,0,0,1,0,0,1,0,0,0,0,0,0,0,0,0,0,0,0,0],"id":9,"left_children":[1,3,5,-1,7,-1,9,11,13,-1,-1,-1,-1,-1,15,17,19,-1,-1,-1,-1],"loss_changes":[6.62551E1,1.7022198E1,1.2193214E1,0E0,8.509041E0,0E0,1.8904666E0,3.4042401E0,3.3860435E0,0E0,0E0,0E0,0E0,0E0,5.9067154E-1,3.3274693E0,2.8643036E-1,0E0,0E0,0E0,0E0],"parents":[2147483647,0,0,1,1,2,2,4,4,6,6,7,7,8,8,14,14,15,15,16,16],"right_children":[2,4,6,-1,8,-1,10,12,14,-1,-1,-1,-1,-1,16,18,20,-1,-1,-1,-1],"split_conditions":[1E0,-9.6E0,3E0,1.5081368E-2,3.8E1,2.041942E-2,9.8E1,1.91E0,-2.8E-1,4.369378E-3,-8.972306E-3,-5.5861515E-3,1.0998169E-2,8.444108E-4,7.52E1,6.34E1,1.3E1,-1.1299917E-2,4.4191293E-3,-1.5064925E-2,-4.148452E-3],"split_indices":[42,53,42,0,41,0,40,36,55,0,0,0,0,0,37,38,51,0,0,0,0],"split_type":[0,0,0,0,0,0,0,0,0,0,0,0,0,0,0,0,0,0,0,0,0],"sum_hessian":[4.507481E1,3.0284914E1,1.4789898E1,1.9711006E0,2.8313812E1,1.2390284E1,2.3996143E0,3.1474364E0,2.5166376E1,1.2064688E0,1.1931455E0,1.4313458E0,1.7160906E0,1.6740077E0,2.3492369E1,5.4698424E0,1.8022526E1,4.2651954E0,1.2046472E0,1.6844221E1,1.1783047E0],"tree_param":{"num_deleted":"0","num_feature":"56","num_nodes":"21","size_leaf_vector":"1"}},{"base_weights":[-1.6505513E-3,-8.383194E-1,1.6501603E0,1.4963772E-2,-1.0471658E0,2.0196456E-2,-2.9374975E-1,3.9006847E-1,-1.2355456E0,4.343562E-3,-8.932903E-3,-5.5572162E-3,1.0918264E-2,-1.3296067E0,8.558449E-4,-6.112502E-1,-1.5044232E-2,-1.2154498E-2,2.897112E-1,-3.5371046E-5,4.513466E-3],"categories":[],"categories_nodes":[],"categories_segments":[],"categories_sizes":[],"default_left":[1,0,0,0,1,0,0,1,1,0,0,0,0,0,0,1,0,0,0,0,0],"id":10,"left_children":[1,3,5,-1,7,-1,9,11,13,-1,-1,-1,-1,15,-1,17,-1,-1,19,-1,-1],"loss_changes":[6.498975E1,1.678631E1,1.1949474E1,0E0,8.398201E0,0E0,1.8714578E0,3.3600397E0,3.3559685E0,0E0,0E0,0E0,0E0,2.1466904E0,0E0,3.870513E0,0E0,0E0,1.6285005E-1,0E0,0E0],"parents":[2147483647,0,0,1,1,2,2,4,4,6,6,7,7,8,8,13,13,15,15,18,18],"right_children":[2,4,6,-1,8,-1,10,12,14,-1,-1,-1,-1,16,-1,18,-1,-1,20,-1,-1],"split_conditions":[1E0,-9.6E0,3E0,1.4963772E-2,3.8E1,2.0196456E-2,9.8E1,1.91E0,1E0,4.343562E-3,-8.932903E-3,-5.5572162E-3,1.0918264E-2,7.52E1,8.558449E-4,2E0,-1.5044232E-2,-1.2154498E-2,1E0,-3.5371046E-5,4.513466E-3],"split_indices":[42,53,42,0,41,0,40,36,35,0,0,0,0,37,0,48,0,0,46,0,0],"split_type":[0,0,0,0,0,0,0,0,0,0,0,0,0,0,0,0,0,0,0,0,0],"sum_hessian":[4.502426E1,3.0213247E1,1.4811013E1,1.9745666E0,2.823868E1,1.2412725E1,2.398288E0,3.1482944E0,2.5090387E1,1.2074414E0,1.1908464E0,1.4296257E0,1.7186687E0,2.3416758E1,1.6736282E0,5.463335E0,1.7953423E1,3.061311E0,2.402024E0,1.201077E0,1.2009469E0],"tree_param":{"num_deleted":"0","num_feature":"56","num_nodes":"21","size_leaf_vector":"1"}},{"base_weights":[-1.348418E-3,-8.319937E-1,1.632739E0,1.4848256E-2,-1.0400469E0,1.9980043E-2,-2.922844E-1,3.8738737E-1,-1.2277466E0,4.3492727E-3,-8.917482E-3,-5.528474E-3,1.0839377E-2,8.8771543E-4,-1.3217909E0,-7.594824E-1,-1.4438738E0,-1.11941E-2,4.416493E-3,-4.040213E-3,-1.489834E-2],"categories":[0],"categories_nodes":[6],"categories_segments":[0],"categories_sizes":[1],"default_left":[1,0,0,0,1,0,1,1,0,0,0,0,0,0,0,0,0,0,0,0,0],"id":11,"left_children":[1,3,5,-1,7,-1,9,11,13,-1,-1,-1,-1,-1,15,17,19,-1,-1,-1,-1],"loss_changes":[6.3752975E1,1.6553799E1,1.1714294E1,0E0,8.2886505E0,0E0,1.8686867E0,3.316536E0,3.3378944E0,0E0,0E0,0E0,0E0,0E0,5.743332E-1,3.2835553E0,3.0081558E-1,0E0,0E0,0E0,0E0],"parents":[2147483647,0,0,1,1,2,2,4,4,6,6,7,7,8,8,14,14,15,15,16,16],"right_children":[2,4,6,-1,8,-1,10,12,14,-1,-1,-1,-1,-1,16,18,20,-1,-1,-1,-1],"split_conditions":[1E0,-9.6E0,3E0,1.4848256E-2,3.8E1,1.9980043E-2,NaN,1.91E0,-2.8E-1,4.3492727E-3,-8.917482E-3,-5.528474E-3,1.0839377E-2,8.8771543E-4,7.52E1,6.34E1,1.67E0,-1.11941E-2,4.416493E-3,-4.040213E-3,-1.489834E-2],"split_indices":[42,53,42,0,41,0,0,36,55,0,0,0,0,0,37,38,36,0,0,0,0],"split_type":[0,0,0,0,0,0,1,0,0,0,0,0,0,0,0,0,0,0,0,0,0],"sum_hessian":[4.4968014E1,3.0138666E1,1.4829346E1,1.9777921E0,2.8160873E1,1.2432431E1,2.3969147E0,3.1490264E0,2.5011848E1,1.2070775E0,1.1898372E0,1.4278954E0,1.7211311E0,1.6713165E0,2.334053E1,5.451623E0,1.7888908E1,4.247013E0,1.2046101E0,1.1716214E0,1.6717287E1],"tree_param":{"num_deleted":"0","num_feature":"56","num_nodes":"21","size_leaf_vector":"1"}},{"base_weights":[-1.1199078E-3,-8.25826E-1,1.6157752E0,1.4734772E-2,-1.0330904E0,1.9769909E-2,-2.9082844E-1,3.847329E-1,-1.220121E0,4.3392507E-3,-8.890309E-3,-5.4999217E-3,1.0761483E-2,-1.3140842E0,9.030615E-4,-6.01906E-1,-1.4882007E-2,-1.2044546E-2,2.919846E-1,4.53103E-3,-1.834683E-5],"categories":[],"categories_nodes":[],"categories_segments":[],"categories_sizes":[],"default_left":[1,0,0,0,1,0,0,1,1,0,0,0,0,0,0,1,0,0,0,0,0],"id":12,"left_children":[1,3,5,-1,7,-1,9,11,13,-1,-1,-1,-1,15,-1,17,-1,-1,19,-1,-1],"loss_changes":[6.2552197E1,1.6326155E1,1.1487339E1,0E0,8.1815815E0,0E0,1.8579038E0,3.2737126E0,3.3119125E0,0E0,0E0,0E0,0E0,2.1128616E0,0E0,3.823382E0,0E0,0E0,1.6179797E-1,0E0,0E0],"parents":[2147483647,0,0,1,1,2,2,4,4,6,6,7,7,8,8,13,13,15,15,18,18],"right_children":[2,4,6,-1,8,-1,10,12,14,-1,-1,-1,-1,16,-1,18,-1,-1,20,-1,-1],"split_conditions":[1E0,-9.6E0,3E0,1.4734772E-2,3.8E1,1.9769909E-2,3E0,1.91E0,1E0,4.3392507E-3,-8.890309E-3,-5.4999217E-3,1.0761483E-2,7.52E1,9.030615E-4,2E0,-1.4882007E-2,-1.2044546E-2,2E-1,4.53103E-3,-1.834683E-5],"split_indices":[42,53,42,0,41,0,53,36,35,0,0,0,0,37,0,48,0,0,53,0,0],"split_type":[0,0,0,0,0,0,0,0,0,0,0,0,0,0,0,0,0,0,0,0,0],"sum_hessian":[4.490891E1,3.0063904E1,1.4845004E1,1.9807808E0,2.8083122E1,1.2449471E1,2.3955328E0,3.1496344E0,2.4933489E1,1.2073653E0,1.1881676E0,1.4261552E0,1.723479E0,2.3262665E1,1.6708225E0,5.4456353E0,1.781703E1,3.045388E0,2.400247E0,1.2000659E0,1.2001814E0],"tree_param":{"num_deleted":"0","num_feature":"56","num_nodes":"21","size_leaf_vector":"1"}},{"base_weights":[-8.287531E-4,-8.1968653E-1,1.5992521E0,1.4623265E-2,-1.0261772E0,1.9565785E-2,-2.8938422E-1,3.821048E-1,-1.2125556E0,4.32925E-3,-8.863398E-3,-5.4715564E-3,1.06845675E-2,9.3000097E-4,-1.3064793E0,-7.5014573E-1,-1.4276665E0,-1.1090691E-2,4.413551E-3,-3.943768E-3,-1.4737189E-2],"categories":[],"categories_nodes":[],"categories_segments":[],"categories_sizes":[],"default_left":[1,0,0,0,1,0,0,1,0,0,0,0,0,0,0,0,0,0,0,0,0],"id":13,"left_children":[1,3,5,-1,7,-1,9,11,13,-1,-1,-1,-1,-1,15,17,19,-1,-1,-1,-1],"loss_changes":[6.1377823E1,1.6101763E1,1.1268154E1,0E0,8.07576E0,0E0,1.8472191E0,3.2315578E0,3.2916107E0,0E0,0E0,0E0,0E0,0E0,5.59536E-1,3.2405913E0,3.1107712E-1,0E0,0E0,0E0,0E0],"parents":[2147483647,0,0,1,1,2,2,4,4,6,6,7,7,8,8,14,14,15,15,16,16],"right_children":[2,4,6,-1,8,-1,10,12,14,-1,-1,-1,-1,-1,16,18,20,-1,-1,-1,-1],"split_conditions":[1E0,-9.6E0,3E0,1.4623265E-2,3.8E1,1.9565785E-2,-3E-2,1.91E0,-2.8E-1,4.32925E-3,-8.863398E-3,-5.4715564E-3,1.06845675E-2,9.3000097E-4,7.52E1,6.34E1,4.42E1,-1.1090691E-2,4.413551E-3,-3.943768E-3,-1.4737189E-2],"split_indices":[42,53,42,0,41,0,55,36,55,0,0,0,0,0,37,38,38,0,0,0,0],"split_type":[0,0,0,0,0,0,0,0,0,0,0,0,0,0,0,0,0,0,0,0,0],"sum_hessian":[4.484427E1,2.998623E1,1.4858039E1,1.9835374E0,2.8002693E1,1.2463915E1,2.3941238E0,3.1501205E0,2.4852573E1,1.2076545E0,1.1864693E0,1.4244058E0,1.7257147E0,1.6685984E0,2.3183975E1,5.432947E0,1.7751028E1,4.228387E0,1.2045605E0,1.1654366E0,1.658559E1],"tree_param":{"num_deleted":"0","num_feature":"56","num_nodes":"21","size_leaf_vector":"1"}},{"base_weights":[-6.0981E-4,-8.136969E-1,1.5831527E0,1.4513685E-2,-1.0194169E0,1.9367427E-2,-2.8795177E-1,3.7950242E-1,-1.2051524E0,4.3348335E-3,-8.848296E-3,-5.4433784E-3,1.060861E-2,-1.2990563E0,9.4925996E-4,-5.927358E-1,-1.47258E-2,-1.1937347E-2,2.941953E-1,2.9302334E-6,4.542773E-3],"categories":[0],"categories_nodes":[6],"categories_segments":[0],"categories_sizes":[1],"default_left":[1,0,0,0,1,0,1,1,1,0,0,0,0,0,0,1,0,0,0,0,0],"id":14,"left_children":[1,3,5,-1,7,-1,9,11,13,-1,-1,-1,-1,15,-1,17,-1,-1,19,-1,-1],"loss_changes":[6.0237053E1,1.588199E1,1.1056362E1,0E0,7.9722652E0,0E0,1.8444796E0,3.1900592E0,3.2696266E0,0E0,0E0,0E0,0E0,2.0814133E0,0E0,3.7773328E0,0E0,0E0,1.5975869E-1,0E0,0E0],"parents":[2147483647,0,0,1,1,2,2,4,4,6,6,7,7,8,8,13,13,15,15,18,18],"right_children":[2,4,6,-1,8,-1,10,12,14,-1,-1,-1,-1,16,-1,18,-1,-1,20,-1,-1],"split_conditions":[1E0,-9.6E0,3E0,1.4513685E-2,3.8E1,1.9367427E-2,NaN,1.91E0,1E0,4.3348335E-3,-8.848296E-3,-5.4433784E-3,1.060861E-2,7.52E1,9.4925996E-4,2E0,-1.47258E-2,-1.1937347E-2,1E0,2.9302334E-6,4.542773E-3],"split_indices":[42,53,42,0,41,0,0,36,35,0,0,0,0,37,0,48,0,0,46,0,0],"split_type":[0,0,0,0,0,0,1,0,0,0,0,0,0,0,0,0,0,0,0,0,0],"sum_hessian":[4.4777092E1,2.990857E1,1.4868522E1,1.9860654E0,2.7922504E1,1.2475834E1,2.3926878E0,3.1504865E0,2.4772017E1,1.2072526E0,1.1854353E0,1.4226471E0,1.7278395E0,2.3104013E1,1.6680032E0,5.427497E0,1.7676517E1,3.0290487E0,2.3984482E0,1.1989919E0,1.1994563E0],"tree_param":{"num_deleted":"0","num_feature":"56","num_nodes":"21","size_leaf_vector":"1"}},{"base_weights":[-3.287267E-4,-8.0773425E-1,1.5674586E0,1.44059835E-2,-1.0126991E0,1.9174593E-2,-2.8652832E-1,3.769255E-1,-1.1978087E0,4.3092608E-3,-8.809998E-3,-5.4153833E-3,1.0533588E-2,9.713009E-4,-1.2916483E0,-7.4099267E-1,-1.4120278E0,-1.098961E-2,4.410308E-3,-1.4581925E-2,-3.84923E-3],"categories":[0],"categories_nodes":[6],"categories_segments":[0],"categories_sizes":[1],"default_left":[1,0,0,0,1,0,1,1,0,0,0,0,0,0,0,0,0,0,0,0,0],"id":15,"left_children":[1,3,5,-1,7,-1,9,11,13,-1,-1,-1,-1,-1,15,17,19,-1,-1,-1,-1],"loss_changes":[5.912074E1,1.56653385E1,1.0851639E1,0E0,7.8699913E0,0E0,1.8260319E0,3.1492014E0,3.2470818E0,0E0,0E0,0E0,0E0,0E0,5.4613113E-1,3.1985457E0,3.2107925E-1,0E0,0E0,0E0,0E0],"parents":[2147483647,0,0,1,1,2,2,4,4,6,6,7,7,8,8,14,14,15,15,16,16],"right_children":[2,4,6,-1,8,-1,10,12,14,-1,-1,-1,-1,-1,16,18,20,-1,-1,-1,-1],"split_conditions":[1E0,-9.6E0,3E0,1.44059835E-2,3.8E1,1.9174593E-2,NaN,1.91E0,-2.8E-1,4.3092608E-3,-8.809998E-3,-5.4153833E-3,1.0533588E-2,9.713009E-4,7.52E1,6.34E1,1.3E1,-1.098961E-2,4.410308E-3,-1.4581925E-2,-3.84923E-3],"split_indices":[42,53,42,0,41,0,0,36,55,0,0,0,0,0,37,38,51,0,0,0,0],"split_type":[0,0,0,0,0,0,1,0,0,0,0,0,0,0,0,0,0,0,0,0,0],"sum_hessian":[4.4704548E1,2.982801E1,1.4876537E1,1.9883689E0,2.7839642E1,1.2485293E1,2.391244E0,3.1507351E0,2.4688906E1,1.2082021E0,1.1830417E0,1.4208797E0,1.7298553E0,1.6658556E0,2.302305E1,5.413843E0,1.7609207E1,4.209342E0,1.204501E0,1.6450123E1,1.1590853E0],"tree_param":{"num_deleted":"0","num_feature":"56","num_nodes":"21","size_leaf_vector":"1"}},{"base_weights":[-1.18679556E-4,-8.019136E-1,1.5521575E0,1.4300113E-2,-1.0061251E0,1.8987061E-2,-2.8511903E-1,3.743738E-1,-1.1906164E0,4.314807E-3,-8.795243E-3,-5.3875726E-3,1.0459491E-2,-1.2844975E0,9.944662E-4,-5.8373433E-1,-1.457529E-2,-1.1832791E-2,2.963448E-1,4.559325E-3,1.902578E-5],"categories":[],"categories_nodes":[],"categories_segments":[],"categories_sizes":[],"default_left":[1,0,0,0,1,0,0,1,1,0,0,0,0,0,0,1,0,0,0,0,0],"id":16,"left_children":[1,3,5,-1,7,-1,9,11,13,-1,-1,-1,-1,15,-1,17,-1,-1,19,-1,-1],"loss_changes":[5.8035835E1,1.5453077E1,1.0653591E1,0E0,7.769907E0,0E0,1.8233663E0,3.108975E0,3.2289848E0,0E0,0E0,0E0,0E0,2.0521507E0,0E0,3.7323189E0,0E0,0E0,1.5873784E-1,0E0,0E0],"parents":[2147483647,0,0,1,1,2,2,4,4,6,6,7,7,8,8,13,13,15,15,18,18],"right_children":[2,4,6,-1,8,-1,10,12,14,-1,-1,-1,-1,16,-1,18,-1,-1,20,-1,-1],"split_conditions":[1E0,-9.6E0,3E0,1.4300113E-2,3.8E1,1.8987061E-2,-3E-2,1.91E0,1E0,4.314807E-3,-8.795243E-3,-5.3875726E-3,1.0459491E-2,7.52E1,9.944662E-4,2E0,-1.457529E-2,-1.1832791E-2,2E-1,4.559325E-3,1.902578E-5],"split_indices":[42,53,42,0,41,0,55,36,35,0,0,0,0,37,0,48,0,0,53,0,0],"split_type":[0,0,0,0,0,0,0,0,0,0,0,0,0,0,0,0,0,0,0,0,0],"sum_hessian":[4.462977E1,2.974765E1,1.4882116E1,1.9904517E0,2.7757198E1,1.249236E1,2.3897557E0,3.1508675E0,2.460633E1,1.2077818E0,1.1819738E0,1.4191037E0,1.7317638E0,2.2941158E1,1.6651729E0,5.408946E0,1.7532213E1,3.0123198E0,2.396626E0,1.19855E0,1.198076E0],"tree_param":{"num_deleted":"0","num_feature":"56","num_nodes":"21","size_leaf_vector":"1"}},{"base_weights":[1.5319453E-4,-7.9611844E-1,1.5372316E0,1.4196026E-2,-9.995924E-1,1.8804623E-2,-2.8371856E-1,3.718467E-1,-1.1834825E0,4.3047993E-3,-8.768922E-3,-5.35994E-3,1.0386292E-2,1.01164E-3,-1.2772723E0,-7.401276E-1,-1.4007164E0,-1.0979244E-2,4.8425114E-3,-3.7049942E-3,-1.4481834E-2],"categories":[],"categories_nodes":[],"categories_segments":[],"categories_sizes":[],"default_left":[1,0,0,0,1,0,0,1,0,0,0,0,0,0,0,0,0,0,0,0,0],"id":17,"left_children":[1,3,5,-1,7,-1,9,11,13,-1,-1,-1,-1,-1,15,17,19,-1,-1,-1,-1],"loss_changes":[5.6973633E1,1.5243813E1,1.0461971E1,0E0,7.6710052E0,0E0,1.8128995E0,3.069365E0,3.2041855E0,0E0,0E0,0E0,0E0,0E0,5.4525757E-1,3.4136896E0,3.5733414E-1,0E0,0E0,0E0,0E0],"parents":[2147483647,0,0,1,1,2,2,4,4,6,6,7,7,8,8,14,14,15,15,16,16],"right_children":[2,4,6,-1,8,-1,10,12,14,-1,-1,-1,-1,-1,16,18,20,-1,-1,-1,-1],"split_conditions":[1E0,-9.6E0,3E0,1.4196026E-2,3.8E1,1.8804623E-2,3E0,1.91E0,-2.8E-1,4.3047993E-3,-8.768922E-3,-5.35994E-3,1.0386292E-2,1.01164E-3,7.9E1,6.3E1,1.92E0,-1.0979244E-2,4.8425114E-3,-3.7049942E-3,-1.4481834E-2],"split_indices":[42,53,42,0,41,0,53,36,55,0,0,0,0,0,40,38,39,0,0,0,0],"split_type":[0,0,0,0,0,0,0,0,0,0,0,0,0,0,0,0,0,0,0,0,0],"sum_hessian":[4.4549767E1,2.9664406E1,1.4885361E1,1.992318E0,2.7672089E1,1.2497101E1,2.3882596E0,3.1508865E0,2.4521202E1,1.2080313E0,1.1802284E0,1.4173195E0,1.733567E0,1.6630905E0,2.285811E1,5.5787673E0,1.7279345E1,4.3970966E0,1.1816707E0,1.1489134E0,1.613043E1],"tree_param":{"num_deleted":"0","num_feature":"56","num_nodes":"21","size_leaf_vector":"1"}},{"base_weights":[3.628873E-4,-7.904262E-1,1.522668E0,1.4093678E-2,-9.931553E-1,1.8627072E-2,-2.823294E-1,3.6934415E-1,-1.1764393E0,4.294816E-3,-8.742853E-3,-5.332487E-3,1.031398E-2,-1.2703514E0,1.0420568E-3,-5.7345885E-1,-1.4433482E-2,-1.1712638E-2,2.9863688E-1,3.8554826E-5,4.574354E-3],"categories":[0],"categories_nodes":[6],"categories_segments":[0],"categories_sizes":[1],"default_left":[1,0,0,0,1,0,1,1,1,0,0,0,0,0,0,1,0,0,0,0,0],"id":18,"left_children":[1,3,5,-1,7,-1,9,11,13,-1,-1,-1,-1,15,-1,17,-1,-1,19,-1,-1],"loss_changes":[5.5939735E1,1.503829E1,1.0276436E1,0E0,7.573723E0,0E0,1.8025279E0,3.0303614E0,3.1917038E0,0E0,0E0,0E0,0E0,2.0386696E0,0E0,3.6798663E0,0E0,0E0,1.5714115E-1,0E0,0E0],"parents":[2147483647,0,0,1,1,2,2,4,4,6,6,7,7,8,8,13,13,15,15,18,18],"right_children":[2,4,6,-1,8,-1,10,12,14,-1,-1,-1,-1,16,-1,18,-1,-1,20,-1,-1],"split_conditions":[1E0,-9.6E0,3E0,1.4093678E-2,3.8E1,1.8627072E-2,NaN,1.91E0,1E0,4.294816E-3,-8.742853E-3,-5.332487E-3,1.031398E-2,7.52E1,1.0420568E-3,2E0,-1.4433482E-2,-1.1712638E-2,7.1E1,3.8554826E-5,4.574354E-3],"split_indices":[42,53,42,0,41,0,0,36,35,0,0,0,0,37,0,48,0,0,37,0,0],"split_type":[0,0,0,0,0,0,1,0,0,0,0,0,0,0,0,0,0,0,0,0,0],"sum_hessian":[4.446865E1,2.9582338E1,1.4886313E1,1.9939716E0,2.7588367E1,1.2499576E1,2.3867383E0,3.1507938E0,2.4437572E1,1.208282E0,1.1784563E0,1.4155276E0,1.7352662E0,2.2775446E1,1.6621279E0,5.387508E0,1.7387938E1,2.9928925E0,2.3946157E0,1.1969562E0,1.1976594E0],"tree_param":{"num_deleted":"0","num_feature":"56","num_nodes":"21","size_leaf_vector":"1"}},{"base_weights":[6.265846E-4,-7.847894E-1,1.5084538E0,1.39930295E-2,-9.8679763E-1,1.8454224E-2,-2.809516E-1,3.6686563E-1,-1.1695036E0,4.3002376E-3,-8.728397E-3,-5.305211E-3,1.02425385E-2,1.0552676E-3,-1.2633064E0,-6.1557233E-1,-1.3529764E0,-1.0956118E-2,3.0003553E-3,-6.1110955E-1,-1.4358582E-2,5.32707E-4,-9.3302E-3],"categories":[],"categories_nodes":[],"categories_segments":[],"categories_sizes":[],"default_left":[1,0,0,0,1,0,0,1,0,0,0,0,0,0,0,0,0,0,0,0,0,0,0],"id":19,"left_children":[1,3,5,-1,7,-1,9,11,13,-1,-1,-1,-1,-1,15,17,19,-1,-1,21,-1,-1,-1],"loss_changes":[5.4928013E1,1.4836077E1,1.0096733E1,0E0,7.478031E0,0E0,1.7998912E0,2.9919522E0,3.1652718E0,0E0,0E0,0E0,0E0,0E0,5.4315186E-1,2.401361E0,3.507309E-1,0E0,0E0,8.513571E-1,0E0,0E0,0E0],"parents":[2147483647,0,0,1,1,2,2,4,4,6,6,7,7,8,8,14,14,15,15,16,16,19,19],"right_children":[2,4,6,-1,8,-1,10,12,14,-1,-1,-1,-1,-1,16,18,20,-1,-1,22,-1,-1,-1],"split_conditions":[1E0,-9.6E0,3E0,1.39930295E-2,3.8E1,1.8454224E-2,9.8E1,1.91E0,-2.8E-1,4.3002376E-3,-8.728397E-3,-5.305211E-3,1.02425385E-2,1.0552676E-3,7.5E1,2.5E0,1.97E0,-1.0956118E-2,3.0003553E-3,1E0,-1.4358582E-2,5.32707E-4,-9.3302E-3],"split_indices":[42,53,42,0,41,0,40,36,55,0,0,0,0,0,40,36,36,0,0,7,0,0,0],"split_type":[0,0,0,0,0,0,0,0,0,0,0,0,0,0,0,0,0,0,0,0,0,0,0],"sum_hessian":[4.4381645E1,2.9496607E1,1.488504E1,1.9954163E0,2.750119E1,1.2499848E1,2.385192E0,3.1505916E0,2.43506E1,1.2078251E0,1.1773667E0,1.413728E0,1.7368635E0,1.6601205E0,2.269048E1,3.7156012E0,1.8974876E1,2.3086276E0,1.4069736E0,2.7483094E0,1.6226568E1,1.1693807E0,1.5789287E0],"tree_param":{"num_deleted":"0","num_feature":"56","num_nodes":"23","size_leaf_vector":"1"}},{"base_weights":[6.720184E-4,-7.7943623E-1,1.494574E0,1.3894033E-2,-9.8071533E-1,1.828589E-2,-2.795822E-1,3.644107E-1,-1.1628468E0,4.2749117E-3,-8.691147E-3,-5.278109E-3,1.0171945E-2,-1.2567977E0,1.0848906E-3,-5.646616E-1,-1.4295532E-2,-1.1611402E-2,3.007054E-1,5.6056473E-5,4.5877234E-3],"categories":[],"categories_nodes":[],"categories_segments":[],"categories_sizes":[],"default_left":[1,0,0,0,1,0,0,1,1,0,0,0,0,0,0,1,0,0,0,0,0],"id":20,"left_children":[1,3,5,-1,7,-1,9,11,13,-1,-1,-1,-1,15,-1,17,-1,-1,19,-1,-1],"loss_changes":[5.395274E1,1.4639629E1,9.922604E0,0E0,7.385723E0,0E0,1.7819841E0,2.9541256E0,3.1543312E0,0E0,0E0,0E0,0E0,2.0155869E0,0E0,3.6363368E0,0E0,0E0,1.5568656E-1,0E0,0E0],"parents":[2147483647,0,0,1,1,2,2,4,4,6,6,7,7,8,8,13,13,15,15,18,18],"right_children":[2,4,6,-1,8,-1,10,12,14,-1,-1,-1,-1,16,-1,18,-1,-1,20,-1,-1],"split_conditions":[1E0,-9.6E0,3E0,1.3894033E-2,3.8E1,1.828589E-2,9.8E1,1.91E0,1E0,4.2749117E-3,-8.691147E-3,-5.278109E-3,1.0171945E-2,7.52E1,1.0848906E-3,2E0,-1.4295532E-2,-1.1611402E-2,1E0,5.6056473E-5,4.5877234E-3],"split_indices":[42,53,42,0,41,0,40,36,35,0,0,0,0,37,0,48,0,0,46,0,0],"split_type":[0,0,0,0,0,0,0,0,0,0,0,0,0,0,0,0,0,0,0,0,0],"sum_hessian":[4.4295673E1,2.9414055E1,1.4881619E1,1.996656E0,2.7417398E1,1.2497981E1,2.3836381E0,3.1502812E0,2.4267117E1,1.208751E0,1.1748872E0,1.411921E0,1.7383602E0,2.2607847E1,1.6592693E0,5.368361E0,1.7239487E1,2.9755738E0,2.3927872E0,1.195792E0,1.1969953E0],"tree_param":{"num_deleted":"0","num_feature":"56","num_nodes":"21","size_leaf_vector":"1"}},{"base_weights":[9.287712E-4,-7.73949E-1,1.4810199E0,1.3796654E-2,-9.74523E-1,1.8121904E-2,-2.782265E-1,3.6197913E-1,-1.156098E0,4.2802854E-3,-8.677012E-3,-5.2511794E-3,1.0102187E-2,1.0937635E-3,-1.2499145E0,-7.202142E-1,-1.3726481E0,-1.0772885E-2,4.8707915E-3,-1.4204922E-2,-3.5188878E-3],"categories":[0],"categories_nodes":[6],"categories_segments":[0],"categories_sizes":[1],"default_left":[1,0,0,0,1,0,1,1,0,0,0,0,0,0,0,0,0,0,0,0,0],"id":21,"left_children":[1,3,5,-1,7,-1,9,11,13,-1,-1,-1,-1,-1,15,17,19,-1,-1,-1,-1],"loss_changes":[5.298806E1,1.444412E1,9.753769E0,0E0,7.2930717E0,0E0,1.7794113E0,2.9168706E0,3.1259613E0,0E0,0E0,0E0,0E0,0E0,5.4055786E-1,3.3391635E0,3.7884903E-1,0E0,0E0,0E0,0E0],"parents":[2147483647,0,0,1,1,2,2,4,4,6,6,7,7,8,8,14,14,15,15,16,16],"right_children":[2,4,6,-1,8,-1,10,12,14,-1,-1,-1,-1,-1,16,18,20,-1,-1,-1,-1],"split_conditions":[1E0,-9.6E0,3E0,1.3796654E-2,3.8E1,1.8121904E-2,NaN,1.91E0,-2.8E-1,4.2802854E-3,-8.677012E-3,-5.2511794E-3,1.0102187E-2,1.0937635E-3,7.9E1,6.3E1,1.23E1,-1.0772885E-2,4.8707915E-3,-1.4204922E-2,-3.5188878E-3],"split_indices":[42,53,42,0,41,0,0,36,55,0,0,0,0,0,40,38,51,0,0,0,0],"split_type":[0,0,0,0,0,0,1,0,0,0,0,0,0,0,0,0,0,0,0,0,0],"sum_hessian":[4.4202103E1,2.9326029E1,1.4876075E1,1.9976941E0,2.7328335E1,1.2494032E1,2.3820431E0,3.1498654E0,2.4178469E1,1.208277E0,1.1737661E0,1.4101071E0,1.7397583E0,1.65732E0,2.2521149E1,5.5286045E0,1.6992544E1,4.349778E0,1.1788263E0,1.5857675E1,1.13487E0],"tree_param":{"num_deleted":"0","num_feature":"56","num_nodes":"21","size_leaf_vector":"1"}},{"base_weights":[1.1267179E-3,-7.685504E-1,1.4677768E0,1.3700847E-2,-9.6840966E-1,1.7962102E-2,-2.7687925E-1,3.5957062E-1,-1.1494197E0,4.270339E-3,-8.651531E-3,-5.2244226E-3,1.0033252E-2,-1.2434636E0,1.1305253E-3,-5.5475056E-1,-1.4163381E-2,-1.1496867E-2,3.028602E-1,4.603704E-3,7.25752E-5],"categories":[],"categories_nodes":[],"categories_segments":[],"categories_sizes":[],"default_left":[1,0,0,0,1,0,0,1,1,0,0,0,0,0,0,1,0,0,0,0,0],"id":22,"left_children":[1,3,5,-1,7,-1,9,11,13,-1,-1,-1,-1,15,-1,17,-1,-1,19,-1,-1],"loss_changes":[5.2048115E1,1.4251966E1,9.590038E0,0E0,7.2017994E0,0E0,1.7692692E0,2.880177E0,3.1196518E0,0E0,0E0,0E0,0E0,2.0045319E0,0E0,3.5861292E0,0E0,0E0,1.5453345E-1,0E0,0E0],"parents":[2147483647,0,0,1,1,2,2,4,4,6,6,7,7,8,8,13,13,15,15,18,18],"right_children":[2,4,6,-1,8,-1,10,12,14,-1,-1,-1,-1,16,-1,18,-1,-1,20,-1,-1],"split_conditions":[1E0,-9.6E0,3E0,1.3700847E-2,3.8E1,1.7962102E-2,3E0,1.91E0,1E0,4.270339E-3,-8.651531E-3,-5.2244226E-3,1.0033252E-2,7.52E1,1.1305253E-3,2E0,-1.4163381E-2,-1.1496867E-2,-9E-2,4.603704E-3,7.25752E-5],"split_indices":[42,53,42,0,41,0,53,36,35,0,0,0,0,37,0,48,0,0,55,0,0],"split_type":[0,0,0,0,0,0,0,0,0,0,0,0,0,0,0,0,0,0,0,0,0],"sum_hessian":[4.410802E1,2.9239521E1,1.4868502E1,1.9985353E0,2.7240984E1,1.2488061E1,2.380441E0,3.1493454E0,2.4091639E1,1.208487E0,1.1719539E0,1.4082866E0,1.741059E0,2.2435438E1,1.6562018E0,5.34611E0,1.7089329E1,2.9553645E0,2.3907452E0,1.196044E0,1.1947013E0],"tree_param":{"num_deleted":"0","num_feature":"56","num_nodes":"21","size_leaf_vector":"1"}},{"base_weights":[1.3764909E-3,-7.632065E-1,1.4548348E0,1.3606575E-2,-9.6237576E-1,1.7806323E-2,-2.7554286E-1,3.5718468E-1,-1.1428499E0,4.2604194E-3,-8.626291E-3,-5.1978347E-3,9.965116E-3,1.1313814E-3,-1.2367026E0,-7.1038336E-1,-1.359196E0,-1.0667879E-2,4.869555E-3,-1.4070845E-2,-3.4508284E-3],"categories":[],"categories_nodes":[],"categories_segments":[],"categories_sizes":[],"default_left":[1,0,0,0,1,0,0,1,0,0,0,0,0,0,0,0,0,0,0,0,0],"id":23,"left_children":[1,3,5,-1,7,-1,9,11,13,-1,-1,-1,-1,-1,15,17,19,-1,-1,-1,-1],"loss_changes":[5.112759E1,1.4062899E1,9.431168E0,0E0,7.112074E0,0E0,1.7592192E0,2.8440328E0,3.0870361E0,0E0,0E0,0E0,0E0,0E0,5.3964233E-1,3.2944267E0,3.8103485E-1,0E0,0E0,0E0,0E0],"parents":[2147483647,0,0,1,1,2,2,4,4,6,6,7,7,8,8,14,14,15,15,16,16],"right_children":[2,4,6,-1,8,-1,10,12,14,-1,-1,-1,-1,-1,16,18,20,-1,-1,-1,-1],"split_conditions":[1E0,-9.6E0,3E0,1.3606575E-2,3.8E1,1.7806323E-2,-3E-2,1.91E0,-2.8E-1,4.2604194E-3,-8.626291E-3,-5.1978347E-3,9.965116E-3,1.1313814E-3,7.9E1,6.3E1,1.23E1,-1.0667879E-2,4.869555E-3,-1.4070845E-2,-3.4508284E-3],"split_indices":[42,53,42,0,41,0,55,36,55,0,0,0,0,0,40,38,51,0,0,0,0],"split_type":[0,0,0,0,0,0,0,0,0,0,0,0,0,0,0,0,0,0,0,0,0],"sum_hessian":[4.40083E1,2.9149359E1,1.4858941E1,1.9991827E0,2.7150175E1,1.2480125E1,2.3788152E0,3.1487238E0,2.4001451E1,1.2086979E0,1.1701173E0,1.4064593E0,1.7422645E0,1.6545027E0,2.2346949E1,5.502713E0,1.6844236E1,4.3245E0,1.1782132E0,1.5714654E1,1.1295823E0],"tree_param":{"num_deleted":"0","num_feature":"56","num_nodes":"21","size_leaf_vector":"1"}},{"base_weights":[1.5679789E-3,-7.5794697E-1,1.4421837E0,1.3513807E-2,-9.56416E-1,1.7654426E-2,-2.742172E-1,3.5482126E-1,-1.1363448E0,4.2656744E-3,-8.612438E-3,-5.171415E-3,9.897773E-3,-1.2305114E0,1.1752248E-3,-5.4502165E-1,-1.4035741E-2,-1.1385145E-2,3.0494964E-1,9.294425E-5,4.6143145E-3],"categories":[0],"categories_nodes":[6],"categories_segments":[0],"categories_sizes":[1],"default_left":[1,0,0,0,1,0,1,1,1,0,0,0,0,0,0,1,0,0,0,0,0],"id":24,"left_children":[1,3,5,-1,7,-1,9,11,13,-1,-1,-1,-1,15,-1,17,-1,-1,19,-1,-1],"loss_changes":[5.023035E1,1.3877033E1,9.276939E0,0E0,7.023655E0,0E0,1.7566748E0,2.8084295E0,3.0861702E0,0E0,0E0,0E0,0E0,1.9944305E0,0E0,3.5370715E0,0E0,0E0,1.5248755E-1,0E0,0E0],"parents":[2147483647,0,0,1,1,2,2,4,4,6,6,7,7,8,8,13,13,15,15,18,18],"right_children":[2,4,6,-1,8,-1,10,12,14,-1,-1,-1,-1,16,-1,18,-1,-1,20,-1,-1],"split_conditions":[1E0,-9.6E0,3E0,1.3513807E-2,3.8E1,1.7654426E-2,NaN,1.91E0,1E0,4.2656744E-3,-8.612438E-3,-5.171415E-3,9.897773E-3,7.52E1,1.1752248E-3,2E0,-1.4035741E-2,-1.1385145E-2,1E0,9.294425E-5,4.6143145E-3],"split_indices":[42,53,42,0,41,0,0,36,35,0,0,0,0,37,0,48,0,0,46,0,0],"split_type":[0,0,0,0,0,0,1,0,0,0,0,0,0,0,0,0,0,0,0,0,0],"sum_hessian":[4.3908276E1,2.906083E1,1.4847447E1,1.9996401E0,2.706119E1,1.2470282E1,2.377166E0,3.148002E0,2.3913187E1,1.2081887E0,1.1689775E0,1.404626E0,1.7433759E0,2.2260063E1,1.6531255E0,5.3234606E0,1.6936602E1,2.9347773E0,2.3886836E0,1.1933589E0,1.1953247E0],"tree_param":{"num_deleted":"0","num_feature":"56","num_nodes":"21","size_leaf_vector":"1"}},{"base_weights":[1.8113868E-3,-7.527395E-1,1.4298121E0,1.34224985E-2,-9.505329E-1,1.7506266E-2,-2.7289975E-1,3.5247973E-1,-1.1299452E0,4.240595E-3,-8.576184E-3,-5.145163E-3,9.831202E-3,-1.2239672E0,1.1677041E-3,-5.414334E-1,-1.3967961E-2,-1.1330451E-2,3.0318603E-1,8.3368155E-5,4.597041E-3],"categories":[0,0,1,3],"categories_nodes":[6,18],"categories_segments":[0,1],"categories_sizes":[1,3],"default_left":[1,0,0,0,1,0,1,1,1,0,0,0,0,0,0,1,0,0,1,0,0],"id":25,"left_children":[1,3,5,-1,7,-1,9,11,13,-1,-1,-1,-1,15,-1,17,-1,-1,19,-1,-1],"loss_changes":[4.9351242E1,1.3694134E1,9.127197E0,0E0,6.9367256E0,0E0,1.7392863E0,2.7733564E0,3.0524826E0,0E0,0E0,0E0,0E0,1.9766617E0,0E0,3.4986272E0,0E0,0E0,1.5260553E-1,0E0,0E0],"parents":[2147483647,0,0,1,1,2,2,4,4,6,6,7,7,8,8,13,13,15,15,18,18],"right_children":[2,4,6,-1,8,-1,10,12,14,-1,-1,-1,-1,16,-1,18,-1,-1,20,-1,-1],"split_conditions":[1E0,-9.6E0,3E0,1.34224985E-2,3.8E1,1.7506266E-2,NaN,1.91E0,1E0,4.240595E-3,-8.576184E-3,-5.145163E-3,9.831202E-3,7.52E1,1.1677041E-3,2E0,-1.3967961E-2,-1.1330451E-2,NaN,8.3368155E-5,4.597041E-3],"split_indices":[42,53,42,0,41,0,0,36,35,0,0,0,0,37,0,48,0,0,49,0,0],"split_type":[0,0,0,0,0,0,1,0,0,0,0,0,0,0,0,0,0,0,1,0,0],"sum_hessian":[4.380279E1,2.8968697E1,1.4834093E1,1.9999112E0,2.6968786E1,1.2458583E1,2.3755105E0,3.1471822E0,2.3821604E1,1.2090904E0,1.1664201E0,1.402787E0,1.7443954E0,2.216803E1,1.6535742E0,5.314163E0,1.6853867E1,2.924334E0,2.3898292E0,1.1939418E0,1.1958873E0],"tree_param":{"num_deleted":"0","num_feature":"56","num_nodes":"21","size_leaf_vector":"1"}},{"base_weights":[2.0499935E-3,-7.476023E-1,1.4177126E0,1.333262E-2,-9.447281E-1,1.736171E-2,-2.7159533E-1,3.5016003E-1,-1.1236343E0,4.2458205E-3,-8.562647E-3,-5.1190746E-3,9.765392E-3,1.216115E-3,-1.2178239E0,-4.4225046E-1,-1.280325E0,-7.891299E-3,1.0696843E-3,-2.8991012E-3,-1.3592225E0,-1.4042931E-2,-3.3559252E-3],"categories":[1,2,3],"categories_nodes":[16],"categories_segments":[0],"categories_sizes":[3],"default_left":[1,0,0,0,1,0,0,1,0,0,0,0,0,0,0,0,1,0,0,0,0,0,0],"id":26,"left_children":[1,3,5,-1,7,-1,9,11,13,-1,-1,-1,-1,-1,15,17,19,-1,-1,-1,21,-1,-1],"loss_changes":[4.8492085E1,1.3514284E1,8.981703E0,0E0,6.851202E0,0E0,1.7368113E0,2.7388031E0,3.048582E0,0E0,0E0,0E0,0E0,0E0,5.526123E-1,7.033919E-1,1.2337952E0,0E0,0E0,0E0,4.064064E-1,0E0,0E0],"parents":[2147483647,0,0,1,1,2,2,4,4,6,6,7,7,8,8,14,14,15,15,16,16,20,20],"right_children":[2,4,6,-1,8,-1,10,12,14,-1,-1,-1,-1,-1,16,18,20,-1,-1,-1,22,-1,-1],"split_conditions":[1E0,-9.6E0,3E0,1.333262E-2,3.8E1,1.736171E-2,-3E-2,1.91E0,-2.8E-1,4.2458205E-3,-8.562647E-3,-5.1190746E-3,9.765392E-3,1.216115E-3,4.34E1,3.92E1,NaN,-7.891299E-3,1.0696843E-3,-2.8991012E-3,1E0,-1.4042931E-2,-3.3559252E-3],"split_indices":[42,53,42,0,41,0,55,36,55,0,0,0,0,0,38,38,49,0,0,0,25,0,0],"split_type":[0,0,0,0,0,0,0,0,0,0,0,0,0,0,0,0,1,0,0,0,0,0,0],"sum_hessian":[4.3694454E1,2.8875553E1,1.4818901E1,2E0,2.6875553E1,1.2445085E1,2.373816E0,3.146266E0,2.3729286E1,1.2085637E0,1.1652523E0,1.4009418E0,1.7453241E0,1.6481801E0,2.2081106E1,2.2490203E0,1.9832087E1,1.1106967E0,1.1383238E0,1.8081783E0,1.8023907E1,1.6907589E1,1.1163194E0],"tree_param":{"num_deleted":"0","num_feature":"56","num_nodes":"23","size_leaf_vector":"1"}},{"base_weights":[2.1381949E-3,-7.42613E-1,1.4058734E0,1.3244137E-2,-9.3904525E-1,1.722063E-2,-2.70299E-1,3.478617E-1,-1.1174214E0,4.2359005E-3,-8.537933E-3,-5.0931494E-3,9.700326E-3,1.2083321E-3,-1.2114613E0,-6.9019365E-1,-1.3339726E0,-1.0467721E0,4.921018E-3,-3.257753E-3,-1.3824784E-2,-1.1581873E-2,-3.3597522E-3],"categories":[],"categories_nodes":[],"categories_segments":[],"categories_sizes":[],"default_left":[1,0,0,0,1,0,0,1,0,0,0,0,0,0,0,0,0,0,0,0,0,0,0],"id":27,"left_children":[1,3,5,-1,7,-1,9,11,13,-1,-1,-1,-1,-1,15,17,19,21,-1,-1,-1,-1,-1],"loss_changes":[4.7658802E1,1.3338123E1,8.840321E0,0E0,6.7673283E0,0E0,1.7269616E0,2.7047606E0,3.0158138E0,0E0,0E0,0E0,0E0,0E0,5.476723E-1,3.2333486E0,4.0765953E-1,2.850151E-2,0E0,0E0,0E0,0E0,0E0],"parents":[2147483647,0,0,1,1,2,2,4,4,6,6,7,7,8,8,14,14,15,15,16,16,17,17],"right_children":[2,4,6,-1,8,-1,10,12,14,-1,-1,-1,-1,-1,16,18,20,22,-1,-1,-1,-1,-1],"split_conditions":[1E0,-9.6E0,3E0,1.3244137E-2,3.8E1,1.722063E-2,3E0,1.91E0,-2.8E-1,4.2359005E-3,-8.537933E-3,-5.0931494E-3,9.700326E-3,1.2083321E-3,7.9E1,6.3E1,1.92E0,0E0,4.921018E-3,-3.257753E-3,-1.3824784E-2,-1.1581873E-2,-3.3597522E-3],"split_indices":[42,53,42,0,41,0,53,36,55,0,0,0,0,0,40,38,39,9,0,0,0,0,0],"split_type":[0,0,0,0,0,0,0,0,0,0,0,0,0,0,0,0,0,0,0,0,0,0,0],"sum_hessian":[4.358895E1,2.8786995E1,1.4801955E1,1.9999096E0,2.6787085E1,1.2429839E1,2.3721154E0,3.1452556E0,2.3641829E1,1.2087368E0,1.1633786E0,1.3990915E0,1.746164E0,1.6486475E0,2.1993181E1,5.447703E0,1.6545479E1,4.273461E0,1.1742419E0,1.1136853E0,1.5431793E1,3.150249E0,1.123212E0],"tree_param":{"num_deleted":"0","num_feature":"56","num_nodes":"23","size_leaf_vector":"1"}},{"base_weights":[2.2207778E-3,-7.377203E-1,1.3942872E0,1.3157015E-2,-9.334764E-1,1.70829E-2,-2.6901293E-1,3.4558442E-1,-1.111345E0,4.2260108E-3,-8.513451E-3,-5.0673867E-3,9.635993E-3,-1.2057298E0,1.2483102E-3,-5.260746E-1,-1.3794048E-2,-1.1179628E-2,3.1071222E-1,4.6445127E-3,1.4863785E-4],"categories":[0],"categories_nodes":[6],"categories_segments":[0],"categories_sizes":[1],"default_left":[1,0,0,0,1,0,1,1,1,0,0,0,0,0,0,1,0,0,0,0,0],"id":28,"left_children":[1,3,5,-1,7,-1,9,11,13,-1,-1,-1,-1,15,-1,17,-1,-1,19,-1,-1],"loss_changes":[4.684481E1,1.3165245E1,8.702862E0,0E0,6.6852207E0,0E0,1.7172017E0,2.6712186E0,3.0152168E0,0E0,0E0,0E0,0E0,1.977993E0,0E0,3.4568677E0,0E0,0E0,1.4699122E-1,0E0,0E0],"parents":[2147483647,0,0,1,1,2,2,4,4,6,6,7,7,8,8,13,13,15,15,18,18],"right_children":[2,4,6,-1,8,-1,10,12,14,-1,-1,-1,-1,16,-1,18,-1,-1,20,-1,-1],"split_conditions":[1E0,-9.6E0,3E0,1.3157015E-2,3.8E1,1.70829E-2,NaN,1.91E0,1E0,4.2260108E-3,-8.513451E-3,-5.0673867E-3,9.635993E-3,7.52E1,1.2483102E-3,2E0,-1.3794048E-2,-1.1179628E-2,-9E-2,4.6445127E-3,1.4863785E-4],"split_indices":[42,53,42,0,41,0,0,36,35,0,0,0,0,37,0,48,0,0,55,0,0],"split_type":[0,0,0,0,0,0,1,0,0,0,0,0,0,0,0,0,0,0,0,0,0],"sum_hessian":[4.3479725E1,2.8696434E1,1.4783292E1,1.999644E0,2.669679E1,1.2412899E1,2.3703928E0,3.1441524E0,2.3552637E1,1.2089105E0,1.1614822E0,1.3972362E0,1.7469163E0,2.1904789E1,1.6478481E0,5.27822E0,1.662657E1,2.8946881E0,2.3835318E0,1.1934525E0,1.1900793E0],"tree_param":{"num_deleted":"0","num_feature":"56","num_nodes":"21","size_leaf_vector":"1"}},{"base_weights":[2.453986E-3,-7.327643E-1,1.3829454E0,1.307122E-2,-9.2787135E-1,1.6948408E-2,-2.6773736E-1,3.433279E-1,-1.1052585E0,4.2311195E-3,-8.500178E-3,-5.0417827E-3,9.572378E-3,-1.1995275E0,1.2403133E-3,-5.226368E-1,-1.3730382E-2,-1.1127366E-2,3.0891353E-1,1.3959657E-4,4.6258536E-3],"categories":[],"categories_nodes":[],"categories_segments":[],"categories_sizes":[],"default_left":[1,0,0,0,1,0,0,1,1,0,0,0,0,0,0,1,0,0,0,0,0],"id":29,"left_children":[1,3,5,-1,7,-1,9,11,13,-1,-1,-1,-1,15,-1,17,-1,-1,19,-1,-1],"loss_changes":[4.6040977E1,1.2993867E1,8.569181E0,0E0,6.6034813E0,0E0,1.7147527E0,2.6381683E0,2.9831486E0,0E0,0E0,0E0,0E0,1.9614258E0,0E0,3.4197564E0,0E0,0E0,1.4695814E-1,0E0,0E0],"parents":[2147483647,0,0,1,1,2,2,4,4,6,6,7,7,8,8,13,13,15,15,18,18],"right_children":[2,4,6,-1,8,-1,10,12,14,-1,-1,-1,-1,16,-1,18,-1,-1,20,-1,-1],"split_conditions":[1E0,-9.6E0,3E0,1.307122E-2,3.8E1,1.6948408E-2,9.8E1,1.91E0,1E0,4.2311195E-3,-8.500178E-3,-5.0417827E-3,9.572378E-3,7.52E1,1.2403133E-3,2E0,-1.3730382E-2,-1.1127366E-2,7.1E1,1.3959657E-4,4.6258536E-3],"split_indices":[42,53,42,0,41,0,40,36,35,0,0,0,0,37,0,48,0,0,37,0,0],"split_type":[0,0,0,0,0,0,0,0,0,0,0,0,0,0,0,0,0,0,0,0,0],"sum_hessian":[4.336381E1,2.8600851E1,1.4762961E1,1.9992065E0,2.6601645E1,1.2394313E1,2.3686485E0,3.1429582E0,2.3458687E1,1.20835E0,1.1602987E0,1.3953758E0,1.7475823E0,2.1810352E1,1.6483337E0,5.2686605E0,1.6541693E1,2.8839517E0,2.384709E0,1.1905117E0,1.194197E0],"tree_param":{"num_deleted":"0","num_feature":"56","num_nodes":"21","size_leaf_vector":"1"}},{"base_weights":[2.6831732E-3,-7.2787225E-1,1.371839E0,1.2986728E-2,-9.2233765E-1,1.6817043E-2,-2.6646957E-1,3.4109208E-1,-1.0992526E0,4.206289E-3,-8.46487E-3,-5.016338E-3,9.50947E-3,1.2903045E-3,-1.1937068E0,-4.2431724E-1,-1.256526E0,-7.7333357E-3,1.1821154E-3,-2.7601838E-3,-1.335682E0,-1.3810403E-2,-3.2086095E-3],"categories":[1,2,3],"categories_nodes":[16],"categories_segments":[0],"categories_sizes":[3],"default_left":[1,0,0,0,1,0,0,1,0,0,0,0,0,0,0,0,1,0,0,0,0,0,0],"id":30,"left_children":[1,3,5,-1,7,-1,9,11,13,-1,-1,-1,-1,-1,15,17,19,-1,-1,-1,21,-1,-1],"loss_changes":[4.525477E1,1.282529E1,8.4391365E0,0E0,6.523033E0,0E0,1.697864E0,2.6056023E0,2.980669E0,0E0,0E0,0E0,0E0,0E0,5.650368E-1,7.020809E-1,1.2221489E0,0E0,0E0,0E0,4.1789627E-1,0E0,0E0],"parents":[2147483647,0,0,1,1,2,2,4,4,6,6,7,7,8,8,14,14,15,15,16,16,20,20],"right_children":[2,4,6,-1,8,-1,10,12,14,-1,-1,-1,-1,-1,16,18,20,-1,-1,-1,22,-1,-1],"split_conditions":[1E0,-9.6E0,3E0,1.2986728E-2,3.8E1,1.6817043E-2,9.8E1,1.91E0,-2.8E-1,4.206289E-3,-8.46487E-3,-5.016338E-3,9.50947E-3,1.2903045E-3,4.34E1,3.92E1,NaN,-7.7333357E-3,1.1821154E-3,-2.7601838E-3,1E0,-1.3810403E-2,-3.2086095E-3],"split_indices":[42,53,42,0,41,0,40,36,55,0,0,0,0,0,38,38,49,0,0,0,25,0,0],"split_type":[0,0,0,0,0,0,0,0,0,0,0,0,0,0,0,0,1,0,0,0,0,0,0],"sum_hessian":[4.324544E1,2.850441E1,1.4741031E1,1.9986008E0,2.650581E1,1.2374132E1,2.3668985E0,3.1416752E0,2.3364134E1,1.2092272E0,1.1576713E0,1.3935109E0,1.7481643E0,1.6422496E0,2.1721884E1,2.22503E0,1.9496855E1,1.0951077E0,1.1299223E0,1.791575E0,1.770528E1,1.660235E1,1.1029289E0],"tree_param":{"num_deleted":"0","num_feature":"56","num_nodes":"23","size_leaf_vector":"1"}},{"base_weights":[2.7665608E-3,-7.2311413E-1,1.360962E0,1.29035E-2,-9.169097E-1,1.6688693E-2,-2.652143E-1,-3.2112151E-3,-1.1747669E0,4.2113606E-3,-8.451891E-3,7.8677064E-1,-7.2996014E-1,-1.2447295E0,-1.0468962E-3,1.427938E-2,-3.942518E-3,-1.0404864E-2,5.680802E-4,-2.6244808E-3,-1.3263309E0,-1.3720229E-2,-3.2537968E-3],"categories":[0,1,2,3],"categories_nodes":[6,13],"categories_segments":[0,1],"categories_sizes":[1,3],"default_left":[1,0,0,0,1,0,1,0,1,0,0,0,1,1,0,0,0,0,0,0,0,0,0],"id":31,"left_children":[1,3,5,-1,7,-1,9,11,13,-1,-1,15,17,19,-1,-1,-1,-1,-1,-1,21,-1,-1],"loss_changes":[4.4491726E1,1.2660042E1,8.31255E0,0E0,6.455311E0,0E0,1.6954762E0,4.6142325E0,1.4701843E0,0E0,0E0,3.4805562E0,1.0812562E0,1.2529716E0,0E0,0E0,0E0,0E0,0E0,0E0,3.8576508E-1,0E0,0E0],"parents":[2147483647,0,0,1,1,2,2,4,4,6,6,7,7,8,8,11,11,12,12,13,13,20,20],"right_children":[2,4,6,-1,8,-1,10,12,14,-1,-1,16,18,20,-1,-1,-1,-1,-1,-1,22,-1,-1],"split_conditions":[1E0,-9.6E0,3E0,1.29035E-2,4.8E1,1.6688693E-2,NaN,-1.4E-1,1E0,4.2113606E-3,-8.451891E-3,7.52E1,7.7E1,NaN,-1.0468962E-3,1.427938E-2,-3.942518E-3,-1.0404864E-2,5.680802E-4,-2.6244808E-3,1E0,-1.3720229E-2,-3.2537968E-3],"split_indices":[42,53,42,0,41,0,0,55,35,0,0,37,37,49,0,0,0,0,0,0,11,0,0],"split_type":[0,0,0,0,0,0,1,0,0,0,0,0,0,1,0,0,0,0,0,0,0,0,0],"sum_hessian":[4.313037E1,2.8412857E1,1.4717515E1,1.9978303E0,2.6415026E1,1.2352404E1,2.365112E0,6.036738E0,2.0378288E1,1.2086502E0,1.1564618E0,2.8529592E0,3.1837788E0,1.8974503E1,1.403785E0,1.7135937E0,1.1393654E0,2.051571E0,1.1322076E0,1.7787623E0,1.7195742E1,1.6090511E1,1.1052301E0],"tree_param":{"num_deleted":"0","num_feature":"56","num_nodes":"23","size_leaf_vector":"1"}},{"base_weights":[2.8544117E-3,-7.183883E-1,1.3503052E0,1.2821513E-2,-9.115139E-1,1.656326E-2,-2.6396674E-1,-3.117702E-3,-1.1687067E0,4.2015114E-3,-8.427936E-3,7.813101E-1,-7.260875E-1,-1.2385948E0,-1.0409417E-3,1.4176209E-2,-3.923628E-3,-1.0356413E-2,5.650238E-4,-2.609057E-3,-1.3201303E0,-1.3657641E-2,-3.2384966E-3],"categories":[1,2,3],"categories_nodes":[13],"categories_segments":[0],"categories_sizes":[3],"default_left":[1,0,0,0,1,0,0,0,1,0,0,0,1,1,0,0,0,0,0,0,0,0,0],"id":32,"left_children":[1,3,5,-1,7,-1,9,11,13,-1,-1,15,17,19,-1,-1,-1,-1,-1,-1,21,-1,-1],"loss_changes":[4.3744297E1,1.2497109E1,8.189325E0,0E0,6.3802223E0,0E0,1.6859277E0,4.555224E0,1.4553032E0,0E0,0E0,3.434688E0,1.0705612E0,1.2410488E0,0E0,0E0,0E0,0E0,0E0,0E0,3.8113022E-1,0E0,0E0],"parents":[2147483647,0,0,1,1,2,2,4,4,6,6,7,7,8,8,11,11,12,12,13,13,20,20],"right_children":[2,4,6,-1,8,-1,10,12,14,-1,-1,16,18,20,-1,-1,-1,-1,-1,-1,22,-1,-1],"split_conditions":[1E0,-9.6E0,3E0,1.2821513E-2,4.8E1,1.656326E-2,3E0,-1.4E-1,1E0,4.2015114E-3,-8.427936E-3,7.52E1,7.7E1,NaN,-1.0409417E-3,1.4176209E-2,-3.923628E-3,-1.0356413E-2,5.650238E-4,-2.609057E-3,1E0,-1.3657641E-2,-3.2384966E-3],"split_indices":[42,53,42,0,41,0,53,55,35,0,0,37,37,49,0,0,0,0,0,0,11,0,0],"split_type":[0,0,0,0,0,0,0,0,0,0,0,0,0,1,0,0,0,0,0,0,0,0,0],"sum_hessian":[4.3013718E1,2.8321222E1,1.4692495E1,1.9968983E0,2.6324324E1,1.2329175E1,2.36332E0,6.0319176E0,2.0292406E1,1.2087852E0,1.154535E0,2.8542929E0,3.177625E0,1.8888987E1,1.4034194E0,1.7160695E0,1.1382234E0,2.045267E0,1.1323576E0,1.7773043E0,1.7111683E1,1.6007605E1,1.1040773E0],"tree_param":{"num_deleted":"0","num_feature":"56","num_nodes":"23","size_leaf_vector":"1"}},{"base_weights":[2.9394464E-3,-7.137244E-1,1.3398626E0,1.2740737E-2,-9.061876E-1,1.644065E-2,-2.6272914E-1,3.3689237E-1,-1.081945E0,4.191692E-3,-8.404201E-3,-4.9283197E-3,9.347023E-3,1.3439383E-3,-1.1766013E0,-6.593755E-1,-1.3001474E0,-1.0174481E0,5.0286422E-3,-1.3496318E-2,-2.991488E-3,-3.145731E-3,-1.130264E-2],"categories":[],"categories_nodes":[],"categories_segments":[],"categories_sizes":[],"default_left":[1,0,0,0,1,0,0,1,0,0,0,0,0,0,0,0,0,0,0,0,0,0,0],"id":33,"left_children":[1,3,5,-1,7,-1,9,11,13,-1,-1,-1,-1,-1,15,17,19,21,-1,-1,-1,-1,-1],"loss_changes":[4.301292E1,1.23368225E1,8.069315E0,0E0,6.3143616E0,0E0,1.6764654E0,2.5121868E0,2.9325085E0,0E0,0E0,0E0,0E0,0E0,5.7790565E-1,3.1582158E0,4.4329834E-1,5.6182384E-2,0E0,0E0,0E0,0E0,0E0],"parents":[2147483647,0,0,1,1,2,2,4,4,6,6,7,7,8,8,14,14,15,15,16,16,17,17],"right_children":[2,4,6,-1,8,-1,10,12,14,-1,-1,-1,-1,-1,16,18,20,22,-1,-1,-1,-1,-1],"split_conditions":[1E0,-9.6E0,3E0,1.2740737E-2,3.8E1,1.644065E-2,-3E-2,1.91E0,-2.8E-1,4.191692E-3,-8.404201E-3,-4.9283197E-3,9.347023E-3,1.3439383E-3,7.9E1,6.3E1,1.23E1,-1.4E-1,5.0286422E-3,-1.3496318E-2,-2.991488E-3,-3.145731E-3,-1.130264E-2],"split_indices":[42,53,42,0,41,0,55,36,55,0,0,0,0,0,40,38,51,55,0,0,0,0,0],"split_type":[0,0,0,0,0,0,0,0,0,0,0,0,0,0,0,0,0,0,0,0,0,0,0],"sum_hessian":[4.289474E1,2.8228739E1,1.4666002E1,1.9958084E0,2.6232931E1,1.2304495E1,2.3615081E0,3.1360142E0,2.3096916E1,1.2089207E0,1.1525873E0,1.3868098E0,1.7492045E0,1.6373308E0,2.1459585E1,5.3594255E0,1.610016E1,4.1923814E0,1.1670444E0,1.5009862E1,1.0902984E0,1.1037961E0,3.0885851E0],"tree_param":{"num_deleted":"0","num_feature":"56","num_nodes":"23","size_leaf_vector":"1"}},{"base_weights":[3.0190088E-3,-7.091556E-1,1.3296269E0,1.2661143E-2,-9.0097547E-1,1.6320765E-2,-2.615014E-1,-8.1726664E-4,-1.1573032E0,4.196653E-3,-8.39147E-3,7.7541703E-1,-7.1899045E-1,-1.2274538E0,-9.832322E-4,1.4047648E-2,-3.8912056E-3,-1.0273659E-2,5.8091996E-4,-2.5607385E-3,-1.3090278E0,-1.3546441E-2,-3.1949845E-3],"categories":[0,1,2,3],"categories_nodes":[6,13],"categories_segments":[0,1],"categories_sizes":[1,3],"default_left":[1,0,0,0,1,0,1,0,1,0,0,0,1,1,0,0,0,0,0,0,0,0,0],"id":34,"left_children":[1,3,5,-1,7,-1,9,11,13,-1,-1,15,17,19,-1,-1,-1,-1,-1,-1,21,-1,-1],"loss_changes":[4.229791E1,1.2179561E1,7.9524E0,0E0,6.2611256E0,0E0,1.6741025E0,4.468748E0,1.4485474E0,0E0,0E0,3.3703663E0,1.0573199E0,1.2277184E0,0E0,0E0,0E0,0E0,0E0,0E0,3.7756157E-1,0E0,0E0],"parents":[2147483647,0,0,1,1,2,2,4,4,6,6,7,7,8,8,11,11,12,12,13,13,20,20],"right_children":[2,4,6,-1,8,-1,10,12,14,-1,-1,16,18,20,-1,-1,-1,-1,-1,-1,22,-1,-1],"split_conditions":[1E0,-9.6E0,3E0,1.2661143E-2,4.8E1,1.6320765E-2,NaN,-1.4E-1,1E0,4.196653E-3,-8.39147E-3,7.52E1,7.7E1,NaN,-9.832322E-4,1.4047648E-2,-3.8912056E-3,-1.0273659E-2,5.8091996E-4,-2.5607385E-3,1E0,-1.3546441E-2,-3.1949845E-3],"split_indices":[42,53,42,0,41,0,0,55,35,0,0,37,37,49,0,0,0,0,0,0,11,0,0],"split_type":[0,0,0,0,0,0,1,0,0,0,0,0,0,1,0,0,0,0,0,0,0,0,0],"sum_hessian":[4.2772255E1,2.8134176E1,1.4638081E1,1.9945639E0,2.6139612E1,1.2278405E1,2.3596756E0,6.0160294E0,2.0123583E1,1.2083108E0,1.1513649E0,2.852841E0,3.1631885E0,1.8724138E1,1.3994452E0,1.7180662E0,1.1347748E0,2.0339568E0,1.1292316E0,1.7712545E0,1.6952883E1,1.5853093E1,1.0997896E0],"tree_param":{"num_deleted":"0","num_feature":"56","num_nodes":"23","size_leaf_vector":"1"}},{"base_weights":[3.1017426E-3,-7.046002E-1,1.319591E0,1.2582707E-2,-8.9577E-1,1.6203517E-2,-2.6028123E-1,-7.506674E-4,-1.1514637E0,4.172072E-3,-8.357063E-3,7.7011204E-1,-7.152162E-1,-1.2215576E0,-9.776405E-4,1.3948251E-2,-3.8726039E-3,-1.02265915E-2,5.77798E-4,-2.5456976E-3,-1.3030919E0,-1.34866815E-2,-3.179992E-3],"categories":[1,2,3],"categories_nodes":[13],"categories_segments":[0],"categories_sizes":[3],"default_left":[1,0,0,0,1,0,0,0,1,0,0,0,1,1,0,0,0,0,0,0,0,0,0],"id":35,"left_children":[1,3,5,-1,7,-1,9,11,13,-1,-1,15,17,19,-1,-1,-1,-1,-1,-1,21,-1,-1],"loss_changes":[4.1596897E1,1.2024266E1,7.838476E0,0E0,6.188902E0,0E0,1.6576953E0,4.411951E0,1.4342861E0,0E0,0E0,3.3265233E0,1.0469861E0,1.2165432E0,0E0,0E0,0E0,0E0,0E0,0E0,3.7332535E-1,0E0,0E0],"parents":[2147483647,0,0,1,1,2,2,4,4,6,6,7,7,8,8,11,11,12,12,13,13,20,20],"right_children":[2,4,6,-1,8,-1,10,12,14,-1,-1,16,18,20,-1,-1,-1,-1,-1,-1,22,-1,-1],"split_conditions":[1E0,-9.6E0,3E0,1.2582707E-2,4.8E1,1.6203517E-2,-3E-2,-1.4E-1,1E0,4.172072E-3,-8.357063E-3,7.52E1,7.7E1,NaN,-9.776405E-4,1.3948251E-2,-3.8726039E-3,-1.02265915E-2,5.77798E-4,-2.5456976E-3,1E0,-1.34866815E-2,-3.179992E-3],"split_indices":[42,53,42,0,41,0,55,55,35,0,0,37,37,49,0,0,0,0,0,0,11,0,0],"split_type":[0,0,0,0,0,0,0,0,0,0,0,0,0,1,0,0,0,0,0,0,0,0,0],"sum_hessian":[4.264913E1,2.8040342E1,1.460879E1,1.9931681E0,2.6047174E1,1.2250952E1,2.3578384E0,6.0106587E0,2.0036516E1,1.2091634E0,1.148675E0,2.8537543E0,3.1569042E0,1.863742E1,1.399096E0,1.7201217E0,1.1336325E0,2.0275197E0,1.1293846E0,1.769818E0,1.6867601E1,1.5768957E1,1.0986454E0],"tree_param":{"num_deleted":"0","num_feature":"56","num_nodes":"23","size_leaf_vector":"1"}},{"base_weights":[3.1816757E-3,-7.001026E-1,1.3097506E0,1.25054E-2,-8.906295E-1,1.608882E-2,-2.5907308E-1,-6.8976934E-4,-1.1456984E0,4.177007E-3,-8.34462E-3,7.648749E-1,-7.114767E-1,-1.2157415E0,-9.7208057E-4,1.3850417E-2,-3.8541036E-3,-1.0180011E-2,5.746924E-4,-2.5307464E-3,-1.2972451E0,-1.3430905E-2,-3.132504E-3],"categories":[0,1,2,3],"categories_nodes":[6,13],"categories_segments":[0,1],"categories_sizes":[1,3],"default_left":[1,0,0,0,1,0,1,0,1,0,0,0,1,1,0,0,0,0,0,0,0,0,0],"id":36,"left_children":[1,3,5,-1,7,-1,9,11,13,-1,-1,15,17,19,-1,-1,-1,-1,-1,-1,21,-1,-1],"loss_changes":[4.0910618E1,1.1871456E1,7.7274E0,0E0,6.117689E0,0E0,1.655396E0,4.3560214E0,1.4203129E0,0E0,0E0,3.2834845E0,1.036797E0,1.205637E0,0E0,0E0,0E0,0E0,0E0,0E0,3.8144684E-1,0E0,0E0],"parents":[2147483647,0,0,1,1,2,2,4,4,6,6,7,7,8,8,11,11,12,12,13,13,20,20],"right_children":[2,4,6,-1,8,-1,10,12,14,-1,-1,16,18,20,-1,-1,-1,-1,-1,-1,22,-1,-1],"split_conditions":[1E0,-9.6E0,3E0,1.25054E-2,4.8E1,1.608882E-2,NaN,-1.4E-1,1E0,4.177007E-3,-8.34462E-3,7.52E1,7.7E1,NaN,-9.7208057E-4,1.3850417E-2,-3.8541036E-3,-1.0180011E-2,5.746924E-4,-2.5307464E-3,3.5E-1,-1.3430905E-2,-3.132504E-3],"split_indices":[42,53,42,0,41,0,0,55,35,0,0,37,37,49,0,0,0,0,0,0,55,0,0],"split_type":[0,0,0,0,0,0,1,0,0,0,0,0,0,1,0,0,0,0,0,0,0,0,0],"sum_hessian":[4.252391E1,2.7945765E1,1.4578145E1,1.9916244E0,2.595414E1,1.2222178E1,2.355967E0,6.005067E0,1.9949074E1,1.2085375E0,1.1474296E0,2.8544927E0,3.150574E0,1.8550325E1,1.3987482E0,1.7220032E0,1.1324894E0,2.021037E0,1.1295367E0,1.7683859E0,1.6781939E1,1.5686166E1,1.0957731E0],"tree_param":{"num_deleted":"0","num_feature":"56","num_nodes":"23","size_leaf_vector":"1"}},{"base_weights":[3.2596868E-3,-6.956599E-1,1.3000972E0,1.2429197E-2,-8.855505E-1,1.5976591E-2,-2.5787225E-1,3.31852E-1,-1.0599072E0,4.167186E-3,-8.321351E-3,-4.812754E-3,9.142252E-3,1.435487E-3,-1.1550667E0,-6.3010097E-1,-1.276946E0,-9.9450684E-1,4.913365E-3,-2.821311E-3,-1.3264752E-2,-1.1072713E-2,-3.1392036E-3],"categories":[],"categories_nodes":[],"categories_segments":[],"categories_sizes":[],"default_left":[1,0,0,0,1,0,0,1,0,0,0,0,0,0,0,0,0,0,0,0,0,0,0],"id":37,"left_children":[1,3,5,-1,7,-1,9,11,13,-1,-1,-1,-1,-1,15,17,19,21,-1,-1,-1,-1,-1],"loss_changes":[4.0238564E1,1.172106E1,7.6191025E0,0E0,6.053217E0,0E0,1.6461158E0,2.3941166E0,2.883833E0,0E0,0E0,0E0,0E0,0E0,6.09745E-1,2.9974835E0,4.6172523E-1,3.3391476E-2,0E0,0E0,0E0,0E0,0E0],"parents":[2147483647,0,0,1,1,2,2,4,4,6,6,7,7,8,8,14,14,15,15,16,16,17,17],"right_children":[2,4,6,-1,8,-1,10,12,14,-1,-1,-1,-1,-1,16,18,20,22,-1,-1,-1,-1,-1],"split_conditions":[1E0,-9.6E0,3E0,1.2429197E-2,3.8E1,1.5976591E-2,3E0,1.91E0,-2.8E-1,4.167186E-3,-8.321351E-3,-4.812754E-3,9.142252E-3,1.435487E-3,7.52E1,6.34E1,1.67E0,5E0,4.913365E-3,-2.821311E-3,-1.3264752E-2,-1.1072713E-2,-3.1392036E-3],"split_indices":[42,53,42,0,41,0,53,36,55,0,0,0,0,0,37,38,36,3,0,0,0,0,0],"split_type":[0,0,0,0,0,0,0,0,0,0,0,0,0,0,0,0,0,0,0,0,0,0,0],"sum_hessian":[4.2396717E1,2.78505E1,1.4546217E1,1.9899358E0,2.5860563E1,1.2192126E1,2.354091E0,3.126595E0,2.2733969E1,1.2086374E0,1.1454537E0,1.3772426E0,1.7493525E0,1.6286311E0,2.1105337E1,5.139225E0,1.5966112E1,3.9642472E0,1.1749778E0,1.074791E0,1.4891321E1,2.8629549E0,1.1012924E0],"tree_param":{"num_deleted":"0","num_feature":"56","num_nodes":"23","size_leaf_vector":"1"}},{"base_weights":[3.3353877E-3,-6.9129646E-1,1.2906268E0,1.2354073E-2,-8.805666E-1,1.5866756E-2,-2.5668094E-1,1.5748051E-3,-1.1348702E0,4.1574314E-3,-8.298319E-3,7.5996315E-1,-7.0492464E-1,-1.205202E0,-9.180008E-4,1.3728723E-2,-3.8139194E-3,-1.0104082E-2,5.9018284E-4,-2.4761648E-3,-1.2868806E0,-1.3327084E-2,-3.0861765E-3],"categories":[0,1,2,3],"categories_nodes":[6,13],"categories_segments":[0,1],"categories_sizes":[1,3],"default_left":[1,0,0,0,1,0,1,0,1,0,0,0,1,1,0,0,0,0,0,0,0,0,0],"id":38,"left_children":[1,3,5,-1,7,-1,9,11,13,-1,-1,15,17,19,-1,-1,-1,-1,-1,-1,21,-1,-1],"loss_changes":[3.958091E1,1.1573344E1,7.513464E0,0E0,6.0061245E0,0E0,1.636935E0,4.279866E0,1.41362E0,0E0,0E0,3.2178555E0,1.0249808E0,1.1973438E0,0E0,0E0,0E0,0E0,0E0,0E0,3.7867737E-1,0E0,0E0],"parents":[2147483647,0,0,1,1,2,2,4,4,6,6,7,7,8,8,11,11,12,12,13,13,20,20],"right_children":[2,4,6,-1,8,-1,10,12,14,-1,-1,16,18,20,-1,-1,-1,-1,-1,-1,22,-1,-1],"split_conditions":[1E0,-9.6E0,3E0,1.2354073E-2,4.8E1,1.5866756E-2,NaN,-1.4E-1,1E0,4.1574314E-3,-8.298319E-3,7.52E1,7.7E1,NaN,-9.180008E-4,1.3728723E-2,-3.8139194E-3,-1.0104082E-2,5.9018284E-4,-2.4761648E-3,1E0,-1.3327084E-2,-3.0861765E-3],"split_indices":[42,53,42,0,41,0,0,55,35,0,0,37,37,49,0,0,0,0,0,0,11,0,0],"split_type":[0,0,0,0,0,0,1,0,0,0,0,0,0,1,0,0,0,0,0,0,0,0,0],"sum_hessian":[4.2266586E1,2.775355E1,1.4513035E1,1.9881057E0,2.5765444E1,1.2160839E1,2.352196E0,5.9879484E0,1.9777496E1,1.2087358E0,1.1434603E0,2.8514254E0,3.1365228E0,1.8382565E1,1.3949322E0,1.7232133E0,1.1282121E0,2.0101047E0,1.1264181E0,1.76159E0,1.6620974E1,1.5531084E1,1.0898898E0],"tree_param":{"num_deleted":"0","num_feature":"56","num_nodes":"23","size_leaf_vector":"1"}},{"base_weights":[3.411909E-3,-6.86952E-1,1.2813331E0,1.2280007E-2,-8.7559694E-1,1.5759237E-2,-2.5549912E-1,1.611246E-3,-1.1293013E0,4.162235E-3,-8.28609E-3,7.548672E-1,-7.01275E-1,-1.1866079E-3,-1.2036835E0,1.3634373E-2,-3.7957483E-3,-1.0058753E-2,5.870138E-4,-2.5787505E-3,-1.2852136E0,-1.3316939E-2,-3.071747E-3],"categories":[1,2,3],"categories_nodes":[14],"categories_segments":[0],"categories_sizes":[3],"default_left":[1,0,0,0,1,0,0,0,0,0,0,0,1,0,1,0,0,0,0,0,0,0,0],"id":39,"left_children":[1,3,5,-1,7,-1,9,11,13,-1,-1,15,17,-1,19,-1,-1,-1,-1,-1,21,-1,-1],"loss_changes":[3.8935966E1,1.1427534E1,7.410385E0,0E0,5.9375057E0,0E0,1.6346478E0,4.225934E0,1.4124527E0,0E0,0E0,3.1767402E0,1.0151157E0,0E0,1.1461563E0,0E0,0E0,0E0,0E0,0E0,3.8146973E-1,0E0,0E0],"parents":[2147483647,0,0,1,1,2,2,4,4,6,6,7,7,8,8,11,11,12,12,14,14,20,20],"right_children":[2,4,6,-1,8,-1,10,12,14,-1,-1,16,18,-1,20,-1,-1,-1,-1,-1,22,-1,-1],"split_conditions":[1E0,-9.6E0,3E0,1.2280007E-2,4.8E1,1.5759237E-2,9.8E1,-1.4E-1,4.81E1,4.162235E-3,-8.28609E-3,7.52E1,7.7E1,-1.1866079E-3,NaN,1.3634373E-2,-3.7957483E-3,-1.0058753E-2,5.870138E-4,-2.5787505E-3,1E0,-1.3316939E-2,-3.071747E-3],"split_indices":[42,53,42,0,41,0,40,55,38,0,0,37,37,0,49,0,0,0,0,0,11,0,0],"split_type":[0,0,0,0,0,0,0,0,0,0,0,0,0,0,1,0,0,0,0,0,0,0,0],"sum_hessian":[4.213583E1,2.765719E1,1.4478637E1,1.9861372E0,2.5671055E1,1.2128355E1,2.3502827E0,5.9818525E0,1.9689201E1,1.2080793E0,1.1422032E0,2.851769E0,3.1300838E0,1.5276796E0,1.8161522E1,1.7246988E0,1.1270702E0,2.0035107E0,1.1265731E0,1.7716821E0,1.638984E1,1.5301077E1,1.0887625E0],"tree_param":{"num_deleted":"0","num_feature":"56","num_nodes":"23","size_leaf_vector":"1"}},{"base_weights":[3.4761333E-3,-6.826455E-1,1.2722104E0,1.2206975E-2,-8.70662E-1,1.5653962E-2,-2.543245E-1,1.6427875E-3,-1.1237527E0,4.137927E-3,-8.252556E-3,7.498351E-1,-6.9765806E-1,-1.1943139E0,-8.710374E-4,1.354147E-2,-3.7776744E-3,-1.001388E-2,5.838615E-4,-2.4474943E-3,-1.2759899E0,-1.3222663E-2,-3.000659E-3],"categories":[0,1,2,3],"categories_nodes":[6,13],"categories_segments":[0,1],"categories_sizes":[1,3],"default_left":[1,0,0,0,1,0,1,0,1,0,0,0,1,1,0,0,0,0,0,0,0,0,0],"id":40,"left_children":[1,3,5,-1,7,-1,9,11,13,-1,-1,15,17,19,-1,-1,-1,-1,-1,-1,21,-1,-1],"loss_changes":[3.830418E1,1.1283816E1,7.309799E0,0E0,5.8694057E0,0E0,1.618715E0,4.172818E0,1.4029388E0,0E0,0E0,3.136362E0,1.005384E0,1.1775894E0,0E0,0E0,0E0,0E0,0E0,0E0,3.913784E-1,0E0,0E0],"parents":[2147483647,0,0,1,1,2,2,4,4,6,6,7,7,8,8,11,11,12,12,13,13,20,20],"right_children":[2,4,6,-1,8,-1,10,12,14,-1,-1,16,18,20,-1,-1,-1,-1,-1,-1,22,-1,-1],"split_conditions":[1E0,-9.6E0,3E0,1.2206975E-2,4.8E1,1.5653962E-2,NaN,-1.4E-1,1E0,4.137927E-3,-8.252556E-3,7.52E1,7.7E1,NaN,-8.710374E-4,1.354147E-2,-3.7776744E-3,-1.001388E-2,5.838615E-4,-2.4474943E-3,3.5E-1,-1.3222663E-2,-3.000659E-3],"split_indices":[42,53,42,0,41,0,0,55,35,0,0,37,37,49,0,0,0,0,0,0,55,0,0],"split_type":[0,0,0,0,0,0,1,0,0,0,0,0,0,1,0,0,0,0,0,0,0,0,0],"sum_hessian":[4.2004543E1,2.7561464E1,1.4443079E1,1.9840333E0,2.557743E1,1.2094714E1,2.3483648E0,5.9755526E0,1.9601877E1,1.208906E0,1.1394587E0,2.8519478E0,3.1236048E0,1.8210276E1,1.3916017E0,1.72602E0,1.1259278E0,1.9968779E0,1.126727E0,1.7588228E0,1.6451452E1,1.5367854E1,1.0835993E0],"tree_param":{"num_deleted":"0","num_feature":"56","num_nodes":"23","size_leaf_vector":"1"}},{"base_weights":[3.5499267E-3,-6.7840123E-1,1.2632548E0,1.213495E-2,-8.658047E-1,1.555086E-2,-2.531615E-1,3.2699218E-1,-1.0388285E0,4.142706E-3,-8.240601E-3,-4.7014845E-3,8.946301E-3,1.5245766E-3,-1.1345534E0,-6.096254E-1,-1.2579854E0,-9.75666E-1,4.995563E-3,-2.6740995E-3,-1.3081905E-2,-1.0864718E-2,-3.0747885E-3],"categories":[],"categories_nodes":[],"categories_segments":[],"categories_sizes":[],"default_left":[1,0,0,0,1,0,0,1,0,0,0,0,0,0,0,0,0,0,0,0,0,0,0],"id":41,"left_children":[1,3,5,-1,7,-1,9,11,13,-1,-1,-1,-1,-1,15,17,19,21,-1,-1,-1,-1,-1],"loss_changes":[3.768506E1,1.1142488E1,7.211588E0,0E0,5.8051414E0,0E0,1.6164888E0,2.2827673E0,2.8376198E0,0E0,0E0,0E0,0E0,0E0,6.4216805E-1,2.9560804E0,4.790535E-1,2.9489517E-2,0E0,0E0,0E0,0E0,0E0],"parents":[2147483647,0,0,1,1,2,2,4,4,6,6,7,7,8,8,14,14,15,15,16,16,17,17],"right_children":[2,4,6,-1,8,-1,10,12,14,-1,-1,-1,-1,-1,16,18,20,22,-1,-1,-1,-1,-1],"split_conditions":[1E0,-9.6E0,3E0,1.213495E-2,3.8E1,1.555086E-2,9.8E1,1.91E0,-2.8E-1,4.142706E-3,-8.240601E-3,-4.7014845E-3,8.946301E-3,1.5245766E-3,7.52E1,6.34E1,1.67E0,5E0,4.995563E-3,-2.6740995E-3,-1.3081905E-2,-1.0864718E-2,-3.0747885E-3],"split_indices":[42,53,42,0,41,0,40,36,55,0,0,0,0,0,37,38,36,3,0,0,0,0,0],"split_type":[0,0,0,0,0,0,0,0,0,0,0,0,0,0,0,0,0,0,0,0,0,0,0],"sum_hessian":[4.1870335E1,2.7463963E1,1.4406372E1,1.9817973E0,2.5482164E1,1.2059957E1,2.346415E0,3.1153827E0,2.2366781E1,1.2082338E0,1.1381811E0,1.3671807E0,1.7482018E0,1.6195072E0,2.0747274E1,5.08041E0,1.5666864E1,3.910335E0,1.1700749E0,1.0609084E0,1.4605956E1,2.8171637E0,1.0931712E0],"tree_param":{"num_deleted":"0","num_feature":"56","num_nodes":"23","size_leaf_vector":"1"}},{"base_weights":[3.6268476E-3,-6.742119E-1,1.2544597E0,1.2063914E-2,-8.6101276E-1,1.5449865E-2,-2.520055E-1,3.8183464E-3,-1.113407E0,4.1329763E-3,-8.218028E-3,7.451444E-1,-6.913173E-1,-1.1004749E-3,-1.1881584E0,1.3426062E-2,-3.7385344E-3,-9.940879E-3,5.990841E-4,-2.504299E-3,-1.269967E0,-1.3167464E-2,-2.980626E-3],"categories":[1,2,3],"categories_nodes":[14],"categories_segments":[0],"categories_sizes":[3],"default_left":[1,0,0,0,1,0,0,0,0,0,0,0,1,0,1,0,0,0,0,0,0,0,0],"id":42,"left_children":[1,3,5,-1,7,-1,9,11,13,-1,-1,15,17,-1,19,-1,-1,-1,-1,-1,21,-1,-1],"loss_changes":[3.707832E1,1.10034275E1,7.1156864E0,0E0,5.763735E0,0E0,1.6074944E0,4.100474E0,1.401432E0,0E0,0E0,3.0746448E0,9.942188E-1,0E0,1.1326294E0,0E0,0E0,0E0,0E0,0E0,3.871212E-1,0E0,0E0],"parents":[2147483647,0,0,1,1,2,2,4,4,6,6,7,7,8,8,11,11,12,12,14,14,20,20],"right_children":[2,4,6,-1,8,-1,10,12,14,-1,-1,16,18,-1,20,-1,-1,-1,-1,-1,22,-1,-1],"split_conditions":[1E0,-9.6E0,3E0,1.2063914E-2,4.8E1,1.5449865E-2,3E0,-1.4E-1,4.81E1,4.1329763E-3,-8.218028E-3,7.52E1,7.7E1,-1.1004749E-3,NaN,1.3426062E-2,-3.7385344E-3,-9.940879E-3,5.990841E-4,-2.504299E-3,1E0,-1.3167464E-2,-2.980626E-3],"split_indices":[42,53,42,0,41,0,53,55,38,0,0,37,37,0,49,0,0,0,0,0,11,0,0],"split_type":[0,0,0,0,0,0,0,0,0,0,0,0,0,0,1,0,0,0,0,0,0,0,0],"sum_hessian":[4.1733963E1,2.7365381E1,1.4368582E1,1.9794321E0,2.538595E1,1.202412E1,2.3444614E0,5.957477E0,1.9428473E1,1.2082964E0,1.1361649E0,2.8481414E0,3.109336E0,1.518492E0,1.790998E1,1.7264934E0,1.1216482E0,1.985729E0,1.1236069E0,1.7629855E0,1.6146994E1,1.5066983E1,1.0800116E0],"tree_param":{"num_deleted":"0","num_feature":"56","num_nodes":"23","size_leaf_vector":"1"}},{"base_weights":[3.6890076E-3,-6.700447E-1,1.2458217E0,1.1993844E-2,-8.5623336E-1,1.5350915E-2,-2.5085858E-1,3.827519E-3,-1.108036E0,4.123266E-3,-8.195647E-3,7.40245E-1,-6.8778527E-1,-1.1791955E0,-7.7760254E-4,1.3336379E-2,-3.7207787E-3,-9.897176E-3,5.9587054E-4,-2.3807338E-3,-1.2611239E0,-1.30764125E-2,-2.9221177E-3],"categories":[1,2,3],"categories_nodes":[13],"categories_segments":[0],"categories_sizes":[3],"default_left":[1,0,0,0,1,0,0,0,1,0,0,0,1,1,0,0,0,0,0,0,0,0,0],"id":43,"left_children":[1,3,5,-1,7,-1,9,11,13,-1,-1,15,17,19,-1,-1,-1,-1,-1,-1,21,-1,-1],"loss_changes":[3.648356E1,1.0866169E1,7.022011E0,0E0,5.6980247E0,0E0,1.5985733E0,4.049238E0,1.3995514E0,0E0,0E0,3.036036E0,9.847872E-1,1.1613426E0,0E0,0E0,0E0,0E0,0E0,0E0,3.9334297E-1,0E0,0E0],"parents":[2147483647,0,0,1,1,2,2,4,4,6,6,7,7,8,8,11,11,12,12,13,13,20,20],"right_children":[2,4,6,-1,8,-1,10,12,14,-1,-1,16,18,20,-1,-1,-1,-1,-1,-1,22,-1,-1],"split_conditions":[1E0,-9.6E0,3E0,1.1993844E-2,4.8E1,1.5350915E-2,-3E-2,-1.4E-1,1E0,4.123266E-3,-8.195647E-3,7.52E1,7.7E1,NaN,-7.7760254E-4,1.3336379E-2,-3.7207787E-3,-9.897176E-3,5.9587054E-4,-2.3807338E-3,3.5E-1,-1.30764125E-2,-2.9221177E-3],"split_indices":[42,53,42,0,41,0,55,55,35,0,0,37,37,49,0,0,0,0,0,0,55,0,0],"split_type":[0,0,0,0,0,0,0,0,0,0,0,0,0,1,0,0,0,0,0,0,0,0,0],"sum_hessian":[4.1597942E1,2.7268211E1,1.4329731E1,1.9769409E0,2.5291271E1,1.1987241E1,2.3424902E0,5.9507155E0,1.9340555E1,1.20836E0,1.1341302E0,2.8479502E0,3.1027656E0,1.7955832E1,1.3847241E0,1.7274418E0,1.1205083E0,1.979002E0,1.1237637E0,1.7507393E0,1.6205091E1,1.5129147E1,1.0759449E0],"tree_param":{"num_deleted":"0","num_feature":"56","num_nodes":"23","size_leaf_vector":"1"}},{"base_weights":[3.7608324E-3,-6.6593605E-1,1.2373356E0,1.192472E-2,-8.515275E-1,1.5253946E-2,-2.4972081E-1,3.8324015E-3,-1.1027656E0,4.127972E-3,-8.183932E-3,7.354056E-1,-6.842841E-1,-1.0500894E-3,-1.1777298E0,1.3248038E-2,-3.7031178E-3,-9.853899E-3,5.926736E-4,-2.4768484E-3,-1.2595721E0,-1.3066143E-2,-2.9172509E-3],"categories":[0,1,2,3],"categories_nodes":[6,14],"categories_segments":[0,1],"categories_sizes":[1,3],"default_left":[1,0,0,0,1,0,1,0,0,0,0,0,1,0,1,0,0,0,0,0,0,0,0],"id":44,"left_children":[1,3,5,-1,7,-1,9,11,13,-1,-1,15,17,-1,19,-1,-1,-1,-1,-1,21,-1,-1],"loss_changes":[3.5900455E1,1.073117E1,6.9304867E0,0E0,5.6335125E0,0E0,1.5963836E0,3.998771E0,1.3910465E0,0E0,0E0,2.998104E0,9.7548175E-1,0E0,1.114315E0,0E0,0E0,0E0,0E0,0E0,3.918209E-1,0E0,0E0],"parents":[2147483647,0,0,1,1,2,2,4,4,6,6,7,7,8,8,11,11,12,12,14,14,20,20],"right_children":[2,4,6,-1,8,-1,10,12,14,-1,-1,16,18,-1,20,-1,-1,-1,-1,-1,22,-1,-1],"split_conditions":[1E0,-9.6E0,3E0,1.192472E-2,4.8E1,1.5253946E-2,NaN,-1.4E-1,4.81E1,4.127972E-3,-8.183932E-3,7.52E1,7.7E1,-1.0500894E-3,NaN,1.3248038E-2,-3.7031178E-3,-9.853899E-3,5.926736E-4,-2.4768484E-3,1E0,-1.3066143E-2,-2.9172509E-3],"split_indices":[42,53,42,0,41,0,0,55,38,0,0,37,37,0,49,0,0,0,0,0,11,0,0],"split_type":[0,0,0,0,0,0,1,0,0,0,0,0,0,0,1,0,0,0,0,0,0,0,0],"sum_hessian":[4.1459225E1,2.716937E1,1.4289856E1,1.9743264E0,2.5195044E1,1.1949353E1,2.3405018E0,5.9437656E0,1.9251278E1,1.2076557E0,1.1328462E0,2.847604E0,3.0961618E0,1.5130975E0,1.773818E1,1.7282356E0,1.1193684E0,1.9722424E0,1.1239194E0,1.7603354E0,1.5977845E1,1.4903444E1,1.0744014E0],"tree_param":{"num_deleted":"0","num_feature":"56","num_nodes":"23","size_leaf_vector":"1"}},{"base_weights":[3.8204112E-3,-6.61862E-1,1.2289965E0,1.18565215E-2,-8.468528E-1,1.5158902E-2,-2.4858996E-1,3.8331035E-3,-1.0975116E0,4.1038906E-3,-8.151199E-3,7.306251E-1,-6.808133E-1,-1.1689428E0,-7.326756E-4,1.3161002E-2,-3.6855522E-3,-9.811041E-3,5.894947E-4,-2.3532663E-3,-1.2509383E0,-1.2977287E-2,-2.8591864E-3],"categories":[0,1,2,3],"categories_nodes":[6,13],"categories_segments":[0,1],"categories_sizes":[1,3],"default_left":[1,0,0,0,1,0,1,0,1,0,0,0,1,1,0,0,0,0,0,0,0,0,0],"id":45,"left_children":[1,3,5,-1,7,-1,9,11,13,-1,-1,15,17,19,-1,-1,-1,-1,-1,-1,21,-1,-1],"loss_changes":[3.5328907E1,1.059807E1,6.8410454E0,0E0,5.5694847E0,0E0,1.5808864E0,3.9490564E0,1.3895416E0,0E0,0E0,2.9608328E0,9.6629894E-1,1.1434021E0,0E0,0E0,0E0,0E0,0E0,0E0,3.9808464E-1,0E0,0E0],"parents":[2147483647,0,0,1,1,2,2,4,4,6,6,7,7,8,8,11,11,12,12,13,13,20,20],"right_children":[2,4,6,-1,8,-1,10,12,14,-1,-1,16,18,20,-1,-1,-1,-1,-1,-1,22,-1,-1],"split_conditions":[1E0,-9.6E0,3E0,1.18565215E-2,4.8E1,1.5158902E-2,NaN,-1.4E-1,1E0,4.1038906E-3,-8.151199E-3,7.52E1,7.7E1,NaN,-7.326756E-4,1.3161002E-2,-3.6855522E-3,-9.811041E-3,5.894947E-4,-2.3532663E-3,3.5E-1,-1.2977287E-2,-2.8591864E-3],"split_indices":[42,53,42,0,41,0,0,55,35,0,0,37,37,49,0,0,0,0,0,0,55,0,0],"split_type":[0,0,0,0,0,0,1,0,0,0,0,0,0,1,0,0,0,0,0,0,0,0,0],"sum_hessian":[4.132026E1,2.707125E1,1.4249006E1,1.9715916E0,2.5099659E1,1.1910497E1,2.33851E0,5.9366317E0,1.9163029E1,1.2084584E0,1.1300515E0,2.847106E0,3.0895257E0,1.7781656E1,1.3813722E0,1.7288775E0,1.1182286E0,1.9654516E0,1.1240742E0,1.7480488E0,1.6033607E1,1.4963319E1,1.0702881E0],"tree_param":{"num_deleted":"0","num_feature":"56","num_nodes":"23","size_leaf_vector":"1"}},{"base_weights":[3.889748E-3,-6.57844E-1,1.2208018E0,1.1789229E-2,-8.422488E-1,1.5065725E-2,-2.474701E-1,3.214601E-1,-1.0137211E0,4.10856E-3,-8.139733E-3,-4.566967E-3,8.715956E-3,-1.1108794E0,1.6169604E-3,-4.363832E-1,-1.2926592E-2,-1.035686E-2,3.6130458E-1,5.375599E-4,5.005172E-3],"categories":[],"categories_nodes":[],"categories_segments":[],"categories_sizes":[],"default_left":[1,0,0,0,1,0,0,1,1,0,0,0,0,0,0,1,0,0,0,0,0],"id":46,"left_children":[1,3,5,-1,7,-1,9,11,13,-1,-1,-1,-1,15,-1,17,-1,-1,19,-1,-1],"loss_changes":[3.4768433E1,1.0467143E1,6.753607E0,0E0,5.5145664E0,0E0,1.5787488E0,2.1526654E0,2.7953072E0,0E0,0E0,0E0,0E0,2.0453491E0,0E0,3.255787E0,0E0,0E0,1.1554843E-1,0E0,0E0],"parents":[2147483647,0,0,1,1,2,2,4,4,6,6,7,7,8,8,13,13,15,15,18,18],"right_children":[2,4,6,-1,8,-1,10,12,14,-1,-1,-1,-1,16,-1,18,-1,-1,20,-1,-1],"split_conditions":[1E0,-9.6E0,3E0,1.1789229E-2,3.8E1,1.5065725E-2,-3E-2,1.91E0,1E0,4.10856E-3,-8.139733E-3,-4.566967E-3,8.715956E-3,7.52E1,1.6169604E-3,2E0,-1.2926592E-2,-1.035686E-2,2.52E0,5.375599E-4,5.005172E-3],"split_indices":[42,53,42,0,41,0,55,36,35,0,0,0,0,37,0,48,0,0,39,0,0],"split_type":[0,0,0,0,0,0,0,0,0,0,0,0,0,0,0,0,0,0,0,0,0],"sum_hessian":[4.1178722E1,2.6971529E1,1.4207192E1,1.9687393E0,2.5002789E1,1.1870704E1,2.3364882E0,3.0986798E0,2.190411E1,1.2077401E0,1.1287483E0,1.3537174E0,1.7449625E0,2.0282495E1,1.6216146E0,5.027715E0,1.525478E1,2.7004826E0,2.3272324E0,1.1571028E0,1.1701297E0],"tree_param":{"num_deleted":"0","num_feature":"56","num_nodes":"21","size_leaf_vector":"1"}},{"base_weights":[4.1144034E-3,-6.53731E-1,1.2127454E0,1.172282E-2,-8.375738E-1,1.4974358E-2,-2.4635702E-1,5.68038E-3,-1.0875708E0,4.0988782E-3,-8.117787E-3,7.2604287E-1,-6.7493373E-1,-9.5702294E-4,-1.1630422E0,1.3050341E-2,-3.647438E-3,-9.744295E-3,6.046404E-4,-2.4155688E-3,-1.24515E0,-1.2926721E-2,-2.8149846E-3],"categories":[1,2,3],"categories_nodes":[14],"categories_segments":[0],"categories_sizes":[3],"default_left":[1,0,0,0,1,0,0,0,0,0,0,0,1,0,1,0,0,0,0,0,0,0,0],"id":47,"left_children":[1,3,5,-1,7,-1,9,11,13,-1,-1,15,17,-1,19,-1,-1,-1,-1,-1,21,-1,-1],"loss_changes":[3.4211937E1,1.03369055E1,6.66811E0,0E0,5.4664993E0,0E0,1.5700077E0,3.881741E0,1.3846321E0,0E0,0E0,2.9027655E0,9.5648944E-1,0E0,1.0975208E0,0E0,0E0,0E0,0E0,0E0,4.0218544E-1,0E0,0E0],"parents":[2147483647,0,0,1,1,2,2,4,4,6,6,7,7,8,8,11,11,12,12,14,14,20,20],"right_children":[2,4,6,-1,8,-1,10,12,14,-1,-1,16,18,-1,20,-1,-1,-1,-1,-1,22,-1,-1],"split_conditions":[1E0,-9.6E0,3E0,1.172282E-2,4.8E1,1.4974358E-2,3E0,-1.4E-1,4.81E1,4.0988782E-3,-8.117787E-3,7.52E1,7.7E1,-9.5702294E-4,NaN,1.3050341E-2,-3.647438E-3,-9.744295E-3,6.046404E-4,-2.4155688E-3,1E0,-1.2926721E-2,-2.8149846E-3],"split_indices":[42,53,42,0,41,0,53,55,38,0,0,37,37,0,49,0,0,0,0,0,11,0,0],"split_type":[0,0,0,0,0,0,0,0,0,0,0,0,0,0,1,0,0,0,0,0,0,0,0],"sum_hessian":[4.1031757E1,2.6867287E1,1.4164471E1,1.9657725E0,2.4901514E1,1.1830008E1,2.3344634E0,5.9177794E0,1.8983734E1,1.2077683E0,1.126695E0,2.8425138E0,3.0752656E0,1.5027106E0,1.7481024E1,1.7285703E0,1.1139435E0,1.9543183E0,1.1209472E0,1.7526954E0,1.5728328E1,1.4663759E1,1.064569E0],"tree_param":{"num_deleted":"0","num_feature":"56","num_nodes":"23","size_leaf_vector":"1"}},{"base_weights":[4.171823E-3,-6.497824E-1,1.2048247E0,1.165728E-2,-8.3303916E-1,1.4884749E-2,-2.4525277E-1,5.6623835E-3,-1.0824755E0,4.0892228E-3,-8.096031E-3,7.213863E-1,-6.7154014E-1,-9.514701E-4,-1.1579404E0,1.2966257E-2,-3.6301787E-3,-9.702486E-3,6.013998E-4,-2.4013987E-3,-1.2400967E0,-1.2876413E-2,-2.8019338E-3],"categories":[0,1,2,3],"categories_nodes":[6,14],"categories_segments":[0,1],"categories_sizes":[1,3],"default_left":[1,0,0,0,1,0,1,0,0,0,0,0,1,0,1,0,0,0,0,0,0,0,0],"id":48,"left_children":[1,3,5,-1,7,-1,9,11,13,-1,-1,15,17,-1,19,-1,-1,-1,-1,-1,21,-1,-1],"loss_changes":[3.3672928E1,1.0209679E1,6.58449E0,0E0,5.4046936E0,0E0,1.5613415E0,3.833761E0,1.3721867E0,0E0,0E0,2.8671036E0,9.475715E-1,0E0,1.0890884E0,0E0,0E0,0E0,0E0,0E0,3.9871025E-1,0E0,0E0],"parents":[2147483647,0,0,1,1,2,2,4,4,6,6,7,7,8,8,11,11,12,12,14,14,20,20],"right_children":[2,4,6,-1,8,-1,10,12,14,-1,-1,16,18,-1,20,-1,-1,-1,-1,-1,22,-1,-1],"split_conditions":[1E0,-9.6E0,3E0,1.165728E-2,4.8E1,1.4884749E-2,NaN,-1.4E-1,4.81E1,4.0892228E-3,-8.096031E-3,7.52E1,7.7E1,-9.514701E-4,NaN,1.2966257E-2,-3.6301787E-3,-9.702486E-3,6.013998E-4,-2.4013987E-3,1E0,-1.2876413E-2,-2.8019338E-3],"split_indices":[42,53,42,0,41,0,0,55,38,0,0,37,37,0,49,0,0,0,0,0,11,0,0],"split_type":[0,0,0,0,0,0,1,0,0,0,0,0,0,0,1,0,0,0,0,0,0,0,0],"sum_hessian":[4.088898E1,2.6768118E1,1.4120863E1,1.9626939E0,2.4805424E1,1.1788441E1,2.3324223E0,5.9102335E0,1.8895191E1,1.207797E0,1.1246252E0,2.841673E0,3.0685606E0,1.5022047E0,1.7392986E1,1.7288655E0,1.1128074E0,1.947456E0,1.1211047E0,1.7513149E0,1.5641671E1,1.45781765E1,1.0634952E0],"tree_param":{"num_deleted":"0","num_feature":"56","num_nodes":"23","size_leaf_vector":"1"}},{"base_weights":[4.227395E-3,-6.4587784E-1,1.1970353E0,1.1592589E-2,-8.2855415E-1,1.4796849E-2,-2.4415724E-1,3.17794E-1,-9.990985E-1,4.0938067E-3,-8.084782E-3,-4.490915E-3,8.578914E-3,1.7480509E-3,-1.0964969E0,-5.7127714E-1,-1.2231305E0,-9.421018E-1,5.189242E-3,-2.3804994E-3,-1.2748955E-2,-1.051361E-2,-2.8964463E-3],"categories":[],"categories_nodes":[],"categories_segments":[],"categories_sizes":[],"default_left":[1,0,0,0,1,0,0,1,0,0,0,0,0,0,0,0,0,0,0,0,0,0,0],"id":49,"left_children":[1,3,5,-1,7,-1,9,11,13,-1,-1,-1,-1,-1,15,17,19,21,-1,-1,-1,-1,-1],"loss_changes":[3.3144302E1,1.0084377E1,6.5026875E0,0E0,5.34371E0,0E0,1.5592313E0,2.078548E0,2.7780704E0,0E0,0E0,0E0,0E0,0E0,6.9965744E-1,2.8987222E0,5.156822E-1,3.788042E-2,0E0,0E0,0E0,0E0,0E0],"parents":[2147483647,0,0,1,1,2,2,4,4,6,6,7,7,8,8,14,14,15,15,16,16,17,17],"right_children":[2,4,6,-1,8,-1,10,12,14,-1,-1,-1,-1,-1,16,18,20,22,-1,-1,-1,-1,-1],"split_conditions":[1E0,-9.6E0,3E0,1.1592589E-2,3.8E1,1.4796849E-2,9.8E1,1.91E0,-2.8E-1,4.0938067E-3,-8.084782E-3,-4.490915E-3,8.578914E-3,1.7480509E-3,7.52E1,6.34E1,1.67E0,7.17E1,5.189242E-3,-2.3804994E-3,-1.2748955E-2,-1.051361E-2,-2.8964463E-3],"split_indices":[42,53,42,0,41,0,40,36,55,0,0,0,0,0,37,38,36,37,0,0,0,0,0],"split_type":[0,0,0,0,0,0,0,0,0,0,0,0,0,0,0,0,0,0,0,0,0,0,0],"sum_hessian":[4.074497E1,2.6668566E1,1.4076403E1,1.9595063E0,2.470906E1,1.1746037E1,2.3303654E0,3.088134E0,2.1620926E1,1.2070483E0,1.1233172E0,1.3457705E0,1.7423637E0,1.5955596E0,2.0025366E1,4.9609213E0,1.5064445E1,3.8031514E0,1.1577702E0,1.0316162E0,1.4032828E1,2.733943E0,1.0692083E0],"tree_param":{"num_deleted":"0","num_feature":"56","num_nodes":"23","size_leaf_vector":"1"}},{"base_weights":[4.3106326E-3,-6.4198893E-1,1.1893733E0,1.1528731E-2,-8.240932E-1,1.471061E-2,-2.4306832E-1,7.9048155E-3,-1.0729666E0,4.069976E-3,-8.052827E-3,7.1708864E-1,-6.653022E-1,-1.145268E0,-6.1279465E-4,1.2861954E-2,-3.5930404E-3,-9.631548E-3,6.161487E-4,-2.2278472E-3,-1.228021E0,-1.2755971E-2,-2.6945225E-3],"categories":[1,2,3],"categories_nodes":[13],"categories_segments":[0],"categories_sizes":[3],"default_left":[1,0,0,0,1,0,0,0,1,0,0,0,1,1,0,0,0,0,0,0,0,0,0],"id":50,"left_children":[1,3,5,-1,7,-1,9,11,13,-1,-1,15,17,19,-1,-1,-1,-1,-1,-1,21,-1,-1],"loss_changes":[3.262452E1,9.960711E0,6.4226475E0,0E0,5.311701E0,0E0,1.5441655E0,3.7664852E0,1.3724022E0,0E0,0E0,2.812332E0,9.3694353E-1,1.1272163E0,0E0,0E0,0E0,0E0,0E0,0E0,4.141369E-1,0E0,0E0],"parents":[2147483647,0,0,1,1,2,2,4,4,6,6,7,7,8,8,11,11,12,12,13,13,20,20],"right_children":[2,4,6,-1,8,-1,10,12,14,-1,-1,16,18,20,-1,-1,-1,-1,-1,-1,22,-1,-1],"split_conditions":[1E0,-9.6E0,3E0,1.1528731E-2,4.8E1,1.471061E-2,9.8E1,-1.4E-1,1E0,4.069976E-3,-8.052827E-3,7.52E1,7.7E1,NaN,-6.1279465E-4,1.2861954E-2,-3.5930404E-3,-9.631548E-3,6.161487E-4,-2.2278472E-3,3.5E-1,-1.2755971E-2,-2.6945225E-3],"split_indices":[42,53,42,0,41,0,40,55,35,0,0,37,37,49,0,0,0,0,0,0,55,0,0],"split_type":[0,0,0,0,0,0,0,0,0,0,0,0,0,1,0,0,0,0,0,0,0,0,0],"sum_hessian":[4.0599068E1,2.6567936E1,1.4031134E1,1.9562124E0,2.4611723E1,1.1702828E1,2.3283055E0,5.8898506E0,1.8721872E1,1.2078259E0,1.1204796E0,2.8365402E0,3.0533104E0,1.7349905E1,1.3719671E0,1.7280033E0,1.108537E0,1.9353285E0,1.117982E0,1.7322265E0,1.561768E1,1.45640955E1,1.0535836E0],"tree_param":{"num_deleted":"0","num_feature":"56","num_nodes":"23","size_leaf_vector":"1"}},{"base_weights":[4.3780254E-3,-6.381679E-1,1.1818362E0,1.1465685E-2,-8.197089E-1,1.46259805E-2,-2.4198997E-1,7.866546E-3,-1.068058E0,4.0745256E-3,-8.041817E-3,7.1254945E-1,-6.619868E-1,-8.707848E-4,-1.1440157E0,1.2780637E-2,-3.576079E-3,-9.5907925E-3,6.128504E-4,-4.289929E-1,-1.2697939E-2,-9.558518E-3,5.184889E-3],"categories":[0],"categories_nodes":[6],"categories_segments":[0],"categories_sizes":[1],"default_left":[1,0,0,0,1,0,1,0,0,0,0,0,1,0,0,0,0,0,0,0,0,0,0],"id":51,"left_children":[1,3,5,-1,7,-1,9,11,13,-1,-1,15,17,-1,19,-1,-1,-1,-1,21,-1,-1,-1],"loss_changes":[3.2115463E1,9.839165E0,6.344301E0,0E0,5.252222E0,0E0,1.5421053E0,3.7201998E0,1.3632221E0,0E0,0E0,2.778174E0,9.282929E-1,0E0,1.086565E0,0E0,0E0,0E0,0E0,2.6040037E0,0E0,0E0,0E0],"parents":[2147483647,0,0,1,1,2,2,4,4,6,6,7,7,8,8,11,11,12,12,14,14,19,19],"right_children":[2,4,6,-1,8,-1,10,12,14,-1,-1,16,18,-1,20,-1,-1,-1,-1,22,-1,-1,-1],"split_conditions":[1E0,-9.6E0,3E0,1.1465685E-2,4.8E1,1.46259805E-2,NaN,-1.4E-1,4.81E1,4.0745256E-3,-8.041817E-3,7.52E1,7.7E1,-8.707848E-4,7.5E1,1.2780637E-2,-3.576079E-3,-9.5907925E-3,6.128504E-4,6.34E1,-1.2697939E-2,-9.558518E-3,5.184889E-3],"split_indices":[42,53,42,0,41,0,0,55,38,0,0,37,37,0,37,0,0,0,0,38,0,0,0],"split_type":[0,0,0,0,0,0,1,0,0,0,0,0,0,0,0,0,0,0,0,0,0,0,0],"sum_hessian":[4.045183E1,2.646677E1,1.3985062E1,1.9528147E0,2.4513954E1,1.1658844E1,2.326218E0,5.8819194E0,1.8632036E1,1.2070636E0,1.1191543E0,2.8353763E0,3.0465431E0,1.4932601E0,1.7138775E1,1.7279706E0,1.1074057E0,1.9284011E0,1.118142E0,3.2236586E0,1.3915117E1,2.0659997E0,1.1576587E0],"tree_param":{"num_deleted":"0","num_feature":"56","num_nodes":"23","size_leaf_vector":"1"}},{"base_weights":[4.450008E-3,-6.343963E-1,1.1744195E0,1.1403435E-2,-8.1538516E-1,1.4542919E-2,-2.4091816E-1,7.824969E-3,-1.0632293E0,4.0649166E-3,-8.020484E-3,7.080635E-1,-6.586992E-1,-1.1359257E0,-5.6374056E-4,1.2700469E-2,-3.5592066E-3,-9.550413E-3,6.095691E-4,-2.1798126E-3,-1.2189863E0,-1.2666492E-2,-2.6635188E-3],"categories":[1,2,3],"categories_nodes":[13],"categories_segments":[0],"categories_sizes":[3],"default_left":[1,0,0,0,1,0,0,0,1,0,0,0,1,1,0,0,0,0,0,0,0,0,0],"id":52,"left_children":[1,3,5,-1,7,-1,9,11,13,-1,-1,15,17,19,-1,-1,-1,-1,-1,-1,21,-1,-1],"loss_changes":[3.1616016E1,9.719532E0,6.2676144E0,0E0,5.193735E0,0E0,1.5336192E0,3.6745954E0,1.366291E0,0E0,0E0,2.7445889E0,9.19752E-1,1.1199036E0,0E0,0E0,0E0,0E0,0E0,0E0,4.0943146E-1,0E0,0E0],"parents":[2147483647,0,0,1,1,2,2,4,4,6,6,7,7,8,8,11,11,12,12,13,13,20,20],"right_children":[2,4,6,-1,8,-1,10,12,14,-1,-1,16,18,20,-1,-1,-1,-1,-1,-1,22,-1,-1],"split_conditions":[1E0,-9.6E0,3E0,1.1403435E-2,4.8E1,1.4542919E-2,3E0,-1.4E-1,1E0,4.0649166E-3,-8.020484E-3,7.52E1,7.7E1,NaN,-5.6374056E-4,1.2700469E-2,-3.5592066E-3,-9.550413E-3,6.095691E-4,-2.1798126E-3,3.5E-1,-1.2666492E-2,-2.6635188E-3],"split_indices":[42,53,42,0,41,0,53,55,35,0,0,37,37,49,0,0,0,0,0,0,55,0,0],"split_type":[0,0,0,0,0,0,0,0,0,0,0,0,0,1,0,0,0,0,0,0,0,0,0],"sum_hessian":[4.0302784E1,2.6364542E1,1.3938242E1,1.949316E0,2.4415226E1,1.1614114E1,2.3241274E0,5.87383E0,1.8541395E1,1.2070571E0,1.1170704E0,2.8340766E0,3.039753E0,1.717327E1,1.3681259E0,1.7278019E0,1.1062748E0,1.9214518E0,1.118301E0,1.7257297E0,1.544754E1,1.4397562E1,1.0499785E0],"tree_param":{"num_deleted":"0","num_feature":"56","num_nodes":"23","size_leaf_vector":"1"}},{"base_weights":[4.5154267E-3,-6.306534E-1,1.1671203E0,1.13419695E-2,-8.110886E-1,1.44613795E-2,-2.3985474E-1,7.780343E-3,-1.0584174E0,4.0553366E-3,-7.9993345E-3,7.0362985E-1,-6.554389E-1,-1.1311399E0,-5.6053605E-4,1.2621428E-2,-3.5424228E-3,-9.510402E-3,6.063052E-4,-2.1670419E-3,-1.2142849E0,-1.2620706E-2,-2.631443E-3],"categories":[1,2,3],"categories_nodes":[13],"categories_segments":[0],"categories_sizes":[3],"default_left":[1,0,0,0,1,0,0,0,1,0,0,0,1,1,0,0,0,0,0,0,0,0,0],"id":53,"left_children":[1,3,5,-1,7,-1,9,11,13,-1,-1,15,17,19,-1,-1,-1,-1,-1,-1,21,-1,-1],"loss_changes":[3.1125889E1,9.601544E0,6.1925163E0,0E0,5.13571E0,0E0,1.5252057E0,3.6296594E0,1.3545036E0,0E0,0E0,2.7115664E0,9.11319E-1,1.1117687E0,0E0,0E0,0E0,0E0,0E0,0E0,4.1143608E-1,0E0,0E0],"parents":[2147483647,0,0,1,1,2,2,4,4,6,6,7,7,8,8,11,11,12,12,13,13,20,20],"right_children":[2,4,6,-1,8,-1,10,12,14,-1,-1,16,18,20,-1,-1,-1,-1,-1,-1,22,-1,-1],"split_conditions":[1E0,-9.6E0,3E0,1.13419695E-2,4.8E1,1.44613795E-2,-3E-2,-1.4E-1,1E0,4.0553366E-3,-7.9993345E-3,7.52E1,7.7E1,NaN,-5.6053605E-4,1.2621428E-2,-3.5424228E-3,-9.510402E-3,6.063052E-4,-2.1670419E-3,1E0,-1.2620706E-2,-2.631443E-3],"split_indices":[42,53,42,0,41,0,55,55,35,0,0,37,37,49,0,0,0,0,0,0,11,0,0],"split_type":[0,0,0,0,0,0,0,0,0,0,0,0,0,1,0,0,0,0,0,0,0,0,0],"sum_hessian":[4.015353E1,2.626284E1,1.3890692E1,1.9457191E0,2.4317122E1,1.1568669E1,2.3220224E0,5.865586E0,1.8451536E1,1.207051E0,1.1149714E0,2.8326445E0,3.0329413E0,1.708363E1,1.3679051E0,1.7274998E0,1.1051446E0,1.9144821E0,1.1184591E0,1.7244408E0,1.535919E1,1.4313187E1,1.0460031E0],"tree_param":{"num_deleted":"0","num_feature":"56","num_nodes":"23","size_leaf_vector":"1"}},{"base_weights":[4.579469E-3,-6.2694925E-1,1.1599355E0,1.1281266E-2,-8.068356E-1,1.4381322E-2,-2.3879968E-1,3.1265348E-1,-9.759898E-1,4.0598055E-3,-7.988527E-3,-4.3658735E-3,8.367195E-3,1.8738998E-3,-1.074481E0,-5.506523E-1,-1.202716E0,-9.225542E-1,5.218624E-3,-2.2013949E-3,-1.2555725E-2,-1.0314273E-2,-2.781268E-3],"categories":[0],"categories_nodes":[6],"categories_segments":[0],"categories_sizes":[1],"default_left":[1,0,0,0,1,0,1,1,0,0,0,0,0,0,0,0,0,0,0,0,0,0,0],"id":54,"left_children":[1,3,5,-1,7,-1,9,11,13,-1,-1,-1,-1,-1,15,17,19,21,-1,-1,-1,-1,-1],"loss_changes":[3.064491E1,9.485291E0,6.118967E0,0E0,5.0807495E0,0E0,1.5231727E0,1.9625063E0,2.739481E0,0E0,0E0,0E0,0E0,0E0,7.1952057E-1,2.8307567E0,5.3799057E-1,4.5322895E-2,0E0,0E0,0E0,0E0,0E0],"parents":[2147483647,0,0,1,1,2,2,4,4,6,6,7,7,8,8,14,14,15,15,16,16,17,17],"right_children":[2,4,6,-1,8,-1,10,12,14,-1,-1,-1,-1,-1,16,18,20,22,-1,-1,-1,-1,-1],"split_conditions":[1E0,-9.6E0,3E0,1.1281266E-2,3.8E1,1.4381322E-2,NaN,1.91E0,-2.8E-1,4.0598055E-3,-7.988527E-3,-4.3658735E-3,8.367195E-3,1.8738998E-3,7.52E1,6.34E1,1.67E0,7.17E1,5.218624E-3,-2.2013949E-3,-1.2555725E-2,-1.0314273E-2,-2.781268E-3],"split_indices":[42,53,42,0,41,0,0,36,55,0,0,0,0,0,37,38,36,37,0,0,0,0,0],"split_type":[0,0,0,0,0,0,1,0,0,0,0,0,0,0,0,0,0,0,0,0,0,0,0],"sum_hessian":[4.0003326E1,2.6160889E1,1.3842439E1,1.9420261E0,2.4218863E1,1.1522536E1,2.3199027E0,3.067741E0,2.1151121E1,1.2062593E0,1.1136435E0,1.3313189E0,1.7364221E0,1.5804313E0,1.957069E1,4.889911E0,1.46807785E1,3.7347E0,1.1552114E0,1.0130751E0,1.3667704E1,2.6811917E0,1.0535082E0],"tree_param":{"num_deleted":"0","num_feature":"56","num_nodes":"23","size_leaf_vector":"1"}},{"base_weights":[4.666041E-3,-6.232271E-1,1.1528612E0,1.1221313E-2,-8.025589E-1,1.4302704E-2,-2.3775095E-1,9.928754E-3,-1.0494E0,4.036225E-3,-7.957315E-3,6.9956326E-1,-6.4942765E-1,-7.5061806E-4,-1.1261848E0,1.2523424E-2,-3.5064046E-3,-9.442601E-3,6.208356E-4,-4.1305125E-1,-1.2535204E-2,-9.397257E-3,5.187139E-3],"categories":[0],"categories_nodes":[6],"categories_segments":[0],"categories_sizes":[1],"default_left":[1,0,0,0,1,0,1,0,0,0,0,0,1,0,0,0,0,0,0,0,0,0,0],"id":55,"left_children":[1,3,5,-1,7,-1,9,11,13,-1,-1,15,17,-1,19,-1,-1,-1,-1,21,-1,-1,-1],"loss_changes":[3.0171288E1,9.370178E0,6.0469246E0,0E0,5.0486374E0,0E0,1.5085224E0,3.5665271E0,1.357666E0,0E0,0E0,2.6606755E0,9.014106E-1,0E0,1.0983677E0,0E0,0E0,0E0,0E0,2.5425856E0,0E0,0E0,0E0],"parents":[2147483647,0,0,1,1,2,2,4,4,6,6,7,7,8,8,11,11,12,12,14,14,19,19],"right_children":[2,4,6,-1,8,-1,10,12,14,-1,-1,16,18,-1,20,-1,-1,-1,-1,22,-1,-1,-1],"split_conditions":[1E0,-9.6E0,3E0,1.1221313E-2,4.8E1,1.4302704E-2,NaN,-1.4E-1,4.81E1,4.036225E-3,-7.957315E-3,7.52E1,7.7E1,-7.5061806E-4,7.5E1,1.2523424E-2,-3.5064046E-3,-9.442601E-3,6.208356E-4,6.34E1,-1.2535204E-2,-9.397257E-3,5.187139E-3],"split_indices":[42,53,42,0,41,0,0,55,38,0,0,37,37,0,37,0,0,0,0,38,0,0,0],"split_type":[0,0,0,0,0,0,1,0,0,0,0,0,0,0,0,0,0,0,0,0,0,0,0],"sum_hessian":[3.98531E1,2.6059574E1,1.3793525E1,1.9382398E0,2.4121334E1,1.1475744E1,2.3177807E0,5.8443127E0,1.8277021E1,1.2070119E0,1.1107688E0,2.8267634E0,3.0175493E0,1.4796028E0,1.6797419E1,1.7258692E0,1.1008942E0,1.9022043E0,1.1153449E0,3.187858E0,1.360956E1,2.0311944E0,1.1566638E0],"tree_param":{"num_deleted":"0","num_feature":"56","num_nodes":"23","size_leaf_vector":"1"}},{"base_weights":[4.7363383E-3,-6.196008E-1,1.1458963E0,1.1162094E-2,-7.9839826E-1,1.42254885E-2,-2.367125E-1,9.865801E-3,-1.0447537E0,4.0406603E-3,-7.946735E-3,6.952381E-1,-6.4624035E-1,-1.1182847E0,-4.6835418E-4,1.2446897E-2,-3.4899078E-3,-9.403561E-3,6.1751564E-4,-2.0792498E-3,-1.2021017E0,-1.2502548E-2,-2.5585527E-3],"categories":[1,2,3],"categories_nodes":[13],"categories_segments":[0],"categories_sizes":[3],"default_left":[1,0,0,0,1,0,0,0,1,0,0,0,1,1,0,0,0,0,0,0,0,0,0],"id":56,"left_children":[1,3,5,-1,7,-1,9,11,13,-1,-1,15,17,19,-1,-1,-1,-1,-1,-1,21,-1,-1],"loss_changes":[2.9707792E1,9.257359E0,5.97633E0,0E0,4.9927216E0,0E0,1.506537E0,3.5231612E0,1.3554859E0,0E0,0E0,2.6290126E0,8.9322126E-1,1.1102409E0,0E0,0E0,0E0,0E0,0E0,0E0,4.143448E-1,0E0,0E0],"parents":[2147483647,0,0,1,1,2,2,4,4,6,6,7,7,8,8,11,11,12,12,13,13,20,20],"right_children":[2,4,6,-1,8,-1,10,12,14,-1,-1,16,18,20,-1,-1,-1,-1,-1,-1,22,-1,-1],"split_conditions":[1E0,-9.6E0,3E0,1.1162094E-2,4.8E1,1.42254885E-2,-3E-2,-1.4E-1,1E0,4.0406603E-3,-7.946735E-3,7.52E1,7.7E1,NaN,-4.6835418E-4,1.2446897E-2,-3.4899078E-3,-9.403561E-3,6.1751564E-4,-2.0792498E-3,1E0,-1.2502548E-2,-2.5585527E-3],"split_indices":[42,53,42,0,41,0,55,55,35,0,0,37,37,49,0,0,0,0,0,0,11,0,0],"split_type":[0,0,0,0,0,0,0,0,0,0,0,0,0,1,0,0,0,0,0,0,0,0,0],"sum_hessian":[3.970046E1,2.5956505E1,1.3743954E1,1.9343626E0,2.4022142E1,1.1428321E1,2.3156328E0,5.8357296E0,1.8186413E1,1.2062069E0,1.1094259E0,2.8250368E0,3.0106926E0,1.6825981E1,1.3604311E0,1.7252669E0,1.0997698E0,1.8951874E0,1.1155052E0,1.712015E0,1.5113966E1,1.4076362E1,1.0376042E0],"tree_param":{"num_deleted":"0","num_feature":"56","num_nodes":"23","size_leaf_vector":"1"}},{"base_weights":[4.8007364E-3,-6.159978E-1,1.139036E0,1.1103592E-2,-7.942582E-1,1.4149634E-2,-2.3568007E-1,-8.3944604E-2,-1.0789932E0,4.0311147E-3,-7.925977E-3,8.7807775E-1,-6.761174E-1,-1.2103239E0,8.781844E-4,1.1560836E-2,1.2911443E-3,-1.0990517E-2,5.193615E-3,-1.26319295E-2,-2.1087602E-3],"categories":[],"categories_nodes":[],"categories_segments":[],"categories_sizes":[],"default_left":[1,0,0,0,0,0,0,0,0,0,0,0,0,1,0,0,0,0,0,0,0],"id":57,"left_children":[1,3,5,-1,7,-1,9,11,13,-1,-1,15,17,19,-1,-1,-1,-1,-1,-1,-1],"loss_changes":[2.92527E1,9.14603E0,5.9071465E0,0E0,4.9502745E0,0E0,1.498291E0,5.274393E0,2.8197384E0,0E0,0E0,5.931442E-1,3.4278772E0,5.781975E-1,0E0,0E0,0E0,0E0,0E0,0E0,0E0],"parents":[2147483647,0,0,1,1,2,2,4,4,6,6,7,7,8,8,11,11,12,12,13,13],"right_children":[2,4,6,-1,8,-1,10,12,14,-1,-1,16,18,20,-1,-1,-1,-1,-1,-1,-1],"split_conditions":[1E0,-9.6E0,3E0,1.1103592E-2,7.52E1,1.4149634E-2,3E0,-1.4E-1,1E0,4.0311147E-3,-7.925977E-3,2.59E0,6.3E1,1.5E1,8.781844E-4,1.1560836E-2,1.2911443E-3,-1.0990517E-2,5.193615E-3,-1.26319295E-2,-2.1087602E-3],"split_indices":[42,53,42,0,37,0,53,55,28,0,0,36,38,51,0,0,0,0,0,0,0],"split_type":[0,0,0,0,0,0,0,0,0,0,0,0,0,0,0,0,0,0,0,0,0],"sum_hessian":[3.9547897E1,2.5854124E1,1.3693775E1,1.9303969E0,2.3923727E1,1.1380293E1,2.3134828E0,7.2163334E0,1.6707394E1,1.2061675E0,1.1073153E0,2.5655797E0,4.650754E0,1.4983618E1,1.7237754E0,1.4746351E0,1.0909446E0,3.4949698E0,1.1557839E0,1.3980198E1,1.00342E0],"tree_param":{"num_deleted":"0","num_feature":"56","num_nodes":"21","size_leaf_vector":"1"}},{"base_weights":[5.1244395E-3,-6.120945E-1,1.1322784E0,1.1045797E-2,-7.8981405E-1,1.4075106E-2,-2.3465596E-1,1.2643235E-2,-1.0358123E0,4.0215957E-3,-7.905394E-3,6.899672E-1,-6.382941E-1,-6.6617224E-4,-1.113236E0,1.2311434E-2,-3.428487E-3,-9.329159E-3,6.7066407E-4,-4.0312275E-1,-1.24146445E-2,-9.3119815E-3,5.2280477E-3],"categories":[0],"categories_nodes":[6],"categories_segments":[0],"categories_sizes":[1],"default_left":[1,0,0,0,1,0,1,0,0,0,0,0,1,0,0,0,0,0,0,1,0,0,0],"id":58,"left_children":[1,3,5,-1,7,-1,9,11,13,-1,-1,15,17,-1,19,-1,-1,-1,-1,21,-1,-1,-1],"loss_changes":[2.879387E1,9.033199E0,5.8393364E0,0E0,4.9131804E0,0E0,1.490114E0,3.4438171E0,1.352375E0,0E0,0E0,2.5566285E0,8.924029E-1,0E0,1.0967369E0,0E0,0E0,0E0,0E0,2.5227623E0,0E0,0E0,0E0],"parents":[2147483647,0,0,1,1,2,2,4,4,6,6,7,7,8,8,11,11,12,12,14,14,19,19],"right_children":[2,4,6,-1,8,-1,10,12,14,-1,-1,16,18,-1,20,-1,-1,-1,-1,22,-1,-1,-1],"split_conditions":[1E0,-9.6E0,3E0,1.1045797E-2,4.8E1,1.4075106E-2,NaN,-1.4E-1,4.81E1,4.0215957E-3,-7.905394E-3,7.52E1,2.41E0,-6.6617224E-4,7.5E1,1.2311434E-2,-3.428487E-3,-9.329159E-3,6.7066407E-4,3E0,-1.24146445E-2,-9.3119815E-3,5.2280477E-3],"split_indices":[42,53,42,0,41,0,0,55,38,0,0,37,36,0,37,0,0,0,0,48,0,0,0],"split_type":[0,0,0,0,0,0,1,0,0,0,0,0,0,0,0,0,0,0,0,0,0,0,0],"sum_hessian":[3.939209E1,2.5749086E1,1.3643003E1,1.9263452E0,2.3822742E1,1.1331684E1,2.311319E0,5.812079E0,1.8010662E1,1.2061281E0,1.105191E0,2.8189254E0,2.9931538E0,1.4699652E0,1.6540697E1,1.7237084E0,1.095217E0,1.8837304E0,1.1094234E0,3.1637945E0,1.3376903E1,2.0111196E0,1.1526749E0],"tree_param":{"num_deleted":"0","num_feature":"56","num_nodes":"23","size_leaf_vector":"1"}},{"base_weights":[5.1937965E-3,-6.0857034E-1,1.1256208E0,1.0988692E-2,-7.857682E-1,1.400187E-2,-2.336397E-1,1.256201E-2,-1.031292E0,4.0259543E-3,-7.895006E-3,6.857654E-1,-6.3518476E-1,-1.1056687E0,-3.7615708E-4,1.2237794E-2,-3.4123969E-3,-9.291112E-3,6.6708215E-4,-2.0013575E-3,-1.1901126E0,-1.23873195E-2,-2.4808715E-3],"categories":[1,2,3],"categories_nodes":[13],"categories_segments":[0],"categories_sizes":[3],"default_left":[1,0,0,0,1,0,0,0,1,0,0,0,1,1,0,0,0,0,0,0,0,0,0],"id":59,"left_children":[1,3,5,-1,7,-1,9,11,13,-1,-1,15,17,19,-1,-1,-1,-1,-1,-1,21,-1,-1],"loss_changes":[2.8355272E1,8.925195E0,5.772852E0,0E0,4.8589544E0,0E0,1.4881549E0,3.4021914E0,1.3567352E0,0E0,0E0,2.5265822E0,8.84364E-1,1.1051426E0,0E0,0E0,0E0,0E0,0E0,0E0,4.1939926E-1,0E0,0E0],"parents":[2147483647,0,0,1,1,2,2,4,4,6,6,7,7,8,8,11,11,12,12,13,13,20,20],"right_children":[2,4,6,-1,8,-1,10,12,14,-1,-1,16,18,20,-1,-1,-1,-1,-1,-1,22,-1,-1],"split_conditions":[1E0,-9.6E0,3E0,1.0988692E-2,4.8E1,1.400187E-2,9.8E1,-1.4E-1,1E0,4.0259543E-3,-7.895006E-3,7.52E1,2.41E0,NaN,-3.7615708E-4,1.2237794E-2,-3.4123969E-3,-9.291112E-3,6.6708215E-4,-2.0013575E-3,3.5E-1,-1.23873195E-2,-2.4808715E-3],"split_indices":[42,53,42,0,41,0,40,55,35,0,0,37,36,49,0,0,0,0,0,0,55,0,0],"split_type":[0,0,0,0,0,0,0,0,0,0,0,0,0,1,0,0,0,0,0,0,0,0,0],"sum_hessian":[3.923723E1,2.5645561E1,1.3591665E1,1.9222097E0,2.3723352E1,1.1282523E1,2.309142E0,5.8031178E0,1.7920235E1,1.205295E0,1.1038473E0,2.8168604E0,2.9862576E0,1.6567455E1,1.3527784E0,1.7227622E0,1.0940982E0,1.8766603E0,1.1095972E0,1.700647E0,1.4866809E1,1.3837659E1,1.0291497E0],"tree_param":{"num_deleted":"0","num_feature":"56","num_nodes":"23","size_leaf_vector":"1"}},{"base_weights":[5.25805E-3,-6.0506487E-1,1.1190599E0,1.0932263E-2,-7.8173745E-1,1.3929889E-2,-2.3262966E-1,-8.042388E-2,-1.0653514E0,4.002623E-3,-7.864501E-3,8.667614E-1,-6.6614956E-1,-1.1978908E0,9.565155E-4,