{"learner":{"attributes":{"scikit_learn":"{\"_estimator_type\": \"classifier\"}"},"feature_names":["Sex","FamilialvsSporadic","Binary diagnosis","Final diagnosis","TOBACCO","Comorbidities","Radiological Pattern","Biopsy","Pathology Pattern Binary","Diagnosis after Biopsy","Antifibrotic Drug","Extrapulmonary affectation","Associated lung cancer","Other cancer","Hematological abnormality before diagnosis","Blood count abnormality at diagnosis","Anemia","Thrombocytopenia","Thrombocytosis","Lymphocytosis","Lymphopenia","Neutrophilia","Neutropenia","Leukocytosis","Leukopenia","Hematologic Disease","Liver abnormality before diagnosis","Liver abnormality","LDH","ALT","AST","ALP","GGT","Transaminitis","Cholestasis","Liver disease","FVC (L) at diagnosis","FVC (%) at diagnosis","DLCO (%) at diagnosis","1st degree relative","2nd degree relative","More than 1 relative","Genetic mutation studied in patient","Mutation Type","Severity of telomere shortening","Age_Group","Antiinflmatory Drug"],"feature_types":["c","c","c","int","int","int","c","float","c","float","int","float","float","float","float","float","float","float","float","float","float","float","float","float","float","float","float","float","int","int","int","int","int","int","int","float","float","float","float","int","int","int","float","int","float","c","int"],"gradient_booster":{"model":{"gbtree_model_param":{"num_parallel_tree":"1","num_trees":"50"},"iteration_indptr":[0,1,2,3,4,5,6,7,8,9,10,11,12,13,14,15,16,17,18,19,20,21,22,23,24,25,26,27,28,29,30,31,32,33,34,35,36,37,38,39,40,41,42,43,44,45,46,47,48,49,50],"tree_info":[0,0,0,0,0,0,0,0,0,0,0,0,0,0,0,0,0,0,0,0,0,0,0,0,0,0,0,0,0,0,0,0,0,0,0,0,0,0,0,0,0,0,0,0,0,0,0,0,0,0],"trees":[{"base_weights":[-5.3520644E-1,4.2935967E-1,-1.0632323E0,2.3291523E-2,-2.134767E-1,-1.1134409E-2,-3.9250012E-3,-5.4610145E-1,6.1201635E-3,-9.17041E-3,1.4067131E-1,-1.3429316E-3,3.4781676E-3],"categories":[2,3,0],"categories_nodes":[0,10],"categories_segments":[0,2],"categories_sizes":[2,1],"default_left":[1,0,0,0,1,0,0,0,0,0,1,0,0],"id":0,"left_children":[1,3,5,-1,7,-1,-1,9,-1,-1,11,-1,-1],"loss_changes":[1.3823032E1,1.2705574E1,1.4381027E-1,0E0,2.6366355E0,0E0,0E0,1.7862487E0,0E0,0E0,2.2603661E-1,0E0,0E0],"parents":[2147483647,0,0,1,1,2,2,4,4,7,7,10,10],"right_children":[2,4,6,-1,8,-1,-1,10,-1,-1,12,-1,-1],"split_conditions":[NaN,3.9E1,2.00001E0,2.3291523E-2,4E0,-1.1134409E-2,-3.9250012E-3,1E0,6.1201635E-3,-9.17041E-3,NaN,-1.3429316E-3,3.4781676E-3],"split_indices":[45,38,42,0,44,0,0,7,0,0,0,0,0],"split_type":[1,0,0,0,0,0,0,0,0,0,1,0,0],"sum_hessian":[2.524407E1,8.996557E0,1.6247513E1,1.6113236E0,7.3852334E0,1.4501913E1,1.7456006E0,5.505356E0,1.8798776E0,3.3569243E0,2.1484315E0,1.0742158E0,1.0742158E0],"tree_param":{"num_deleted":"0","num_feature":"47","num_nodes":"13","size_leaf_vector":"1"}},{"base_weights":[-5.31646E-1,4.2666048E-1,-1.0605398E0,2.2921793E-2,-2.1175689E-1,-1.1109245E-2,-3.9067096E-3,-5.43354E-1,6.0636345E-3,-9.143871E-3,1.3987173E-1,3.4713186E-3,-1.3479659E-3],"categories":[2,3],"categories_nodes":[0],"categories_segments":[0],"categories_sizes":[2],"default_left":[1,0,0,0,1,0,0,0,0,0,0,0,0],"id":1,"left_children":[1,3,5,-1,7,-1,-1,9,-1,-1,11,-1,-1],"loss_changes":[1.3703287E1,1.2407872E1,1.442604E-1,0E0,2.6011438E0,0E0,0E0,1.7720942E0,0E0,0E0,2.2611436E-1,0E0,0E0],"parents":[2147483647,0,0,1,1,2,2,4,4,7,7,10,10],"right_children":[2,4,6,-1,8,-1,-1,10,-1,-1,12,-1,-1],"split_conditions":[NaN,3.9E1,2.00001E0,2.2921793E-2,4E0,-1.1109245E-2,-3.9067096E-3,1E0,6.0636345E-3,-9.143871E-3,8.9E1,3.4713186E-3,-1.3479659E-3],"split_indices":[45,38,42,0,44,0,0,7,0,0,37,0,0],"split_type":[1,0,0,0,0,0,0,0,0,0,0,0,0],"sum_hessian":[2.5143827E1,9.010654E0,1.6133173E1,1.6369411E0,7.3737135E0,1.4392231E1,1.7409415E0,5.486001E0,1.8877122E0,3.3360076E0,2.1499937E0,1.0749968E0,1.0749968E0],"tree_param":{"num_deleted":"0","num_feature":"47","num_nodes":"13","size_leaf_vector":"1"}},{"base_weights":[-5.2811944E-1,4.2395818E-1,-1.0578678E0,2.256135E-2,-2.1005614E-1,-1.10843135E-2,-3.8884997E-3,-5.406226E-1,6.007738E-3,-9.117479E-3,1.3907695E-1,3.4606587E-3,-1.3501407E-3],"categories":[2,3],"categories_nodes":[0],"categories_segments":[0],"categories_sizes":[2],"default_left":[1,0,0,0,1,0,0,0,0,0,0,0,0],"id":2,"left_children":[1,3,5,-1,7,-1,-1,9,-1,-1,11,-1,-1],"loss_changes":[1.3584089E1,1.21187E1,1.4472198E-1,0E0,2.5661497E0,0E0,0E0,1.758066E0,0E0,0E0,2.2552308E-1,0E0,0E0],"parents":[2147483647,0,0,1,1,2,2,4,4,7,7,10,10],"right_children":[2,4,6,-1,8,-1,-1,10,-1,-1,12,-1,-1],"split_conditions":[NaN,3.9E1,2.00001E0,2.256135E-2,4E0,-1.10843135E-2,-3.8884997E-3,1E0,6.007738E-3,-9.117479E-3,7.28E1,3.4606587E-3,-1.3501407E-3],"split_indices":[45,38,42,0,44,0,0,7,0,0,38,0,0],"split_type":[1,0,0,0,0,0,0,0,0,0,0,0,0],"sum_hessian":[2.5044014E1,9.024551E0,1.6019463E1,1.6623096E0,7.3622413E0,1.4283153E1,1.7363099E0,5.466754E0,1.8954875E0,3.3152065E0,2.1515474E0,1.076214E0,1.0753334E0],"tree_param":{"num_deleted":"0","num_feature":"47","num_nodes":"13","size_leaf_vector":"1"}},{"base_weights":[-5.246262E-1,4.2125377E-1,-1.0552154E0,2.2209916E-2,-2.0837435E-1,-1.105961E-2,-3.8703717E-3,-5.3790724E-1,5.952466E-3,-9.091229E-3,1.3828643E-1,-1.3494397E-3,3.4461713E-3],"categories":[2,3],"categories_nodes":[0],"categories_segments":[0],"categories_sizes":[2],"default_left":[1,0,0,0,1,0,0,0,0,0,0,0,0],"id":3,"left_children":[1,3,5,-1,7,-1,-1,9,-1,-1,11,-1,-1],"loss_changes":[1.3465441E1,1.1837788E1,1.4519691E-1,0E0,2.5316474E0,0E0,0E0,1.7441591E0,0E0,0E0,2.2426221E-1,0E0,0E0],"parents":[2147483647,0,0,1,1,2,2,4,4,7,7,10,10],"right_children":[2,4,6,-1,8,-1,-1,10,-1,-1,12,-1,-1],"split_conditions":[NaN,3.9E1,2.00001E0,2.2209916E-2,4E0,-1.105961E-2,-3.8703717E-3,1E0,5.952466E-3,-9.091229E-3,6E0,-1.3494397E-3,3.4461713E-3],"split_indices":[45,38,42,0,44,0,0,7,0,0,3,0,0],"split_type":[1,0,0,0,0,0,0,0,0,0,0,0,0],"sum_hessian":[2.494463E1,9.038242E0,1.5906387E1,1.687423E0,7.350819E0,1.4174683E1,1.7317048E0,5.447615E0,1.903204E0,3.2945223E0,2.1530929E0,1.0752245E0,1.0778682E0],"tree_param":{"num_deleted":"0","num_feature":"47","num_nodes":"13","size_leaf_vector":"1"}},{"base_weights":[-5.2116597E-1,4.185482E-1,-1.0525824E0,2.1867203E-2,-2.0671144E-1,-1.1035131E-2,-3.8523255E-3,-5.35208E-1,5.8978084E-3,-9.06512E-3,1.3749991E-1,3.431747E-3,-1.3487298E-3],"categories":[2,3],"categories_nodes":[0],"categories_segments":[0],"categories_sizes":[2],"default_left":[1,0,0,0,1,0,0,0,0,0,0,0,0],"id":4,"left_children":[1,3,5,-1,7,-1,-1,9,-1,-1,11,-1,-1],"loss_changes":[1.3347355E1,1.1564871E1,1.4569473E-1,0E0,2.49763E0,0E0,0E0,1.7303716E0,0E0,0E0,2.2300808E-1,0E0,0E0],"parents":[2147483647,0,0,1,1,2,2,4,4,7,7,10,10],"right_children":[2,4,6,-1,8,-1,-1,10,-1,-1,12,-1,-1],"split_conditions":[NaN,3.9E1,2.00001E0,2.1867203E-2,4E0,-1.1035131E-2,-3.8523255E-3,1E0,5.8978084E-3,-9.06512E-3,8.9E1,3.431747E-3,-1.3487298E-3],"split_indices":[45,38,42,0,44,0,0,7,0,0,37,0,0],"split_type":[1,0,0,0,0,0,0,0,0,0,0,0,0],"sum_hessian":[2.4845673E1,9.0517235E0,1.579395E1,1.7122762E0,7.339447E0,1.4066824E1,1.7271264E0,5.4285846E0,1.9108623E0,3.2739549E0,2.1546297E0,1.0795178E0,1.0751119E0],"tree_param":{"num_deleted":"0","num_feature":"47","num_nodes":"13","size_leaf_vector":"1"}},{"base_weights":[-5.177383E-1,4.158429E-1,-1.0499686E0,2.1532955E-2,-2.050671E-1,-1.1010873E-2,-3.8343598E-3,-5.325246E-1,5.843757E-3,-9.039147E-3,1.3671742E-1,-1.3508422E-3,3.4212216E-3],"categories":[2,3,0],"categories_nodes":[0,10],"categories_segments":[0,2],"categories_sizes":[2,1],"default_left":[1,0,0,0,1,0,0,0,0,0,1,0,0],"id":5,"left_children":[1,3,5,-1,7,-1,-1,9,-1,-1,11,-1,-1],"loss_changes":[1.3229864E1,1.1299698E1,1.462059E-1,0E0,2.4640896E0,0E0,0E0,1.7167016E0,0E0,0E0,2.2242159E-1,0E0,0E0],"parents":[2147483647,0,0,1,1,2,2,4,4,7,7,10,10],"right_children":[2,4,6,-1,8,-1,-1,10,-1,-1,12,-1,-1],"split_conditions":[NaN,3.9E1,2.00001E0,2.1532955E-2,4E0,-1.1010873E-2,-3.8343598E-3,1E0,5.843757E-3,-9.039147E-3,NaN,-1.3508422E-3,3.4212216E-3],"split_indices":[45,38,42,0,44,0,0,7,0,0,0,0,0],"split_type":[1,0,0,0,0,0,0,0,0,0,1,0,0],"sum_hessian":[2.474714E1,9.064989E0,1.5682151E1,1.7368648E0,7.3281245E0,1.3959577E1,1.7225745E0,5.4096622E0,1.9184623E0,3.2535038E0,2.1561584E0,1.0754375E0,1.0807208E0],"tree_param":{"num_deleted":"0","num_feature":"47","num_nodes":"13","size_leaf_vector":"1"}},{"base_weights":[-5.143426E-1,4.131387E-1,-1.0473733E0,2.1206902E-2,-2.0344117E-1,-1.0986831E-2,-3.8164754E-3,-5.29857E-1,5.790305E-3,-9.013312E-3,1.3593917E-1,3.410759E-3,-1.3529474E-3],"categories":[2,3],"categories_nodes":[0],"categories_segments":[0],"categories_sizes":[2],"default_left":[1,0,0,0,1,0,0,0,0,0,0,0,0],"id":6,"left_children":[1,3,5,-1,7,-1,-1,9,-1,-1,11,-1,-1],"loss_changes":[1.3112974E1,1.1042016E1,1.4672852E-1,0E0,2.4310203E0,0E0,0E0,1.7031499E0,0E0,0E0,2.2183913E-1,0E0,0E0],"parents":[2147483647,0,0,1,1,2,2,4,4,7,7,10,10],"right_children":[2,4,6,-1,8,-1,-1,10,-1,-1,12,-1,-1],"split_conditions":[NaN,3.9E1,2.00001E0,2.1206902E-2,4E0,-1.0986831E-2,-3.8164754E-3,1E0,5.790305E-3,-9.013312E-3,7.28E1,3.410759E-3,-1.3529474E-3],"split_indices":[45,38,42,0,44,0,0,7,0,0,38,0,0],"split_type":[1,0,0,0,0,0,0,0,0,0,0,0,0],"sum_hessian":[2.4649035E1,9.078037E0,1.5570996E1,1.7611846E0,7.316853E0,1.3852947E1,1.7180489E0,5.3908486E0,1.9260042E0,3.23317E0,2.1576786E0,1.0819173E0,1.0757613E0],"tree_param":{"num_deleted":"0","num_feature":"47","num_nodes":"13","size_leaf_vector":"1"}},{"base_weights":[-5.109786E-1,4.104366E-1,-1.0447962E0,2.0888798E-2,-2.0183334E-1,-1.0962999E-2,-3.7986715E-3,-5.272048E-1,5.7374397E-3,-8.987608E-3,1.3516514E-1,3.3927115E-3,-1.3493795E-3],"categories":[2,3],"categories_nodes":[0],"categories_segments":[0],"categories_sizes":[2],"default_left":[1,0,0,0,1,0,0,0,0,0,0,0,0],"id":7,"left_children":[1,3,5,-1,7,-1,-1,9,-1,-1,11,-1,-1],"loss_changes":[1.2996705E1,1.0791585E1,1.4726257E-1,0E0,2.398413E0,0E0,0E0,1.6897137E0,0E0,0E0,2.199457E-1,0E0,0E0],"parents":[2147483647,0,0,1,1,2,2,4,4,7,7,10,10],"right_children":[2,4,6,-1,8,-1,-1,10,-1,-1,12,-1,-1],"split_conditions":[NaN,3.9E1,2.00001E0,2.0888798E-2,4E0,-1.0962999E-2,-3.7986715E-3,1E0,5.7374397E-3,-8.987608E-3,8.9E1,3.3927115E-3,-1.3493795E-3],"split_indices":[45,38,42,0,44,0,0,7,0,0,37,0,0],"split_type":[1,0,0,0,0,0,0,0,0,0,0,0,0],"sum_hessian":[2.455135E1,9.090864E0,1.54604845E1,1.7852314E0,7.305633E0,1.3746935E1,1.7135501E0,5.372144E0,1.9334886E0,3.2129533E0,2.159191E0,1.083986E0,1.0752048E0],"tree_param":{"num_deleted":"0","num_feature":"47","num_nodes":"13","size_leaf_vector":"1"}},{"base_weights":[-5.076459E-1,4.0773746E-1,-1.0422369E0,2.2638604E-2,-1.3900015E-1,-1.0939375E-2,-3.7809473E-3,-5.563883E-1,8.044197E-3,-9.183905E-3,1.3439476E-1,-1.3542512E-3,3.38612E-3],"categories":[2,3,0],"categories_nodes":[0,10],"categories_segments":[0,2],"categories_sizes":[2,1],"default_left":[1,0,0,0,1,0,0,0,0,0,1,0,0],"id":8,"left_children":[1,3,5,-1,7,-1,-1,9,-1,-1,11,-1,-1],"loss_changes":[1.2881063E1,1.0567797E1,1.4781189E-1,0E0,3.891783E0,0E0,0E0,1.7876215E0,0E0,0E0,2.2001675E-1,0E0,0E0],"parents":[2147483647,0,0,1,1,2,2,4,4,7,7,10,10],"right_children":[2,4,6,-1,8,-1,-1,10,-1,-1,12,-1,-1],"split_conditions":[NaN,3.53E1,2.00001E0,2.2638604E-2,4E0,-1.0939375E-2,-3.7809473E-3,1E0,8.044197E-3,-9.183905E-3,NaN,-1.3542512E-3,3.38612E-3],"split_indices":[45,38,42,0,44,0,0,7,0,0,0,0,0],"split_type":[1,0,0,0,0,0,0,0,0,0,1,0,0],"sum_hessian":[2.4454088E1,9.103465E0,1.5350623E1,1.3567512E0,7.7467136E0,1.3641546E1,1.7090768E0,5.655048E0,2.0916655E0,3.4943535E0,2.1606946E0,1.0759563E0,1.0847383E0],"tree_param":{"num_deleted":"0","num_feature":"47","num_nodes":"13","size_leaf_vector":"1"}},{"base_weights":[-5.0422907E-1,4.0555662E-1,-1.0396954E0,2.034049E-2,-1.9908011E-1,-1.0915955E-2,-3.7633025E-3,-5.2187663E-1,5.6120204E-3,-8.9359665E-3,1.3362883E-1,3.3720278E-3,-1.3535013E-3],"categories":[2,3],"categories_nodes":[0],"categories_segments":[0],"categories_sizes":[2],"default_left":[1,0,0,0,1,0,0,0,0,0,0,0,0],"id":9,"left_children":[1,3,5,-1,7,-1,-1,9,-1,-1,11,-1,-1],"loss_changes":[1.2773453E1,1.0362983E1,1.4837074E-1,0E0,2.3263776E0,0E0,0E0,1.6629196E0,0E0,0E0,2.1879284E-1,0E0,0E0],"parents":[2147483647,0,0,1,1,2,2,4,4,7,7,10,10],"right_children":[2,4,6,-1,8,-1,-1,10,-1,-1,12,-1,-1],"split_conditions":[NaN,3.9E1,2.00001E0,2.034049E-2,4E0,-1.0915955E-2,-3.7633025E-3,1E0,5.6120204E-3,-8.9359665E-3,7.28E1,3.3720278E-3,-1.3535013E-3],"split_indices":[45,38,42,0,44,0,0,7,0,0,38,0,0],"split_type":[1,0,0,0,0,0,0,0,0,0,0,0,0],"sum_hessian":[2.4354727E1,9.113321E0,1.5241406E1,1.8274072E0,7.2859135E0,1.3536777E1,1.7046299E0,5.334567E0,1.9513466E0,3.1723766E0,2.1621902E0,1.0863543E0,1.075836E0],"tree_param":{"num_deleted":"0","num_feature":"47","num_nodes":"13","size_leaf_vector":"1"}},{"base_weights":[-5.009558E-1,4.0286326E-1,-1.0371705E0,2.2043144E-2,-1.3709031E-1,-1.0892732E-2,-3.745738E-3,-5.518451E-1,7.891976E-3,-9.141237E-3,1.3286684E-1,-1.3554576E-3,3.3616675E-3],"categories":[2,3],"categories_nodes":[0],"categories_segments":[0],"categories_sizes":[2],"default_left":[1,0,0,0,1,0,0,0,0,0,0,0,0],"id":10,"left_children":[1,3,5,-1,7,-1,-1,9,-1,-1,11,-1,-1],"loss_changes":[1.2659069E1,1.0151269E1,1.4894295E-1,0E0,3.7901576E0,0E0,0E0,1.7635441E0,0E0,0E0,2.1820235E-1,0E0,0E0],"parents":[2147483647,0,0,1,1,2,2,4,4,7,7,10,10],"right_children":[2,4,6,-1,8,-1,-1,10,-1,-1,12,-1,-1],"split_conditions":[NaN,3.53E1,2.00001E0,2.2043144E-2,4E0,-1.0892732E-2,-3.745738E-3,1E0,7.891976E-3,-9.141237E-3,6E0,-1.3554576E-3,3.3616675E-3],"split_indices":[45,38,42,0,44,0,0,7,0,0,3,0,0],"split_type":[1,0,0,0,0,0,0,0,0,0,0,0,0],"sum_hessian":[2.4258347E1,9.125504E0,1.5132843E1,1.3936025E0,7.7319016E0,1.3432633E1,1.7002089E0,5.6198134E0,2.1120877E0,3.456136E0,2.1636777E0,1.076142E0,1.0875356E0],"tree_param":{"num_deleted":"0","num_feature":"47","num_nodes":"13","size_leaf_vector":"1"}},{"base_weights":[-4.9759907E-1,4.006758E-1,-1.0346625E0,1.981515E-2,-1.9639449E-1,-1.0869705E-2,-3.7282514E-3,-5.166074E-1,5.4896777E-3,-8.884818E-3,1.32109E-1,3.3477065E-3,-1.354704E-3],"categories":[2,3],"categories_nodes":[0],"categories_segments":[0],"categories_sizes":[2],"default_left":[1,0,0,0,1,0,0,0,0,0,0,0,0],"id":11,"left_children":[1,3,5,-1,7,-1,-1,9,-1,-1,11,-1,-1],"loss_changes":[1.2552475E1,9.955288E0,1.4952469E-1,0E0,2.2565618E0,0E0,0E0,1.6365718E0,0E0,0E0,2.1699193E-1,0E0,0E0],"parents":[2147483647,0,0,1,1,2,2,4,4,7,7,10,10],"right_children":[2,4,6,-1,8,-1,-1,10,-1,-1,12,-1,-1],"split_conditions":[NaN,3.9E1,2.00001E0,1.981515E-2,4E0,-1.0869705E-2,-3.7282514E-3,1E0,5.4896777E-3,-8.884818E-3,8.9E1,3.3477065E-3,-1.354704E-3],"split_indices":[45,38,42,0,44,0,0,7,0,0,37,0,0],"split_type":[1,0,0,0,0,0,0,0,0,0,0,0,0],"sum_hessian":[2.4159914E1,9.134986E0,1.5024929E1,1.8686652E0,7.26632E0,1.3329115E1,1.6958137E0,5.2974167E0,1.9689035E0,3.1322598E0,2.1651568E0,1.0891439E0,1.0760131E0],"tree_param":{"num_deleted":"0","num_feature":"47","num_nodes":"13","size_leaf_vector":"1"}},{"base_weights":[-4.9438402E-1,3.9799094E-1,-1.0321709E0,2.1472739E-2,-1.3523503E-1,-1.084687E-2,-3.7108427E-3,-5.4735565E-1,7.74367E-3,-9.099097E-3,1.3135502E-1,-1.3566815E-3,3.3375036E-3],"categories":[2,3,0],"categories_nodes":[0,10],"categories_segments":[0,2],"categories_sizes":[2,1],"default_left":[1,0,0,0,1,0,0,0,0,0,1,0,0],"id":12,"left_children":[1,3,5,-1,7,-1,-1,9,-1,-1,11,-1,-1],"loss_changes":[1.2439394E1,9.754892E0,1.5011597E-1,0E0,3.691586E0,0E0,0E0,1.7398673E0,0E0,0E0,2.1641733E-1,0E0,0E0],"parents":[2147483647,0,0,1,1,2,2,4,4,7,7,10,10],"right_children":[2,4,6,-1,8,-1,-1,10,-1,-1,12,-1,-1],"split_conditions":[NaN,3.53E1,2.00001E0,2.1472739E-2,4E0,-1.084687E-2,-3.7108427E-3,1E0,7.74367E-3,-9.099097E-3,NaN,-1.3566815E-3,3.3375036E-3],"split_indices":[45,38,42,0,44,0,0,7,0,0,0,0,0],"split_type":[1,0,0,0,0,0,0,0,0,0,1,0,0],"sum_hessian":[2.4064411E1,9.146741E0,1.4917669E1,1.4296687E0,7.7170725E0,1.3226226E1,1.6914439E0,5.5849166E0,2.1321554E0,3.4182887E0,2.166628E0,1.0763159E0,1.0903121E0],"tree_param":{"num_deleted":"0","num_feature":"47","num_nodes":"13","size_leaf_vector":"1"}},{"base_weights":[-4.9108607E-1,3.958001E-1,-1.0296952E0,1.9311627E-2,-1.9377477E-1,-1.0824221E-2,-3.6935138E-3,-5.113964E-1,5.3703114E-3,-8.834148E-3,1.3060513E-1,3.323629E-3,-1.3558684E-3],"categories":[2,3],"categories_nodes":[0],"categories_segments":[0],"categories_sizes":[2],"default_left":[1,0,0,0,1,0,0,0,0,0,0,0,0],"id":13,"left_children":[1,3,5,-1,7,-1,-1,9,-1,-1,11,-1,-1],"loss_changes":[1.2333866E1,9.567387E0,1.5071487E-1,0E0,2.1888938E0,0E0,0E0,1.6106598E0,0E0,0E0,2.1521053E-1,0E0,0E0],"parents":[2147483647,0,0,1,1,2,2,4,4,7,7,10,10],"right_children":[2,4,6,-1,8,-1,-1,10,-1,-1,12,-1,-1],"split_conditions":[NaN,3.9E1,2.00001E0,1.9311627E-2,4E0,-1.0824221E-2,-3.6935138E-3,1E0,5.3703114E-3,-8.834148E-3,7.28E1,3.323629E-3,-1.3558684E-3],"split_indices":[45,38,42,0,44,0,0,7,0,0,38,0,0],"split_type":[1,0,0,0,0,0,0,0,0,0,0,0,0],"sum_hessian":[2.3966902E1,9.155835E0,1.4811066E1,1.9089797E0,7.2468553E0,1.3123966E1,1.6871E0,5.260692E0,1.9861634E0,3.092601E0,2.168091E0,1.0919067E0,1.0761844E0],"tree_param":{"num_deleted":"0","num_feature":"47","num_nodes":"13","size_leaf_vector":"1"}},{"base_weights":[-4.8792773E-1,3.9312622E-1,-1.027235E0,2.0926163E-2,-1.3343261E-1,-1.0801758E-2,-3.6762622E-3,-5.429189E-1,7.5991442E-3,-9.057468E-3,1.2985907E-1,3.3098264E-3,-1.3550568E-3],"categories":[2,3],"categories_nodes":[0],"categories_segments":[0],"categories_sizes":[2],"default_left":[1,0,0,0,1,0,0,0,0,0,0,0,0],"id":14,"left_children":[1,3,5,-1,7,-1,-1,9,-1,-1,11,-1,-1],"loss_changes":[1.2222115E1,9.377624E0,1.5132332E-1,0E0,3.5959659E0,0E0,0E0,1.7165796E0,0E0,0E0,2.1401219E-1,0E0,0E0],"parents":[2147483647,0,0,1,1,2,2,4,4,7,7,10,10],"right_children":[2,4,6,-1,8,-1,-1,10,-1,-1,12,-1,-1],"split_conditions":[NaN,3.53E1,2.00001E0,2.0926163E-2,4E0,-1.0801758E-2,-3.6762622E-3,1E0,7.5991442E-3,-9.057468E-3,8.9E1,3.3098264E-3,-1.3550568E-3],"split_indices":[45,38,42,0,44,0,0,7,0,0,37,0,0],"split_type":[1,0,0,0,0,0,0,0,0,0,0,0,0],"sum_hessian":[2.3872274E1,9.167157E0,1.4705118E1,1.4649228E0,7.702234E0,1.3022337E1,1.6827816E0,5.5503616E0,2.1518724E0,3.3808155E0,2.169546E0,1.093496E0,1.0760499E0],"tree_param":{"num_deleted":"0","num_feature":"47","num_nodes":"13","size_leaf_vector":"1"}},{"base_weights":[-4.8468718E-1,3.9093488E-1,-1.0247903E0,1.8828822E-2,-1.9121937E-1,-1.0779472E-2,-3.6590877E-3,-5.062429E-1,5.2538323E-1,-8.783939E-3,1.2911677E-1,-1.0546912E-3,8.937492E-3,-1.3597523E-3,3.303462E-3],"categories":[2,3,0,0],"categories_nodes":[0,8,10],"categories_segments":[0,2,3],"categories_sizes":[2,1,1],"default_left":[1,0,0,0,1,0,0,0,1,0,1,0,0,0,0],"id":15,"left_children":[1,3,5,-1,7,-1,-1,9,11,-1,13,-1,-1,-1,-1],"loss_changes":[1.2117694E1,9.198216E0,1.519413E-1,0E0,2.1233072E0,0E0,0E0,1.5851722E0,7.9214376E-1,0E0,2.1407333E-1,0E0,0E0,0E0,0E0],"parents":[2147483647,0,0,1,1,2,2,4,4,7,7,8,8,10,10],"right_children":[2,4,6,-1,8,-1,-1,10,12,-1,14,-1,-1,-1,-1],"split_conditions":[NaN,3.9E1,2.00001E0,1.8828822E-2,4E0,-1.0779472E-2,-3.6590877E-3,1E0,NaN,-8.783939E-3,NaN,-1.0546912E-3,8.937492E-3,-1.3597523E-3,3.303462E-3],"split_indices":[45,38,42,0,44,0,0,7,2,0,0,0,0,0,0],"split_type":[1,0,0,0,0,0,0,0,1,0,1,0,0,0,0],"sum_hessian":[2.377568E1,9.175854E0,1.4599826E1,1.94833E0,7.227524E0,1.2921338E1,1.678488E0,5.224395E0,2.003129E0,3.0534022E0,2.1709926E0,1.0015645E0,1.0015645E0,1.076772E0,1.0942208E0],"tree_param":{"num_deleted":"0","num_feature":"47","num_nodes":"15","size_leaf_vector":"1"}},{"base_weights":[-4.8151156E-1,3.8859698E-1,-1.0223606E0,1.5634056E0,-3.2339773E-1,-1.0757365E-2,-3.64199E-3,3.2596125E-3,2.3570435E-2,-8.370486E-3,1.1827554E-1,5.4106176E-1,-6.3463696E-3,-2.070007E-3,1.0184967E-2],"categories":[2,3],"categories_nodes":[0],"categories_segments":[0],"categories_sizes":[2],"default_left":[1,0,0,0,0,0,0,0,0,0,0,0,0,0,0],"id":16,"left_children":[1,3,5,7,9,-1,-1,-1,-1,-1,11,13,-1,-1,-1],"loss_changes":[1.2011729E1,9.024937E0,1.525631E-1,3.1745281E0,1.7256877E0,0E0,0E0,0E0,0E0,0E0,1.8494933E0,1.485783E0,0E0,0E0,0E0],"parents":[2147483647,0,0,1,1,2,2,3,3,4,4,10,10,11,11],"right_children":[2,4,6,8,10,-1,-1,-1,-1,-1,12,14,-1,-1,-1],"split_conditions":[NaN,4.79E1,2.00001E0,1E0,6.45E1,-1.0757365E-2,-3.64199E-3,3.2596125E-3,2.3570435E-2,-8.370486E-3,3.8E0,1E0,-6.3463696E-3,-2.070007E-3,1.0184967E-2],"split_indices":[45,38,42,27,38,0,0,0,0,0,36,10,0,0,0],"split_type":[1,0,0,0,0,0,0,0,0,0,0,0,0,0,0],"sum_hessian":[2.368021E1,9.185018E0,1.4495192E1,3.0147672E0,6.1702504E0,1.2820972E1,1.6742195E0,1.729242E0,1.2855253E0,2.438815E0,3.7314353E0,2.5697868E0,1.1616485E0,1.2218225E0,1.3479643E0],"tree_param":{"num_deleted":"0","num_feature":"47","num_nodes":"15","size_leaf_vector":"1"}},{"base_weights":[-4.7831836E-1,3.8628578E-1,-1.0199454E0,2.0183317E-2,-1.308236E-1,-1.0735431E-2,-3.6249703E-3,-5.373792E-1,7.4397254E-1,-9.008916E-3,1.2936096E-1,-1.0619772E-3,1.185451E-2,-1.3519325E-3,3.2971685E-3],"categories":[2,3,0],"categories_nodes":[0,8],"categories_segments":[0,2],"categories_sizes":[2,1],"default_left":[1,0,0,0,1,0,0,0,1,0,0,0,0,0,0],"id":17,"left_children":[1,3,5,-1,7,-1,-1,9,11,-1,13,-1,-1,-1,-1],"loss_changes":[1.1907534E1,8.868056E0,1.5319443E-1,0E0,3.4872513E0,0E0,0E0,1.6937059E0,1.3171114E0,0E0,2.1262598E-1,0E0,0E0,0E0,0E0],"parents":[2147483647,0,0,1,1,2,2,4,4,7,7,8,8,10,10],"right_children":[2,4,6,-1,8,-1,-1,10,12,-1,14,-1,-1,-1,-1],"split_conditions":[NaN,3.53E1,2.00001E0,2.0183317E-2,4E0,-1.0735431E-2,-3.6249703E-3,1E0,NaN,-9.008916E-3,6E0,-1.0619772E-3,1.185451E-2,-1.3519325E-3,3.2971685E-3],"split_indices":[45,38,42,0,44,0,0,7,2,0,3,0,0,0,0],"split_type":[1,0,0,0,0,0,0,0,1,0,0,0,0,0,0],"sum_hessian":[2.3586191E1,9.194975E0,1.4391216E1,1.5138904E0,7.6810846E0,1.272124E1,1.6699764E0,5.5073094E0,2.1737757E0,3.3368447E0,2.1704645E0,1.0025606E0,1.171215E0,1.075537E0,1.0949277E0],"tree_param":{"num_deleted":"0","num_feature":"47","num_nodes":"15","size_leaf_vector":"1"}},{"base_weights":[-4.7506478E-1,3.845141E-1,-1.0175446E0,1.5345371E0,-3.2062843E-1,-1.0713665E-2,-3.6080268E-3,3.2129365E-3,2.3051018E-2,-8.332312E-3,1.1695343E-1,5.3503925E-1,-6.320724E-3,-2.0643764E-3,1.0061486E-2],"categories":[2,3],"categories_nodes":[0],"categories_segments":[0],"categories_sizes":[2],"default_left":[1,0,0,0,0,0,0,0,0,0,0,0,0,0,0],"id":18,"left_children":[1,3,5,7,9,-1,-1,-1,-1,-1,11,13,-1,-1,-1],"loss_changes":[1.1810471E1,8.764198E0,1.5383148E-1,3.0457954E0,1.701395E0,0E0,0E0,0E0,0E0,0E0,1.8208447E0,1.4582969E0,0E0,0E0,0E0],"parents":[2147483647,0,0,1,1,2,2,3,3,4,4,10,10,11,11],"right_children":[2,4,6,8,10,-1,-1,-1,-1,-1,12,14,-1,-1,-1],"split_conditions":[NaN,4.79E1,2.00001E0,1E0,6.45E1,-1.0713665E-2,-3.6080268E-3,3.2129365E-3,2.3051018E-2,-8.332312E-3,3.8E0,1E0,-6.320724E-3,-2.0643764E-3,1.0061486E-2],"split_indices":[45,38,42,27,38,0,0,0,0,0,36,10,0,0,0],"split_type":[1,0,0,0,0,0,0,0,0,0,0,0,0,0,0],"sum_hessian":[2.3488758E1,9.200857E0,1.42879E1,3.0501437E0,6.150714E0,1.2622142E1,1.665758E0,1.7351435E0,1.3150002E0,2.416153E0,3.734561E0,2.5801039E0,1.1544571E0,1.2206825E0,1.3594213E0],"tree_param":{"num_deleted":"0","num_feature":"47","num_nodes":"15","size_leaf_vector":"1"}},{"base_weights":[-4.7192714E-1,3.821992E-1,-1.0151577E0,1.5176846E0,-3.1888723E-1,-1.0692066E-2,-3.5911591E-3,3.1883847E-3,2.274597E-2,-8.307685E-3,1.1606464E-1,5.307954E-1,-6.3017653E-3,-2.0546082E-3,9.964419E-3],"categories":[2,3],"categories_nodes":[0],"categories_segments":[0],"categories_sizes":[2],"default_left":[1,0,0,0,0,0,0,0,0,0,0,0,0,0,0],"id":19,"left_children":[1,3,5,7,9,-1,-1,-1,-1,-1,11,13,-1,-1,-1],"loss_changes":[1.1707291E1,8.612238E0,1.5447426E-1,2.9691868E0,1.6859026E0,0E0,0E0,0E0,0E0,0E0,1.8005453E0,1.4346905E0,0E0,0E0,0E0],"parents":[2147483647,0,0,1,1,2,2,3,3,4,4,10,10,11,11],"right_children":[2,4,6,8,10,-1,-1,-1,-1,-1,12,14,-1,-1,-1],"split_conditions":[NaN,4.79E1,2.00001E0,1E0,6.45E1,-1.0692066E-2,-3.5911591E-3,3.1883847E-3,2.274597E-2,-8.307685E-3,3.8E0,1E0,-6.3017653E-3,-2.0546082E-3,9.964419E-3],"split_indices":[45,38,42,27,38,0,0,0,0,0,36,10,0,0,0],"split_type":[1,0,0,0,0,0,0,0,0,0,0,0,0,0,0],"sum_hessian":[2.3395693E1,9.210451E0,1.4185242E1,3.0713334E0,6.1391177E0,1.2523677E1,1.6615645E0,1.7387023E0,1.332631E0,2.402117E0,3.7370007E0,2.5876162E0,1.1493846E0,1.2189838E0,1.3686324E0],"tree_param":{"num_deleted":"0","num_feature":"47","num_nodes":"15","size_leaf_vector":"1"}},{"base_weights":[-4.688198E-1,3.7988016E-1,-1.0127846E0,1.5011114E0,-3.1716672E-1,-1.0670629E-2,-3.5743671E-3,3.1640397E-3,2.2447782E-2,-8.283175E-3,1.1517149E-1,5.265845E-1,-6.2828925E-3,-2.0448868E-3,9.8685445E-3],"categories":[2,3],"categories_nodes":[0],"categories_segments":[0],"categories_sizes":[2],"default_left":[1,0,0,0,0,0,0,0,0,0,0,0,0,0,0],"id":20,"left_children":[1,3,5,7,9,-1,-1,-1,-1,-1,11,13,-1,-1,-1],"loss_changes":[1.1604565E1,8.463421E0,1.551218E-1,2.8951387E0,1.670521E0,0E0,0E0,0E0,0E0,0E0,1.7804885E0,1.4115102E0,0E0,0E0,0E0],"parents":[2147483647,0,0,1,1,2,2,3,3,4,4,10,10,11,11],"right_children":[2,4,6,8,10,-1,-1,-1,-1,-1,12,14,-1,-1,-1],"split_conditions":[NaN,4.79E1,2.00001E0,1E0,6.45E1,-1.0670629E-2,-3.5743671E-3,3.1640397E-3,2.2447782E-2,-8.283175E-3,3.8E0,1E0,-6.2828925E-3,-2.0448868E-3,9.8685445E-3],"split_indices":[45,38,42,27,38,0,0,0,0,0,36,10,0,0,0],"split_type":[1,0,0,0,0,0,0,0,0,0,0,0,0,0,0],"sum_hessian":[2.3303076E1,9.219834E0,1.4083242E1,3.0922618E0,6.127572E0,1.2425847E1,1.6573956E0,1.7422361E0,1.3500258E0,2.3881617E0,3.7394104E0,2.5950725E0,1.1443379E0,1.2172941E0,1.3777784E0],"tree_param":{"num_deleted":"0","num_feature":"47","num_nodes":"15","size_leaf_vector":"1"}},{"base_weights":[-4.6574235E-1,3.7755787E-1,-1.0104247E0,1.4848129E0,-3.154666E-1,-1.0649351E-2,-3.5576504E-3,3.1398996E-3,2.2156265E-2,-8.25878E-3,1.142744E-1,5.224067E-1,-6.2641054E-3,-2.0352106E-3,9.773848E-3],"categories":[2,3],"categories_nodes":[0],"categories_segments":[0],"categories_sizes":[2],"default_left":[1,0,0,0,0,0,0,0,0,0,0,0,0,0,0],"id":21,"left_children":[1,3,5,7,9,-1,-1,-1,-1,-1,11,13,-1,-1,-1],"loss_changes":[1.1502306E1,8.317683E0,1.5577412E-1,2.823553E0,1.6552508E0,0E0,0E0,0E0,0E0,0E0,1.7606719E0,1.3887473E0,0E0,0E0,0E0],"parents":[2147483647,0,0,1,1,2,2,3,3,4,4,10,10,11,11],"right_children":[2,4,6,8,10,-1,-1,-1,-1,-1,12,14,-1,-1,-1],"split_conditions":[NaN,4.79E1,2.00001E0,1E0,6.45E1,-1.0649351E-2,-3.5576504E-3,3.1398996E-3,2.2156265E-2,-8.25878E-3,3.8E0,1E0,-6.2641054E-3,-2.0352106E-3,9.773848E-3],"split_indices":[45,38,42,27,38,0,0,0,0,0,36,10,0,0,0],"split_type":[1,0,0,0,0,0,0,0,0,0,0,0,0,0,0],"sum_hessian":[2.3210905E1,9.229002E0,1.3981902E1,3.1129258E0,6.1160765E0,1.2328651E1,1.6532508E0,1.745745E0,1.3671808E0,2.3742871E0,3.7417893E0,2.6024723E0,1.1393169E0,1.2156132E0,1.3868592E0],"tree_param":{"num_deleted":"0","num_feature":"47","num_nodes":"15","size_leaf_vector":"1"}},{"base_weights":[-4.6269464E-1,3.752333E-1,-1.008078E0,1.7474828E-2,-1.8451343E-1,-1.0628232E-2,-3.5410086E-3,-4.944531E-1,5.03622E-1,-8.687958E-3,1.3243535E-1,-1.1165268E-3,8.655279E-3,3.3244884E-3,-1.3334181E-3],"categories":[2,3],"categories_nodes":[0],"categories_segments":[0],"categories_sizes":[2],"default_left":[1,0,0,0,1,0,0,0,0,0,0,0,0,0,0],"id":22,"left_children":[1,3,5,-1,7,-1,-1,9,11,-1,13,-1,-1,-1,-1],"loss_changes":[1.1400534E1,8.18633E0,1.564331E-1,0E0,1.9928546E0,0E0,0E0,1.556367E0,7.723223E-1,0E0,2.125269E-1,0E0,0E0,0E0,0E0],"parents":[2147483647,0,0,1,1,2,2,4,4,7,7,8,8,10,10],"right_children":[2,4,6,-1,8,-1,-1,10,12,-1,14,-1,-1,-1,-1],"split_conditions":[NaN,3.9E1,2.00001E0,1.7474828E-2,4E0,-1.0628232E-2,-3.5410086E-3,1E0,6.66E1,-8.687958E-3,7.28E1,-1.1165268E-3,8.655279E-3,3.3244884E-3,-1.3334181E-3],"split_indices":[45,38,42,0,44,0,0,7,38,0,38,0,0,0,0],"split_type":[1,0,0,0,0,0,0,0,0,0,0,0,0,0,0],"sum_hessian":[2.3119177E1,9.237952E0,1.3881224E1,2.06169E0,7.1762624E0,1.2232093E1,1.6491307E0,5.1418204E0,2.034442E0,2.9777744E0,2.164046E0,1.0095675E0,1.0248746E0,1.0916542E0,1.0723919E0],"tree_param":{"num_deleted":"0","num_feature":"47","num_nodes":"15","size_leaf_vector":"1"}},{"base_weights":[-4.596864E-1,3.7295738E-1,-1.0057442E0,1.4547775E0,-3.124963E-1,-1.0607265E-2,-3.524442E-3,3.056558E-3,2.1704463E-2,-8.220924E-3,1.1355228E-1,8.934102E-3,-3.3384904E-1,3.289057E-3,-7.321854E-3],"categories":[2,3],"categories_nodes":[0],"categories_segments":[0],"categories_sizes":[2],"default_left":[1,0,0,0,0,0,0,0,0,0,0,0,0,0,0],"id":23,"left_children":[1,3,5,7,9,-1,-1,-1,-1,-1,11,-1,13,-1,-1],"loss_changes":[1.129948E1,8.052235E0,1.5709305E-1,2.750123E0,1.6337713E0,0E0,0E0,0E0,0E0,0E0,1.953115E0,0E0,1.228665E0,0E0,0E0],"parents":[2147483647,0,0,1,1,2,2,3,3,4,4,10,10,12,12],"right_children":[2,4,6,8,10,-1,-1,-1,-1,-1,12,-1,14,-1,-1],"split_conditions":[NaN,4.79E1,2.00001E0,1E0,6.45E1,-1.0607265E-2,-3.524442E-3,3.056558E-3,2.1704463E-2,-8.220924E-3,7E1,8.934102E-3,9.9E1,3.289057E-3,-7.321854E-3],"split_indices":[45,38,42,27,38,0,0,0,0,0,38,0,37,0,0],"split_type":[1,0,0,0,0,0,0,0,0,0,0,0,0,0,0],"sum_hessian":[2.302697E1,9.2457695E0,1.37812E1,3.1507413E0,6.095028E0,1.2136166E1,1.6450346E0,1.7568797E0,1.3938618E0,2.3521044E0,3.7429233E0,1.0010761E0,2.741847E0,1.0947299E0,1.6471173E0],"tree_param":{"num_deleted":"0","num_feature":"47","num_nodes":"15","size_leaf_vector":"1"}},{"base_weights":[-4.5659244E-1,3.710719E-1,-1.0034227E0,1.4392529E0,-3.1046143E-1,-1.0586447E-2,-3.5079499E-3,3.0333304E-3,2.1429608E-2,-8.196814E-3,1.1344157E-1,8.863423E-3,-3.321317E-1,3.2680808E-3,-7.299664E-3],"categories":[2,3],"categories_nodes":[0],"categories_segments":[0],"categories_sizes":[2],"default_left":[1,0,0,0,0,0,0,0,0,0,0,0,0,0,0],"id":24,"left_children":[1,3,5,7,9,-1,-1,-1,-1,-1,11,-1,13,-1,-1],"loss_changes":[1.1204523E1,7.910168E0,1.5775871E-1,2.6837893E0,1.62153E0,0E0,0E0,0E0,0E0,0E0,1.9277068E0,0E0,1.2179037E0,0E0,0E0],"parents":[2147483647,0,0,1,1,2,2,3,3,4,4,10,10,12,12],"right_children":[2,4,6,8,10,-1,-1,-1,-1,-1,12,-1,14,-1,-1],"split_conditions":[NaN,4.79E1,2.00001E0,1E0,6.45E1,-1.0586447E-2,-3.5079499E-3,3.0333304E-3,2.1429608E-2,-8.196814E-3,7E1,8.863423E-3,9.9E1,3.2680808E-3,-7.299664E-3],"split_indices":[45,38,42,27,38,0,0,0,0,0,38,0,37,0,0],"split_type":[1,0,0,0,0,0,0,0,0,0,0,0,0,0,0],"sum_hessian":[2.2933657E1,9.251821E0,1.3681837E1,3.1706345E0,6.0811863E0,1.2040874E1,1.6409628E0,1.7602701E0,1.4103644E0,2.3384426E0,3.7427435E0,1.0069132E0,2.7358303E0,1.097145E0,1.6386853E0],"tree_param":{"num_deleted":"0","num_feature":"47","num_nodes":"15","size_leaf_vector":"1"}},{"base_weights":[-4.5352685E-1,3.6917952E-1,-1.0011135E0,1.4239842E0,-3.084479E-1,-1.0565776E-2,-3.4915318E-3,3.0102967E-3,2.116081E-2,-8.172814E-3,1.1331763E-1,8.793405E-3,-3.3042803E-1,3.2472461E-3,-7.277575E-3],"categories":[2,3],"categories_nodes":[0],"categories_segments":[0],"categories_sizes":[2],"default_left":[1,0,0,0,0,0,0,0,0,0,0,0,0,0,0],"id":25,"left_children":[1,3,5,7,9,-1,-1,-1,-1,-1,11,-1,13,-1,-1],"loss_changes":[1.1109948E1,7.771049E0,1.5842438E-1,2.6196337E0,1.609341E0,0E0,0E0,0E0,0E0,0E0,1.9026471E0,0E0,1.2072425E0,0E0,0E0],"parents":[2147483647,0,0,1,1,2,2,3,3,4,4,10,10,12,12],"right_children":[2,4,6,8,10,-1,-1,-1,-1,-1,12,-1,14,-1,-1],"split_conditions":[NaN,4.79E1,2.00001E0,1E0,6.45E1,-1.0565776E-2,-3.4915318E-3,3.0102967E-3,2.116081E-2,-8.172814E-3,7E1,8.793405E-3,9.9E1,3.2472461E-3,-7.277575E-3],"split_indices":[45,38,42,27,38,0,0,0,0,0,38,0,37,0,0],"split_type":[1,0,0,0,0,0,0,0,0,0,0,0,0,0,0],"sum_hessian":[2.2840807E1,9.257676E0,1.3583132E1,3.190254E0,6.0674224E0,1.1946217E1,1.636915E0,1.7636366E0,1.4266174E0,2.3248613E0,3.742561E0,1.0127147E0,2.7298465E0,1.0995467E0,1.6302998E0],"tree_param":{"num_deleted":"0","num_feature":"47","num_nodes":"15","size_leaf_vector":"1"}},{"base_weights":[-4.5048943E-1,3.6728096E-1,-9.988163E-1,1.6756983E0,-1.7990324E-1,-1.054525E-2,-3.475188E-3,3.651338E-3,2.1211164E-2,-4.865135E-1,4.9018258E-1,-8.623798E-3,1.3475554E-1,-1.1597844E-3,8.48689E-3,3.3190658E-3,-1.2996921E-3],"categories":[2,3],"categories_nodes":[0],"categories_segments":[0],"categories_sizes":[2],"default_left":[1,0,0,0,1,0,0,0,0,0,0,0,0,0,0,0,0],"id":26,"left_children":[1,3,5,7,9,-1,-1,-1,-1,11,13,-1,15,-1,-1,-1,-1],"loss_changes":[1.1015768E1,7.6494484E0,1.590929E-1,1.0488071E0,1.9108664E0,0E0,0E0,0E0,0E0,1.5374838E0,7.619829E-1,0E0,2.080147E-1,0E0,0E0,0E0,0E0],"parents":[2147483647,0,0,1,1,2,2,3,3,4,4,9,9,10,10,12,12],"right_children":[2,4,6,8,10,-1,-1,-1,-1,12,14,-1,16,-1,-1,-1,-1],"split_conditions":[NaN,3.9E1,2.00001E0,1E0,4E0,-1.054525E-2,-3.475188E-3,3.651338E-3,2.1211164E-2,1E0,6.66E1,-8.623798E-3,7.28E1,-1.1597844E-3,8.48689E-3,3.3190658E-3,-1.2996921E-3],"split_indices":[45,38,42,27,44,0,0,0,0,7,38,0,38,0,0,0,0],"split_type":[1,0,0,0,0,0,0,0,0,0,0,0,0,0,0,0,0],"sum_hessian":[2.2748419E1,9.263333E0,1.3485085E1,2.1234279E0,7.139906E0,1.1852194E1,1.6328909E0,1.0002178E0,1.1232101E0,5.0864563E0,2.0534496E0,2.9273326E0,2.1591237E0,1.0145496E0,1.0389E0,1.0920503E0,1.0670733E0],"tree_param":{"num_deleted":"0","num_feature":"47","num_nodes":"17","size_leaf_vector":"1"}},{"base_weights":[-4.4732544E-1,3.6600643E-1,-9.965308E-1,1.3994842E0,-3.0521506E-1,-1.0524864E-2,-3.4589167E-3,2.9863697E-3,2.0702327E-2,-8.135566E-3,1.13315545E-1,8.696834E-3,-3.2792988E-1,3.2152338E-3,-7.2448044E-3],"categories":[2,3],"categories_nodes":[0],"categories_segments":[0],"categories_sizes":[2],"default_left":[1,0,0,0,0,0,0,0,0,0,0,0,0,0,0],"id":27,"left_children":[1,3,5,7,9,-1,-1,-1,-1,-1,11,-1,13,-1,-1],"loss_changes":[1.0930218E1,7.54813E0,1.597662E-1,2.498498E0,1.5909173E0,0E0,0E0,0E0,0E0,0E0,1.8675418E0,0E0,1.1911306E0,0E0,0E0],"parents":[2147483647,0,0,1,1,2,2,3,3,4,4,10,10,12,12],"right_children":[2,4,6,8,10,-1,-1,-1,-1,-1,12,-1,14,-1,-1],"split_conditions":[NaN,4.79E1,2.00001E0,1E0,6.45E1,-1.0524864E-2,-3.4589167E-3,2.9863697E-3,2.0702327E-2,-8.135566E-3,7E1,8.696834E-3,9.9E1,3.2152338E-3,-7.2448044E-3],"split_indices":[45,38,42,27,38,0,0,0,0,0,38,0,37,0,0],"split_type":[1,0,0,0,0,0,0,0,0,0,0,0,0,0,0],"sum_hessian":[2.2653028E1,9.265334E0,1.3387694E1,3.2209957E0,6.0443387E0,1.1758804E1,1.6288905E0,1.7666914E0,1.4543041E0,2.3031385E0,3.7412002E0,1.0206548E0,2.7205455E0,1.1031135E0,1.617432E0],"tree_param":{"num_deleted":"0","num_feature":"47","num_nodes":"15","size_leaf_vector":"1"}},{"base_weights":[-4.4433904E-1,3.6410135E-1,-9.9425656E-1,1.3848786E0,-3.032548E-1,-1.0504616E-2,-3.442719E-3,2.9637322E-3,2.0449579E-2,-8.111837E-3,1.13158934E-1,8.628386E-3,-3.2626E-1,3.1947563E-3,-7.2229602E-3],"categories":[2,3],"categories_nodes":[0],"categories_segments":[0],"categories_sizes":[2],"default_left":[1,0,0,0,0,0,0,0,0,0,0,0,0,0,0],"id":28,"left_children":[1,3,5,7,9,-1,-1,-1,-1,-1,11,-1,13,-1,-1],"loss_changes":[1.0836915E1,7.4165473E0,1.604414E-1,2.440256E0,1.5788637E0,0E0,0E0,0E0,0E0,0E0,1.8433111E0,0E0,1.1807196E0,0E0,0E0],"parents":[2147483647,0,0,1,1,2,2,3,3,4,4,10,10,12,12],"right_children":[2,4,6,8,10,-1,-1,-1,-1,-1,12,-1,14,-1,-1],"split_conditions":[NaN,4.79E1,2.00001E0,1E0,6.45E1,-1.0504616E-2,-3.442719E-3,2.9637322E-3,2.0449579E-2,-8.111837E-3,7E1,8.628386E-3,9.9E1,3.1947563E-3,-7.2229602E-3],"split_indices":[45,38,42,27,38,0,0,0,0,0,38,0,37,0,0],"split_type":[1,0,0,0,0,0,0,0,0,0,0,0,0,0,0],"sum_hessian":[2.2561586E1,9.270626E0,1.3290961E1,3.2398427E0,6.030783E0,1.1666047E1,1.6249139E0,1.770006E0,1.4698368E0,2.289769E0,3.7410142E0,1.026368E0,2.7146463E0,1.1054803E0,1.6091659E0],"tree_param":{"num_deleted":"0","num_feature":"47","num_nodes":"15","size_leaf_vector":"1"}},{"base_weights":[-4.413799E-1,3.6219198E-1,-9.9199355E-1,1.628804E0,-1.7645276E-1,-1.0484505E-2,-3.4265935E-3,3.5932576E-3,2.0539388E-2,-4.8053023E-1,4.8030838E-1,-8.574012E-3,1.3596232E-1,-1.1869797E-3,8.354891E-3,3.307833E-3,-1.2757487E-3],"categories":[2,3],"categories_nodes":[0],"categories_segments":[0],"categories_sizes":[2],"default_left":[1,0,0,0,1,0,0,0,0,0,0,0,0,0,0,0,0],"id":29,"left_children":[1,3,5,7,9,-1,-1,-1,-1,11,13,-1,15,-1,-1,-1,-1],"loss_changes":[1.0744038E1,7.2980533E0,1.611147E-1,9.6945E-1,1.8508096E0,0E0,0E0,0E0,0E0,1.5209737E0,7.5175816E-1,0E0,2.0425716E-1,0E0,0E0,0E0,0E0],"parents":[2147483647,0,0,1,1,2,2,3,3,4,4,9,9,10,10,12,12],"right_children":[2,4,6,8,10,-1,-1,-1,-1,12,14,-1,16,-1,-1,-1,-1],"split_conditions":[NaN,3.9E1,2.00001E0,1E0,4E0,-1.0484505E-2,-3.4265935E-3,3.5932576E-3,2.0539388E-2,1E0,6.66E1,-8.574012E-3,7.28E1,-1.1869797E-3,8.354891E-3,3.307833E-3,-1.2757487E-3],"split_indices":[45,38,42,27,44,0,0,0,0,7,38,0,38,0,0,0,0],"split_type":[1,0,0,0,0,0,0,0,0,0,0,0,0,0,0,0,0],"sum_hessian":[2.2470596E1,9.275715E0,1.3194881E1,2.1637673E0,7.111947E0,1.1573921E1,1.6209605E0,1.0057482E0,1.1580193E0,5.0446362E0,2.0673108E0,2.88824E0,2.1563964E0,1.01736E0,1.0499508E0,1.0931289E0,1.0632675E0],"tree_param":{"num_deleted":"0","num_feature":"47","num_nodes":"17","size_leaf_vector":"1"}},{"base_weights":[-4.3828744E-1,3.6090332E-1,-9.897415E-1,1.361452E0,-3.0011305E-1,-1.0464526E-2,-3.4105415E-3,2.940222E-3,2.001835E-2,-8.075034E-3,1.1309268E-1,8.533833E-3,-3.2382262E-1,3.1632085E-3,-7.190624E-3],"categories":[2,3],"categories_nodes":[0],"categories_segments":[0],"categories_sizes":[2],"default_left":[1,0,0,0,0,0,0,0,0,0,0,0,0,0,0],"id":30,"left_children":[1,3,5,7,9,-1,-1,-1,-1,-1,11,-1,13,-1,-1],"loss_changes":[1.0659716E1,7.205752E0,1.617899E-1,2.329687E0,1.5606091E0,0E0,0E0,0E0,0E0,0E0,1.8093655E0,0E0,1.16498E0,0E0,0E0],"parents":[2147483647,0,0,1,1,2,2,3,3,4,4,10,10,12,12],"right_children":[2,4,6,8,10,-1,-1,-1,-1,-1,12,-1,14,-1,-1],"split_conditions":[NaN,4.79E1,2.00001E0,1E0,6.45E1,-1.0464526E-2,-3.4105415E-3,2.940222E-3,2.001835E-2,-8.075034E-3,7E1,8.533833E-3,9.9E1,3.1632085E-3,-7.190624E-3],"split_indices":[45,38,42,27,38,0,0,0,0,0,38,0,37,0,0],"split_type":[1,0,0,0,0,0,0,0,0,0,0,0,0,0,0],"sum_hessian":[2.2376715E1,9.277258E0,1.3099457E1,3.2691972E0,6.008061E0,1.1482427E1,1.6170304E0,1.7729952E0,1.4962021E0,2.2683861E0,3.7396748E0,1.0341889E0,2.7054858E0,1.1089947E0,1.5964912E0],"tree_param":{"num_deleted":"0","num_feature":"47","num_nodes":"15","size_leaf_vector":"1"}},{"base_weights":[-4.3537784E-1,3.589906E-1,-9.8749995E-1,1.3474777E0,-2.9820493E-1,-1.04446765E-2,-3.3945607E-3,2.9179724E-3,1.978048E-2,-8.0515705E-3,1.1290504E-1,8.466917E-3,-3.2218578E-1,3.1430821E-3,-7.169019E-3],"categories":[2,3],"categories_nodes":[0],"categories_segments":[0],"categories_sizes":[2],"default_left":[1,0,0,0,0,0,0,0,0,0,0,0,0,0,0],"id":31,"left_children":[1,3,5,7,9,-1,-1,-1,-1,-1,11,-1,13,-1,-1],"loss_changes":[1.056776E1,7.081296E0,1.6246891E-1,2.2767582E0,1.5486953E0,0E0,0E0,0E0,0E0,0E0,1.7859379E0,0E0,1.1548129E0,0E0,0E0],"parents":[2147483647,0,0,1,1,2,2,3,3,4,4,10,10,12,12],"right_children":[2,4,6,8,10,-1,-1,-1,-1,-1,12,-1,14,-1,-1],"split_conditions":[NaN,4.79E1,2.00001E0,1E0,6.45E1,-1.04446765E-2,-3.3945607E-3,2.9179724E-3,1.978048E-2,-8.0515705E-3,7E1,8.466917E-3,9.9E1,3.1430821E-3,-7.169019E-3],"split_indices":[45,38,42,27,38,0,0,0,0,0,38,0,37,0,0],"split_type":[1,0,0,0,0,0,0,0,0,0,0,0,0,0,0],"sum_hessian":[2.228666E1,9.281973E0,1.3004687E1,3.2872617E0,5.9947114E0,1.1391563E1,1.6131237E0,1.7762585E0,1.5110033E0,2.2552273E0,3.7394843E0,1.0398133E0,2.699671E0,1.1113269E0,1.588344E0],"tree_param":{"num_deleted":"0","num_feature":"47","num_nodes":"15","size_leaf_vector":"1"}},{"base_weights":[-4.3249455E-1,3.5707548E-1,-9.8526883E-1,1.5841395E0,-1.7313904E-1,-1.0424954E-2,-3.378653E-3,3.5361403E-3,1.9906541E-2,-4.7464997E-1,4.7061104E-1,-8.525031E-3,1.3710503E-1,-1.2195301E-3,8.235014E-3,3.2962412E-3,-1.252285E-3],"categories":[2,3,0],"categories_nodes":[0,10],"categories_segments":[0,2],"categories_sizes":[2,1],"default_left":[1,0,0,0,1,0,0,0,0,0,1,0,0,0,0,0,0],"id":32,"left_children":[1,3,5,7,9,-1,-1,-1,-1,11,13,-1,15,-1,-1,-1,-1],"loss_changes":[1.047626E1,6.9667354E0,1.6314507E-1,8.979082E-1,1.7925134E0,0E0,0E0,0E0,0E0,1.504609E0,7.4465203E-1,0E0,2.0055404E-1,0E0,0E0,0E0,0E0],"parents":[2147483647,0,0,1,1,2,2,3,3,4,4,9,9,10,10,12,12],"right_children":[2,4,6,8,10,-1,-1,-1,-1,12,14,-1,16,-1,-1,-1,-1],"split_conditions":[NaN,3.9E1,2.00001E0,1E0,4E0,-1.0424954E-2,-3.378653E-3,3.5361403E-3,1.9906541E-2,1E0,NaN,-8.525031E-3,7.28E1,-1.2195301E-3,8.235014E-3,3.2962412E-3,-1.252285E-3],"split_indices":[45,38,42,27,44,0,0,0,0,7,2,0,38,0,0,0,0],"split_type":[1,0,0,0,0,0,0,0,0,0,1,0,0,0,0,0,0],"sum_hessian":[2.2197048E1,9.286482E0,1.2910566E1,2.2022138E0,7.0842686E0,1.1301327E1,1.6092399E0,1.0111915E0,1.1910223E0,5.0034842E0,2.0807843E0,2.8497727E0,2.1537116E0,1.0209125E0,1.0598718E0,1.0942008E0,1.0595106E0],"tree_param":{"num_deleted":"0","num_feature":"47","num_nodes":"17","size_leaf_vector":"1"}},{"base_weights":[-4.2947137E-1,3.557778E-1,-9.830479E-1,1.3250768E0,-2.951517E-1,-1.0405355E-2,-3.3628156E-3,2.8948735E-3,1.9374585E-2,-8.017014E-3,1.1306951E-1,8.363735E-3,-3.1922755E-1,3.1198475E-3,-7.1344026E-3],"categories":[2,3],"categories_nodes":[0],"categories_segments":[0],"categories_sizes":[2],"default_left":[1,0,0,0,0,0,0,0,0,0,0,0,0,0,0],"id":33,"left_children":[1,3,5,7,9,-1,-1,-1,-1,-1,11,-1,13,-1,-1],"loss_changes":[1.0393235E1,6.881983E0,1.6382217E-1,2.1757307E0,1.5324199E0,0E0,0E0,0E0,0E0,0E0,1.7482615E0,0E0,1.1404948E0,0E0,0E0],"parents":[2147483647,0,0,1,1,2,2,3,3,4,4,10,10,12,12],"right_children":[2,4,6,8,10,-1,-1,-1,-1,-1,12,-1,14,-1,-1],"split_conditions":[NaN,4.79E1,2.00001E0,1E0,6.45E1,-1.0405355E-2,-3.3628156E-3,2.8948735E-3,1.9374585E-2,-8.017014E-3,7E1,8.363735E-3,9.9E1,3.1198475E-3,-7.1344026E-3],"split_indices":[45,38,42,27,38,0,0,0,0,0,38,0,37,0,0],"split_type":[1,0,0,0,0,0,0,0,0,0,0,0,0,0,0],"sum_hessian":[2.2104652E1,9.287554E0,1.2817099E1,3.3152084E0,5.972345E0,1.12117195E1,1.6053791E0,1.7791828E0,1.5360256E0,2.235049E0,3.737296E0,1.0484117E0,2.6888843E0,1.1138996E0,1.5749848E0],"tree_param":{"num_deleted":"0","num_feature":"47","num_nodes":"15","size_leaf_vector":"1"}},{"base_weights":[-4.2663625E-1,3.53862E-1,-9.808368E-1,1.3117024E0,-2.932947E-1,-1.0385879E-2,-3.3470502E-3,2.873003E-3,1.9150496E-2,-7.993797E-3,1.1284981E-1,8.298418E-3,-3.1762493E-1,3.1000134E-3,-7.1130437E-3],"categories":[2,3],"categories_nodes":[0],"categories_segments":[0],"categories_sizes":[2],"default_left":[1,0,0,0,0,0,0,0,0,0,0,0,0,0,0],"id":34,"left_children":[1,3,5,7,9,-1,-1,-1,-1,-1,11,-1,13,-1,-1],"loss_changes":[1.0302695E1,6.7642503E0,1.6449833E-1,2.127586E0,1.5206287E0,0E0,0E0,0E0,0E0,0E0,1.7256707E0,0E0,1.1305544E0,0E0,0E0],"parents":[2147483647,0,0,1,1,2,2,3,3,4,4,10,10,12,12],"right_children":[2,4,6,8,10,-1,-1,-1,-1,-1,12,-1,14,-1,-1],"split_conditions":[NaN,4.79E1,2.00001E0,1E0,6.45E1,-1.0385879E-2,-3.3470502E-3,2.873003E-3,1.9150496E-2,-7.993797E-3,7E1,8.298418E-3,9.9E1,3.1000134E-3,-7.1130437E-3],"split_indices":[45,38,42,27,38,0,0,0,0,0,38,0,37,0,0],"split_type":[1,0,0,0,0,0,0,0,0,0,0,0,0,0,0],"sum_hessian":[2.2015963E1,9.291683E0,1.272428E1,3.3324852E0,5.9591975E0,1.1122739E1,1.6015412E0,1.7823956E0,1.5500896E0,2.2220945E0,3.7371032E0,1.0539404E0,2.683163E0,1.1162027E0,1.5669601E0],"tree_param":{"num_deleted":"0","num_feature":"47","num_nodes":"15","size_leaf_vector":"1"}},{"base_weights":[-4.238266E-1,3.5194525E-1,-9.7863543E-1,1.5415894E0,-1.6995728E-1,-1.0366522E-2,-3.3313558E-3,3.4799678E-3,1.931001E-2,-4.6887076E-1,4.610905E-1,-8.476826E-3,1.3818444E-1,-1.253423E-3,8.118018E-3,3.2843538E-3,-1.2293387E-3],"categories":[2,3],"categories_nodes":[0],"categories_segments":[0],"categories_sizes":[2],"default_left":[1,0,0,0,1,0,0,0,0,0,0,0,0,0,0,0,0],"id":35,"left_children":[1,3,5,7,9,-1,-1,-1,-1,11,13,-1,15,-1,-1,-1,-1],"loss_changes":[1.0212631E1,6.654322E0,1.6517448E-1,8.3338165E-1,1.7359473E0,0E0,0E0,0E0,0E0,1.4883856E0,7.3806417E-1,0E0,1.9691472E-1,0E0,0E0,0E0,0E0],"parents":[2147483647,0,0,1,1,2,2,3,3,4,4,9,9,10,10,12,12],"right_children":[2,4,6,8,10,-1,-1,-1,-1,12,14,-1,16,-1,-1,-1,-1],"split_conditions":[NaN,3.9E1,2.00001E0,1E0,4E0,-1.0366522E-2,-3.3313558E-3,3.4799678E-3,1.931001E-2,1E0,6.66E1,-8.476826E-3,7.28E1,-1.253423E-3,8.118018E-3,3.2843538E-3,-1.2293387E-3],"split_indices":[45,38,42,27,44,0,0,0,0,7,38,0,38,0,0,0,0],"split_type":[1,0,0,0,0,0,0,0,0,0,0,0,0,0,0,0,0],"sum_hessian":[2.1927715E1,9.295606E0,1.263211E1,2.238743E0,7.0568624E0,1.1034384E1,1.5977256E0,1.0165489E0,1.2221942E0,4.9629965E0,2.093866E0,2.8119261E0,2.1510704E0,1.024081E0,1.069785E0,1.0952603E0,1.0558101E0],"tree_param":{"num_deleted":"0","num_feature":"47","num_nodes":"17","size_leaf_vector":"1"}},{"base_weights":[-4.208706E-1,3.5064235E-1,-9.7644347E-1,1.290279E0,-2.9032812E-1,-1.0347282E-2,-3.3157319E-3,2.85031E-3,1.8768117E-2,-7.957827E-3,1.1266078E-1,8.207853E-3,-3.1530452E-1,3.0693063E-3,-7.0815263E-3],"categories":[2,3],"categories_nodes":[0],"categories_segments":[0],"categories_sizes":[2],"default_left":[1,0,0,0,0,0,0,0,0,0,0,0,0,0,0],"id":36,"left_children":[1,3,5,7,9,-1,-1,-1,-1,-1,11,-1,13,-1,-1],"loss_changes":[1.0130952E1,6.5757937E0,1.6584969E-1,2.0351715E0,1.5027071E0,0E0,0E0,0E0,0E0,0E0,1.6939975E0,0E0,1.1155126E0,0E0,0E0],"parents":[2147483647,0,0,1,1,2,2,3,3,4,4,10,10,12,12],"right_children":[2,4,6,8,10,-1,-1,-1,-1,-1,12,-1,14,-1,-1],"split_conditions":[NaN,4.79E1,2.00001E0,1E0,6.45E1,-1.0347282E-2,-3.3157319E-3,2.85031E-3,1.8768117E-2,-7.957827E-3,7E1,8.207853E-3,9.9E1,3.0693063E-3,-7.0815263E-3],"split_indices":[45,38,42,27,38,0,0,0,0,0,38,0,37,0,0],"split_type":[1,0,0,0,0,0,0,0,0,0,0,0,0,0,0],"sum_hessian":[2.1836786E1,9.296201E0,1.25405855E1,3.3590143E0,5.9371867E0,1.0946652E1,1.5939331E0,1.7852556E0,1.5737587E0,2.201377E0,3.7358098E0,1.0615153E0,2.6742945E0,1.1196215E0,1.554673E0],"tree_param":{"num_deleted":"0","num_feature":"47","num_nodes":"15","size_leaf_vector":"1"}},{"base_weights":[-4.181075E-1,3.4872752E-1,-9.742607E-1,1.2774737E0,-2.8852066E-1,-1.0328154E-2,-3.3001786E-3,2.828812E-3,1.855679E-2,-7.934857E-3,1.1241352E-1,8.143998E-3,-3.1373346E-1,3.0498125E-3,-7.060394E-3],"categories":[2,3],"categories_nodes":[0],"categories_segments":[0],"categories_sizes":[2],"default_left":[1,0,0,0,0,0,0,0,0,0,0,0,0,0,0],"id":37,"left_children":[1,3,5,7,9,-1,-1,-1,-1,-1,11,-1,13,-1,-1],"loss_changes":[1.0041884E1,6.4643965E0,1.6652393E-1,1.991322E0,1.4910648E0,0E0,0E0,0E0,0E0,0E0,1.6721588E0,0E0,1.1058052E0,0E0,0E0],"parents":[2147483647,0,0,1,1,2,2,3,3,4,4,10,10,12,12],"right_children":[2,4,6,8,10,-1,-1,-1,-1,-1,12,-1,14,-1,-1],"split_conditions":[NaN,4.79E1,2.00001E0,1E0,6.45E1,-1.0328154E-2,-3.3001786E-3,2.828812E-3,1.855679E-2,-7.934857E-3,7E1,8.143998E-3,9.9E1,3.0498125E-3,-7.060394E-3],"split_indices":[45,38,42,27,38,0,0,0,0,0,38,0,37,0,0],"split_type":[1,0,0,0,0,0,0,0,0,0,0,0,0,0,0],"sum_hessian":[2.1749449E1,9.299744E0,1.2449705E1,3.375503E0,5.92424E0,1.0859542E1,1.5901628E0,1.7884183E0,1.5870848E0,2.1886306E0,3.7356095E0,1.0669535E0,2.668656E0,1.1218904E0,1.5467656E0],"tree_param":{"num_deleted":"0","num_feature":"47","num_nodes":"15","size_leaf_vector":"1"}},{"base_weights":[-4.1536927E-1,3.468129E-1,-9.72087E-1,1.5010405E0,-1.6690251E-1,-1.0309142E-2,-3.2846944E-3,3.4247232E-3,1.8747326E-2,-4.6319026E-1,4.5174277E-1,-8.429372E-3,1.392043E-1,-1.2802784E-3,7.992856E-3,3.2721516E-3,-1.2068477E-3],"categories":[2,3],"categories_nodes":[0],"categories_segments":[0],"categories_sizes":[2],"default_left":[1,0,0,0,1,0,0,0,0,0,0,0,0,0,0,0,0],"id":38,"left_children":[1,3,5,7,9,-1,-1,-1,-1,11,13,-1,15,-1,-1,-1,-1],"loss_changes":[9.953314E0,6.3596816E0,1.6719437E-1,7.751441E-1,1.681069E0,0E0,0E0,0E0,0E0,1.4723091E0,7.2828925E-1,0E0,1.9333026E-1,0E0,0E0,0E0,0E0],"parents":[2147483647,0,0,1,1,2,2,3,3,4,4,9,9,10,10,12,12],"right_children":[2,4,6,8,10,-1,-1,-1,-1,12,14,-1,16,-1,-1,-1,-1],"split_conditions":[NaN,3.9E1,2.00001E0,1E0,4E0,-1.0309142E-2,-3.2846944E-3,3.4247232E-3,1.8747326E-2,1E0,6.66E1,-8.429372E-3,7.28E1,-1.2802784E-3,7.992856E-3,3.2721516E-3,-1.2068477E-3],"split_indices":[45,38,42,27,44,0,0,0,0,7,38,0,38,0,0,0,0],"split_type":[1,0,0,0,0,0,0,0,0,0,0,0,0,0,0,0,0],"sum_hessian":[2.166255E1,9.30308E0,1.235947E1,2.2733455E0,7.029734E0,1.0773055E1,1.5864147E0,1.0218213E0,1.2515242E0,4.923166E0,2.1065683E0,2.7746975E0,2.1484683E0,1.0262309E0,1.0803374E0,1.0963103E0,1.052158E0],"tree_param":{"num_deleted":"0","num_feature":"47","num_nodes":"17","size_leaf_vector":"1"}},{"base_weights":[-4.1247863E-1,3.4550816E-1,-9.69922E-1,1.2569788E0,-2.8563878E-1,-1.0290236E-2,-3.2692808E-3,2.8065161E-3,1.8196214E-2,-7.89929E-3,1.1216944E-1,8.055334E-3,-3.1146944E-1,3.0195576E-3,-7.0292763E-3],"categories":[2,3],"categories_nodes":[0],"categories_segments":[0],"categories_sizes":[2],"default_left":[1,0,0,0,0,0,0,0,0,0,0,0,0,0,0],"id":39,"left_children":[1,3,5,7,9,-1,-1,-1,-1,-1,11,-1,13,-1,-1],"loss_changes":[9.87302E0,6.2861776E0,1.6786385E-1,1.9066811E0,1.4733369E0,0E0,0E0,0E0,0E0,0E0,1.6415416E0,0E0,1.091112E0,0E0,0E0],"parents":[2147483647,0,0,1,1,2,2,3,3,4,4,10,10,12,12],"right_children":[2,4,6,8,10,-1,-1,-1,-1,-1,12,-1,14,-1,-1],"split_conditions":[NaN,4.79E1,2.00001E0,1E0,6.45E1,-1.0290236E-2,-3.2692808E-3,2.8065161E-3,1.8196214E-2,-7.89929E-3,7E1,8.055334E-3,9.9E1,3.0195576E-3,-7.0292763E-3],"split_indices":[45,38,42,27,38,0,0,0,0,0,38,0,37,0,0],"split_type":[1,0,0,0,0,0,0,0,0,0,0,0,0,0,0],"sum_hessian":[2.1573065E1,9.303191E0,1.2269875E1,3.4006152E0,5.9025755E0,1.0687185E1,1.5826888E0,1.791215E0,1.6094004E0,2.168247E0,3.7343285E0,1.0744039E0,2.6599247E0,1.1252567E0,1.534668E0],"tree_param":{"num_deleted":"0","num_feature":"47","num_nodes":"15","size_leaf_vector":"1"}},{"base_weights":[-4.0978557E-1,3.435974E-1,-9.677656E-1,1.2447122E0,-2.8387973E-1,-1.0271438E-2,-3.2539358E-3,2.785382E-3,1.7996702E-2,-7.87656E-3,1.1189616E-1,7.992905E-3,-3.0992922E-1,3.0003982E-3,-7.0083663E-3],"categories":[2,3],"categories_nodes":[0],"categories_segments":[0],"categories_sizes":[2],"default_left":[1,0,0,0,0,0,0,0,0,0,0,0,0,0,0],"id":40,"left_children":[1,3,5,7,9,-1,-1,-1,-1,-1,11,-1,13,-1,-1],"loss_changes":[9.785471E0,6.1807427E0,1.6853333E-1,1.866693E0,1.4618471E0,0E0,0E0,0E0,0E0,0E0,1.6204306E0,0E0,1.0816319E0,0E0,0E0],"parents":[2147483647,0,0,1,1,2,2,3,3,4,4,10,10,12,12],"right_children":[2,4,6,8,10,-1,-1,-1,-1,-1,12,-1,14,-1,-1],"split_conditions":[NaN,4.79E1,2.00001E0,1E0,6.45E1,-1.0271438E-2,-3.2539358E-3,2.785382E-3,1.7996702E-2,-7.87656E-3,7E1,7.992905E-3,9.9E1,3.0003982E-3,-7.0083663E-3],"split_indices":[45,38,42,27,38,0,0,0,0,0,38,0,37,0,0],"split_type":[1,0,0,0,0,0,0,0,0,0,0,0,0,0,0],"sum_hessian":[2.1487068E1,9.306149E0,1.2180921E1,3.4163206E0,5.8898273E0,1.0601935E1,1.578985E0,1.7943287E0,1.621992E0,2.1557076E0,3.73412E0,1.0797513E0,2.6543686E0,1.1274918E0,1.5268768E0],"tree_param":{"num_deleted":"0","num_feature":"47","num_nodes":"15","size_leaf_vector":"1"}},{"base_weights":[-4.0711635E-1,3.416881E-1,-9.6561754E-1,1.4623818E0,-1.639709E-1,-1.0252745E-2,-3.238661E-3,3.3703882E-3,1.8216161E-2,-4.576063E-1,4.4256437E-1,-8.38264E-3,1.401668E-1,-1.3070183E-3,7.870013E-3,3.2596558E-3,-1.1848E-3],"categories":[2,3],"categories_nodes":[0],"categories_segments":[0],"categories_sizes":[2],"default_left":[1,0,0,0,1,0,0,0,0,0,0,0,0,0,0,0,0],"id":41,"left_children":[1,3,5,7,9,-1,-1,-1,-1,11,13,-1,15,-1,-1,-1,-1],"loss_changes":[9.698432E0,6.081727E0,1.6919708E-1,7.2254324E-1,1.6278343E0,0E0,0E0,0E0,0E0,1.4563802E0,7.1870005E-1,0E0,1.8980078E-1,0E0,0E0,0E0,0E0],"parents":[2147483647,0,0,1,1,2,2,3,3,4,4,9,9,10,10,12,12],"right_children":[2,4,6,8,10,-1,-1,-1,-1,12,14,-1,16,-1,-1,-1,-1],"split_conditions":[NaN,3.9E1,2.00001E0,1E0,4E0,-1.0252745E-2,-3.238661E-3,3.3703882E-3,1.8216161E-2,1E0,6.66E1,-8.38264E-3,7.28E1,-1.3070183E-3,7.870013E-3,3.2596558E-3,-1.1848E-3],"split_indices":[45,38,42,27,44,0,0,0,0,7,38,0,38,0,0,0,0],"split_type":[1,0,0,0,0,0,0,0,0,0,0,0,0,0,0,0,0],"sum_hessian":[2.1401503E1,9.3089E0,1.2092602E1,2.3060226E0,7.002877E0,1.0517299E1,1.5753033E0,1.0270096E0,1.2790129E0,4.8839865E0,2.118891E0,2.7380826E0,2.1459036E0,1.028175E0,1.090716E0,1.09735E0,1.0485537E0],"tree_param":{"num_deleted":"0","num_feature":"47","num_nodes":"17","size_leaf_vector":"1"}},{"base_weights":[-4.0428925E-1,3.4038466E-1,-9.634777E-1,1.2250987E0,-2.810804E-1,-1.0234154E-2,-3.2234539E-3,2.7634792E-3,1.7656352E-2,-7.841381E-3,1.11599915E-1,7.9061035E-3,-3.0772018E-1,2.9705903E-3,-6.9776378E-3],"categories":[2,3],"categories_nodes":[0],"categories_segments":[0],"categories_sizes":[2],"default_left":[1,0,0,0,0,0,0,0,0,0,0,0,0,0,0],"id":42,"left_children":[1,3,5,7,9,-1,-1,-1,-1,-1,11,-1,13,-1,-1],"loss_changes":[9.619562E0,6.012174E0,1.698618E-1,1.7890663E0,1.44432E0,0E0,0E0,0E0,0E0,0E0,1.5908362E0,0E0,1.0672793E0,0E0,0E0],"parents":[2147483647,0,0,1,1,2,2,3,3,4,4,10,10,12,12],"right_children":[2,4,6,8,10,-1,-1,-1,-1,-1,12,-1,14,-1,-1],"split_conditions":[NaN,4.79E1,2.00001E0,1E0,6.45E1,-1.0234154E-2,-3.2234539E-3,2.7634792E-3,1.7656352E-2,-7.841381E-3,7E1,7.9061035E-3,9.9E1,2.9705903E-3,-6.9776378E-3],"split_indices":[45,38,42,27,38,0,0,0,0,0,38,0,37,0,0],"split_type":[1,0,0,0,0,0,0,0,0,0,0,0,0,0,0],"sum_hessian":[2.1313448E1,9.308526E0,1.2004922E1,3.4400225E0,5.868504E0,1.0433278E1,1.5716432E0,1.7970623E0,1.6429603E0,2.1356556E0,3.7328484E0,1.0870754E0,2.645773E0,1.1308059E0,1.5149671E0],"tree_param":{"num_deleted":"0","num_feature":"47","num_nodes":"15","size_leaf_vector":"1"}},{"base_weights":[-4.0166387E-1,3.3848104E-1,-9.613456E-1,1.2133425E0,-2.7936855E-1,-1.0215663E-2,-3.2083164E-3,2.7427038E-3,1.7467787E-2,-7.818886E-3,1.1130217E-1,4.8864165E-1,-6.058289E-3,-2.0482135E-3,9.175327E-3],"categories":[2,3],"categories_nodes":[0],"categories_segments":[0],"categories_sizes":[2],"default_left":[1,0,0,0,0,0,0,0,0,0,0,0,0,0,0],"id":43,"left_children":[1,3,5,7,9,-1,-1,-1,-1,-1,11,13,-1,-1,-1],"loss_changes":[9.533571E0,5.912352E0,1.7051983E-1,1.7525506E0,1.4329854E0,0E0,0E0,0E0,0E0,0E0,1.576692E0,1.2748525E0,0E0,0E0,0E0],"parents":[2147483647,0,0,1,1,2,2,3,3,4,4,10,10,11,11],"right_children":[2,4,6,8,10,-1,-1,-1,-1,-1,12,14,-1,-1,-1],"split_conditions":[NaN,4.79E1,2.00001E0,1E0,6.45E1,-1.0215663E-2,-3.2083164E-3,2.7427038E-3,1.7467787E-2,-7.818886E-3,3.8E0,1E0,-6.058289E-3,-2.0482135E-3,9.175327E-3],"split_indices":[45,38,42,27,38,0,0,0,0,0,36,10,0,0,0],"split_type":[1,0,0,0,0,0,0,0,0,0,0,0,0,0,0],"sum_hessian":[2.1228777E1,9.310903E0,1.1917874E1,3.4549515E0,5.8559513E0,1.034987E1,1.5680047E0,1.8001274E0,1.6548241E0,2.123321E0,3.7326303E0,2.6545024E0,1.0781279E0,1.2140217E0,1.4404808E0],"tree_param":{"num_deleted":"0","num_feature":"47","num_nodes":"15","size_leaf_vector":"1"}},{"base_weights":[-3.991449E-1,3.3623427E-1,-9.5922136E-1,1.425508E0,-1.6145879E-1,-1.0197271E-2,-3.1932467E-3,3.3169477E-3,1.7714342E-2,-4.525715E-1,4.340922E-1,-8.340735E-3,1.4105865E-1,-1.3365779E-3,7.766299E-3,3.25063E-3,-1.1662825E-3],"categories":[2,3,0],"categories_nodes":[0,10],"categories_segments":[0,2],"categories_sizes":[2,1],"default_left":[1,0,0,0,1,0,0,0,0,0,1,0,0,0,0,0,0],"id":44,"left_children":[1,3,5,7,9,-1,-1,-1,-1,11,13,-1,15,-1,-1,-1,-1],"loss_changes":[9.444126E0,5.8223953E0,1.7117691E-1,6.74994E-1,1.5797324E0,0E0,0E0,0E0,0E0,1.4422005E0,7.1251076E-1,0E0,1.8696278E-1,0E0,0E0,0E0,0E0],"parents":[2147483647,0,0,1,1,2,2,3,3,4,4,9,9,10,10,12,12],"right_children":[2,4,6,8,10,-1,-1,-1,-1,12,14,-1,16,-1,-1,-1,-1],"split_conditions":[NaN,3.9E1,2.00001E0,1E0,4E0,-1.0197271E-2,-3.1932467E-3,3.3169477E-3,1.7714342E-2,1E0,NaN,-8.340735E-3,7.28E1,-1.3365779E-3,7.766299E-3,3.25063E-3,-1.1662825E-3],"split_indices":[45,38,42,27,44,0,0,0,0,7,2,0,38,0,0,0,0],"split_type":[1,0,0,0,0,0,0,0,0,0,1,0,0,0,0,0,0],"sum_hessian":[2.1146875E1,9.315416E0,1.1831458E1,2.336787E0,6.97863E0,1.026707E1,1.564388E0,1.032115E0,1.3046719E0,4.8486357E0,2.1299942E0,2.7051234E0,2.1435122E0,1.0309744E0,1.0990198E0,1.0980043E0,1.0455079E0],"tree_param":{"num_deleted":"0","num_feature":"47","num_nodes":"17","size_leaf_vector":"1"}},{"base_weights":[-3.9637873E-1,3.349394E-1,-9.571048E-1,1.1945654E0,-2.7695653E-1,-1.0178975E-2,-3.1782445E-3,2.7211888E-3,1.7146207E-2,-7.7858428E-3,1.1059231E-1,4.842023E-1,-6.0333535E-3,-2.0370195E-3,9.076279E-3],"categories":[2,3],"categories_nodes":[0],"categories_segments":[0],"categories_sizes":[2],"default_left":[1,0,0,0,0,0,0,0,0,0,0,0,0,0,0],"id":45,"left_children":[1,3,5,7,9,-1,-1,-1,-1,-1,11,13,-1,-1,-1],"loss_changes":[9.366783E0,5.7563076E0,1.7183018E-1,1.681263E0,1.415309E0,0E0,0E0,0E0,0E0,0E0,1.5545363E0,1.2514583E0,0E0,0E0,0E0],"parents":[2147483647,0,0,1,1,2,2,3,3,4,4,10,10,11,11],"right_children":[2,4,6,8,10,-1,-1,-1,-1,-1,12,14,-1,-1,-1],"split_conditions":[NaN,4.79E1,2.00001E0,1E0,6.45E1,-1.0178975E-2,-3.1782445E-3,2.7211888E-3,1.7146207E-2,-7.7858428E-3,3.8E0,1E0,-6.0333535E-3,-2.0370195E-3,9.076279E-3],"split_indices":[45,38,42,27,38,0,0,0,0,0,36,10,0,0,0],"split_type":[1,0,0,0,0,0,0,0,0,0,0,0,0,0,0],"sum_hessian":[2.106021E1,9.314538E0,1.1745671E1,3.477256E0,5.837282E0,1.0184879E1,1.5607926E0,1.8027983E0,1.6744578E0,2.104415E0,3.7328672E0,2.6617217E0,1.0711455E0,1.2118498E0,1.449872E0],"tree_param":{"num_deleted":"0","num_feature":"47","num_nodes":"15","size_leaf_vector":"1"}},{"base_weights":[-3.9390257E-1,3.3270687E-1,-9.5499545E-1,1.1832917E0,-2.7559865E-1,-1.0160771E-2,-3.1633112E-3,2.7007642E-3,1.6967783E-2,-7.763566E-3,1.0963944E-1,4.8039275E-1,-6.0156384E-3,-2.0273866E-3,8.991727E-3],"categories":[2,3],"categories_nodes":[0],"categories_segments":[0],"categories_sizes":[2],"default_left":[1,0,0,0,0,0,0,0,0,0,0,0,0,0,0],"id":46,"left_children":[1,3,5,7,9,-1,-1,-1,-1,-1,11,13,-1,-1,-1],"loss_changes":[9.278534E0,5.6651406E0,1.7247963E-1,1.6478744E0,1.402167E0,0E0,0E0,0E0,0E0,0E0,1.5375025E0,1.2317657E0,0E0,0E0,0E0],"parents":[2147483647,0,0,1,1,2,2,3,3,4,4,10,10,11,11],"right_children":[2,4,6,8,10,-1,-1,-1,-1,-1,12,14,-1,-1,-1],"split_conditions":[NaN,4.79E1,2.00001E0,1E0,6.45E1,-1.0160771E-2,-3.1633112E-3,2.7007642E-3,1.6967783E-2,-7.763566E-3,3.8E0,1E0,-6.0156384E-3,-2.0273866E-3,8.991727E-3],"split_indices":[45,38,42,27,38,0,0,0,0,0,36,10,0,0,0],"split_type":[1,0,0,0,0,0,0,0,0,0,0,0,0,0,0],"sum_hessian":[2.0979158E1,9.318646E0,1.1660513E1,3.4914193E0,5.827227E0,1.0103294E1,1.5572186E0,1.8058155E0,1.6856039E0,2.0922792E0,3.734948E0,2.668423E0,1.066525E0,1.210191E0,1.4582319E0],"tree_param":{"num_deleted":"0","num_feature":"47","num_nodes":"15","size_leaf_vector":"1"}},{"base_weights":[-3.914493E-1,3.3048213E-1,-9.528933E-1,1.3903166E0,-1.5934937E-1,-1.0142661E-2,-3.148444E-3,3.2643839E-3,1.7239837E-2,-4.4807792E-1,4.2630315E-1,-8.303617E-3,1.4188443E-1,-1.3558039E-3,7.6557896E-3,3.2450526E-3,-1.1512726E-3],"categories":[2,3,0],"categories_nodes":[0,10],"categories_segments":[0,2],"categories_sizes":[2,1],"default_left":[1,0,0,0,1,0,0,0,0,0,1,0,0,0,0,0,0],"id":47,"left_children":[1,3,5,7,9,-1,-1,-1,-1,11,13,-1,15,-1,-1,-1,-1],"loss_changes":[9.1909075E0,5.5803866E0,1.7312431E-1,6.3197184E-1,1.5364804E0,0E0,0E0,0E0,0E0,1.4297383E0,7.0236415E-1,0E0,1.8479775E-1,0E0,0E0,0E0,0E0],"parents":[2147483647,0,0,1,1,2,2,3,3,4,4,9,9,10,10,12,12],"right_children":[2,4,6,8,10,-1,-1,-1,-1,12,14,-1,16,-1,-1,-1,-1],"split_conditions":[NaN,3.9E1,2.00001E0,1E0,4E0,-1.0142661E-2,-3.148444E-3,3.2643839E-3,1.7239837E-2,1E0,NaN,-8.303617E-3,7.28E1,-1.3558039E-3,7.6557896E-3,3.2450526E-3,-1.1512726E-3],"split_indices":[45,38,42,27,44,0,0,0,0,7,2,0,38,0,0,0,0],"split_type":[1,0,0,0,0,0,0,0,0,0,1,0,0,0,0,0,0],"sum_hessian":[2.0898508E1,9.322529E0,1.1575979E1,2.3656602E0,6.956868E0,1.0022314E1,1.5536656E0,1.0371388E0,1.3285214E0,4.816987E0,2.1398814E0,2.6757023E0,2.1412845E0,1.031677E0,1.1082044E0,1.0982844E0,1.043E0],"tree_param":{"num_deleted":"0","num_feature":"47","num_nodes":"17","size_leaf_vector":"1"}},{"base_weights":[-3.8874188E-1,3.2920086E-1,-9.507982E-1,1.165306E0,-2.73255E-1,-1.0124639E-2,-3.1336446E-3,2.6796355E-3,1.6663598E-2,-7.7308803E-3,1.08907424E-1,4.760253E-1,-5.9909974E-3,-2.016326E-3,8.8952035E-3],"categories":[2,3],"categories_nodes":[0],"categories_segments":[0],"categories_sizes":[2],"default_left":[1,0,0,0,0,0,0,0,0,0,0,0,0,0,0],"id":48,"left_children":[1,3,5,7,9,-1,-1,-1,-1,-1,11,13,-1,-1,-1],"loss_changes":[9.115162E0,5.5173535E0,1.7376614E-1,1.582304E0,1.384793E0,0E0,0E0,0E0,0E0,0E0,1.515947E0,1.209254E0,0E0,0E0,0E0],"parents":[2147483647,0,0,1,1,2,2,3,3,4,4,10,10,11,11],"right_children":[2,4,6,8,10,-1,-1,-1,-1,-1,12,14,-1,-1,-1],"split_conditions":[NaN,4.79E1,2.00001E0,1E0,6.45E1,-1.0124639E-2,-3.1336446E-3,2.6796355E-3,1.6663598E-2,-7.7308803E-3,3.8E0,1E0,-5.9909974E-3,-2.016326E-3,8.8952035E-3],"split_indices":[45,38,42,27,38,0,0,0,0,0,36,10,0,0,0],"split_type":[1,0,0,0,0,0,0,0,0,0,0,0,0,0,0],"sum_hessian":[2.081321E1,9.32114E0,1.1492069E1,3.5123472E0,5.808793E0,9.941936E0,1.5501338E0,1.8084238E0,1.7039235E0,2.0736804E0,3.7351127E0,2.6754732E0,1.0596393E0,1.2080411E0,1.4674323E0],"tree_param":{"num_deleted":"0","num_feature":"47","num_nodes":"15","size_leaf_vector":"1"}},{"base_weights":[-3.863301E-1,3.2699135E-1,-9.4870985E-1,1.1544882E0,-2.7193835E-1,-1.0106705E-2,-3.1189115E-3,2.6595544E-3,1.6494574E-2,-7.708817E-3,1.07949086E-1,4.7228205E-1,-5.973463E-3,-2.0067915E-3,8.812835E-3],"categories":[2,3],"categories_nodes":[0],"categories_segments":[0],"categories_sizes":[2],"default_left":[1,0,0,0,0,0,0,0,0,0,0,0,0,0,0],"id":49,"left_children":[1,3,5,7,9,-1,-1,-1,-1,-1,11,13,-1,-1,-1],"loss_changes":[9.028738E0,5.430961E0,1.7440319E-1,1.5517302E0,1.3718886E0,0E0,0E0,0E0,0E0,0E0,1.4993784E0,1.1903088E0,0E0,0E0,0E0],"parents":[2147483647,0,0,1,1,2,2,3,3,4,4,10,10,11,11],"right_children":[2,4,6,8,10,-1,-1,-1,-1,-1,12,14,-1,-1,-1],"split_conditions":[NaN,4.79E1,2.00001E0,1E0,6.45E1,-1.0106705E-2,-3.1189115E-3,2.6595544E-3,1.6494574E-2,-7.708817E-3,3.8E0,1E0,-5.973463E-3,-2.0067915E-3,8.812835E-3],"split_indices":[45,38,42,27,38,0,0,0,0,0,36,10,0,0,0],"split_type":[1,0,0,0,0,0,0,0,0,0,0,0,0,0,0],"sum_hessian":[2.0733402E1,9.324623E0,1.1408778E1,3.5257585E0,5.798865E0,9.862155E0,1.546623E0,1.8113937E0,1.7143648E0,2.061741E0,3.7371237E0,2.682043E0,1.0550805E0,1.2064021E0,1.4756411E0],"tree_param":{"num_deleted":"0","num_feature":"47","num_nodes":"15","size_leaf_vector":"1"}}]},"name":"gbtree"},"learner_model_param":{"base_score":"1.5981913E-1","boost_from_average":"1","num_class":"0","num_feature":"47","num_target":"1"},"objective":{"name":"binary:logistic","reg_loss_param":{"scale_pos_weight":"1"}}},"version":[2,1,3]}